<?xml version="1.0"?>
<opencv_storage>
<opencv_ml_knn>
  <format>3</format>
  <is_classifier>1</is_classifier>
  <default_k>10</default_k>
  <samples type_id="opencv-matrix">
    <rows>160</rows>
    <cols>16</cols>
    <dt>f</dt>
    <data>
      3.63636352e-02 6.54545426e-01 9.09090936e-01 9.27272737e-01
      7.45454550e-01 3.27272713e-01 2.54545450e-01 2.36363634e-01
      2.18181819e-01 2.18181819e-01 2.18181819e-01 2.00000003e-01
      2.18181819e-01 2.54545450e-01 3.09090912e-01 5.45454562e-01 0.
      5.63636363e-01 9.27272737e-01 9.63636339e-01 9.27272737e-01
      3.45454544e-01 2.90909082e-01 2.18181819e-01 2.00000003e-01
      2.18181819e-01 2.18181819e-01 2.18181819e-01 2.36363634e-01
      2.90909082e-01 3.27272713e-01 6.90909088e-01 0. 2.22222224e-01
      8.33333313e-01 9.62962985e-01 9.44444418e-01 5.00000000e-01
      2.59259254e-01 2.22222224e-01 2.03703701e-01 2.03703701e-01
      2.03703701e-01 2.03703701e-01 2.03703701e-01 2.22222224e-01
      2.77777791e-01 5.92592597e-01 0. 4.72727269e-01 9.27272737e-01
      9.63636339e-01 9.63636339e-01 4.18181807e-01 3.09090912e-01
      2.36363634e-01 2.18181819e-01 2.18181819e-01 2.18181819e-01
      2.18181819e-01 2.36363634e-01 2.72727281e-01 3.45454544e-01
      8.00000012e-01 0. 4.90909100e-01 8.18181813e-01 9.27272737e-01
      9.09090936e-01 3.45454544e-01 2.54545450e-01 2.36363634e-01
      2.36363634e-01 2.36363634e-01 2.18181819e-01 2.18181819e-01
      2.54545450e-01 2.54545450e-01 2.90909082e-01 7.45454550e-01 0.
      6.60714269e-01 8.92857134e-01 9.28571403e-01 9.46428597e-01
      9.64285731e-01 5.71428597e-01 3.57142866e-01 3.03571433e-01
      2.85714298e-01 2.85714298e-01 2.85714298e-01 2.85714298e-01
      3.39285702e-01 3.92857134e-01 7.85714269e-01 7.59259284e-01
      9.44444418e-01 9.62962985e-01 9.81481493e-01 9.81481493e-01
      3.70370358e-01 3.14814806e-01 2.59259254e-01 2.40740746e-01
      2.40740746e-01 2.40740746e-01 2.40740746e-01 2.77777791e-01
      3.33333343e-01 9.07407403e-01 9.81481493e-01 7.59259284e-01
      9.44444418e-01 9.62962985e-01 9.81481493e-01 9.81481493e-01
      3.70370358e-01 3.14814806e-01 2.59259254e-01 2.40740746e-01
      2.40740746e-01 2.40740746e-01 2.40740746e-01 2.77777791e-01
      3.33333343e-01 9.07407403e-01 9.81481493e-01 0. 6.60714269e-01
      8.92857134e-01 9.28571403e-01 9.46428597e-01 9.64285731e-01
      5.71428597e-01 3.57142866e-01 3.03571433e-01 2.85714298e-01
      2.85714298e-01 2.85714298e-01 2.85714298e-01 3.39285702e-01
      3.92857134e-01 7.85714269e-01 5.45454547e-02 4.54545468e-01
      9.09090936e-01 9.45454538e-01 8.54545474e-01 3.81818175e-01
      2.36363634e-01 2.18181819e-01 2.18181819e-01 2.18181819e-01
      2.00000003e-01 2.00000003e-01 2.00000003e-01 2.54545450e-01
      3.09090912e-01 4.00000006e-01 0. 6.60714269e-01 8.92857134e-01
      9.28571403e-01 9.46428597e-01 9.64285731e-01 5.71428597e-01
      3.57142866e-01 3.03571433e-01 2.85714298e-01 2.85714298e-01
      2.85714298e-01 2.85714298e-01 3.39285702e-01 3.92857134e-01
      7.85714269e-01 0. 4.72727269e-01 9.27272737e-01 9.63636339e-01
      9.63636339e-01 4.18181807e-01 3.09090912e-01 2.36363634e-01
      2.18181819e-01 2.18181819e-01 2.18181819e-01 2.18181819e-01
      2.36363634e-01 2.72727281e-01 3.45454544e-01 8.00000012e-01 0.
      6.60714269e-01 8.92857134e-01 9.28571403e-01 9.46428597e-01
      9.64285731e-01 5.71428597e-01 3.57142866e-01 3.03571433e-01
      2.85714298e-01 2.85714298e-01 2.85714298e-01 2.85714298e-01
      3.39285702e-01 3.92857134e-01 7.85714269e-01 3.63636352e-02
      6.54545426e-01 9.09090936e-01 9.27272737e-01 7.45454550e-01
      3.27272713e-01 2.54545450e-01 2.36363634e-01 2.18181819e-01
      2.18181819e-01 2.18181819e-01 2.00000003e-01 2.18181819e-01
      2.54545450e-01 3.09090912e-01 5.45454562e-01 3.63636352e-02
      6.54545426e-01 9.09090936e-01 9.27272737e-01 7.45454550e-01
      3.27272713e-01 2.54545450e-01 2.36363634e-01 2.18181819e-01
      2.18181819e-01 2.18181819e-01 2.00000003e-01 2.18181819e-01
      2.54545450e-01 3.09090912e-01 5.45454562e-01 3.63636352e-02
      6.54545426e-01 9.09090936e-01 9.27272737e-01 7.45454550e-01
      3.27272713e-01 2.54545450e-01 2.36363634e-01 2.18181819e-01
      2.18181819e-01 2.18181819e-01 2.00000003e-01 2.18181819e-01
      2.54545450e-01 3.09090912e-01 5.45454562e-01 0. 5.63636363e-01
      9.27272737e-01 9.63636339e-01 9.27272737e-01 3.45454544e-01
      2.90909082e-01 2.18181819e-01 2.00000003e-01 2.18181819e-01
      2.18181819e-01 2.18181819e-01 2.36363634e-01 2.90909082e-01
      3.27272713e-01 6.90909088e-01 0. 6.60714269e-01 8.92857134e-01
      9.28571403e-01 9.46428597e-01 9.64285731e-01 5.71428597e-01
      3.57142866e-01 3.03571433e-01 2.85714298e-01 2.85714298e-01
      2.85714298e-01 2.85714298e-01 3.39285702e-01 3.92857134e-01
      7.85714269e-01 5.92592597e-01 9.62962985e-01 9.81481493e-01 1. 1.
      4.07407403e-01 2.96296299e-01 2.59259254e-01 2.59259254e-01
      2.59259254e-01 2.59259254e-01 2.59259254e-01 2.96296299e-01
      3.70370358e-01 5.18518507e-01 1. 5.92592597e-01 9.62962985e-01
      9.81481493e-01 1. 1. 4.07407403e-01 2.96296299e-01 2.59259254e-01
      2.59259254e-01 2.59259254e-01 2.59259254e-01 2.59259254e-01
      2.96296299e-01 3.70370358e-01 5.18518507e-01 1. 0. 4.90909100e-01
      8.18181813e-01 9.27272737e-01 9.09090936e-01 3.45454544e-01
      2.54545450e-01 2.36363634e-01 2.36363634e-01 2.36363634e-01
      2.18181819e-01 2.18181819e-01 2.54545450e-01 2.54545450e-01
      2.90909082e-01 7.45454550e-01 0. 2.22222224e-01 8.33333313e-01
      9.62962985e-01 9.44444418e-01 5.00000000e-01 2.59259254e-01
      2.22222224e-01 2.03703701e-01 2.03703701e-01 2.03703701e-01
      2.03703701e-01 2.03703701e-01 2.22222224e-01 2.77777791e-01
      5.92592597e-01 0. 5.63636363e-01 9.27272737e-01 9.63636339e-01
      9.27272737e-01 3.45454544e-01 2.90909082e-01 2.18181819e-01
      2.00000003e-01 2.18181819e-01 2.18181819e-01 2.18181819e-01
      2.36363634e-01 2.90909082e-01 3.27272713e-01 6.90909088e-01
      5.92592597e-01 9.62962985e-01 9.81481493e-01 1. 1. 4.07407403e-01
      2.96296299e-01 2.59259254e-01 2.59259254e-01 2.59259254e-01
      2.59259254e-01 2.59259254e-01 2.96296299e-01 3.70370358e-01
      5.18518507e-01 1. 0. 6.60714269e-01 8.92857134e-01 9.28571403e-01
      9.46428597e-01 9.64285731e-01 5.71428597e-01 3.57142866e-01
      3.03571433e-01 2.85714298e-01 2.85714298e-01 2.85714298e-01
      2.85714298e-01 3.39285702e-01 3.92857134e-01 7.85714269e-01 0.
      4.90909100e-01 8.18181813e-01 9.27272737e-01 9.09090936e-01
      3.45454544e-01 2.54545450e-01 2.36363634e-01 2.36363634e-01
      2.36363634e-01 2.18181819e-01 2.18181819e-01 2.54545450e-01
      2.54545450e-01 2.90909082e-01 7.45454550e-01 0. 5.63636363e-01
      9.27272737e-01 9.63636339e-01 9.27272737e-01 3.45454544e-01
      2.90909082e-01 2.18181819e-01 2.00000003e-01 2.18181819e-01
      2.18181819e-01 2.18181819e-01 2.36363634e-01 2.90909082e-01
      3.27272713e-01 6.90909088e-01 0. 2.18181819e-01 8.90909076e-01
      9.27272737e-01 9.45454538e-01 9.09090936e-01 3.09090912e-01
      2.54545450e-01 2.36363634e-01 2.36363634e-01 2.36363634e-01
      2.54545450e-01 2.72727281e-01 2.54545450e-01 3.09090912e-01
      4.54545468e-01 0. 2.18181819e-01 8.90909076e-01 9.27272737e-01
      9.45454538e-01 9.09090936e-01 3.09090912e-01 2.54545450e-01
      2.36363634e-01 2.36363634e-01 2.36363634e-01 2.54545450e-01
      2.72727281e-01 2.54545450e-01 3.09090912e-01 4.54545468e-01 0.
      6.60714269e-01 8.92857134e-01 9.28571403e-01 9.46428597e-01
      9.64285731e-01 5.71428597e-01 3.57142866e-01 3.03571433e-01
      2.85714298e-01 2.85714298e-01 2.85714298e-01 2.85714298e-01
      3.39285702e-01 3.92857134e-01 7.85714269e-01 0. 6.60714269e-01
      8.92857134e-01 9.28571403e-01 9.46428597e-01 9.64285731e-01
      5.71428597e-01 3.57142866e-01 3.03571433e-01 2.85714298e-01
      2.85714298e-01 2.85714298e-01 2.85714298e-01 3.39285702e-01
      3.92857134e-01 7.85714269e-01 0. 4.90909100e-01 8.18181813e-01
      9.27272737e-01 9.09090936e-01 3.45454544e-01 2.54545450e-01
      2.36363634e-01 2.36363634e-01 2.36363634e-01 2.18181819e-01
      2.18181819e-01 2.54545450e-01 2.54545450e-01 2.90909082e-01
      7.45454550e-01 0. 4.90909100e-01 8.18181813e-01 9.27272737e-01
      9.09090936e-01 3.45454544e-01 2.54545450e-01 2.36363634e-01
      2.36363634e-01 2.36363634e-01 2.18181819e-01 2.18181819e-01
      2.54545450e-01 2.54545450e-01 2.90909082e-01 7.45454550e-01 0.
      4.90909100e-01 8.18181813e-01 9.27272737e-01 9.09090936e-01
      3.45454544e-01 2.54545450e-01 2.36363634e-01 2.36363634e-01
      2.36363634e-01 2.18181819e-01 2.18181819e-01 2.54545450e-01
      2.54545450e-01 2.90909082e-01 7.45454550e-01 5.92592597e-01
      9.62962985e-01 9.81481493e-01 1. 1. 4.07407403e-01 2.96296299e-01
      2.59259254e-01 2.59259254e-01 2.59259254e-01 2.59259254e-01
      2.59259254e-01 2.96296299e-01 3.70370358e-01 5.18518507e-01 1.
      7.59259284e-01 9.44444418e-01 9.62962985e-01 9.81481493e-01
      9.81481493e-01 3.70370358e-01 3.14814806e-01 2.59259254e-01
      2.40740746e-01 2.40740746e-01 2.40740746e-01 2.40740746e-01
      2.77777791e-01 3.33333343e-01 9.07407403e-01 9.81481493e-01
      5.45454547e-02 4.54545468e-01 9.09090936e-01 9.45454538e-01
      8.54545474e-01 3.81818175e-01 2.36363634e-01 2.18181819e-01
      2.18181819e-01 2.18181819e-01 2.00000003e-01 2.00000003e-01
      2.00000003e-01 2.54545450e-01 3.09090912e-01 4.00000006e-01
      3.63636352e-02 6.54545426e-01 9.09090936e-01 9.27272737e-01
      7.45454550e-01 3.27272713e-01 2.54545450e-01 2.36363634e-01
      2.18181819e-01 2.18181819e-01 2.18181819e-01 2.00000003e-01
      2.18181819e-01 2.54545450e-01 3.09090912e-01 5.45454562e-01 0.
      5.63636363e-01 9.27272737e-01 9.63636339e-01 9.27272737e-01
      3.45454544e-01 2.90909082e-01 2.18181819e-01 2.00000003e-01
      2.18181819e-01 2.18181819e-01 2.18181819e-01 2.36363634e-01
      2.90909082e-01 3.27272713e-01 6.90909088e-01 0. 6.60714269e-01
      8.92857134e-01 9.28571403e-01 9.46428597e-01 9.64285731e-01
      5.71428597e-01 3.57142866e-01 3.03571433e-01 2.85714298e-01
      2.85714298e-01 2.85714298e-01 2.85714298e-01 3.39285702e-01
      3.92857134e-01 7.85714269e-01 0. 4.90909100e-01 8.18181813e-01
      9.27272737e-01 9.09090936e-01 3.45454544e-01 2.54545450e-01
      2.36363634e-01 2.36363634e-01 2.36363634e-01 2.18181819e-01
      2.18181819e-01 2.54545450e-01 2.54545450e-01 2.90909082e-01
      7.45454550e-01 5.45454547e-02 4.54545468e-01 9.09090936e-01
      9.45454538e-01 8.54545474e-01 3.81818175e-01 2.36363634e-01
      2.18181819e-01 2.18181819e-01 2.18181819e-01 2.00000003e-01
      2.00000003e-01 2.00000003e-01 2.54545450e-01 3.09090912e-01
      4.00000006e-01 7.59259284e-01 9.44444418e-01 9.62962985e-01
      9.81481493e-01 9.81481493e-01 3.70370358e-01 3.14814806e-01
      2.59259254e-01 2.40740746e-01 2.40740746e-01 2.40740746e-01
      2.40740746e-01 2.77777791e-01 3.33333343e-01 9.07407403e-01
      9.81481493e-01 7.59259284e-01 9.44444418e-01 9.62962985e-01
      9.81481493e-01 9.81481493e-01 3.70370358e-01 3.14814806e-01
      2.59259254e-01 2.40740746e-01 2.40740746e-01 2.40740746e-01
      2.40740746e-01 2.77777791e-01 3.33333343e-01 9.07407403e-01
      9.81481493e-01 0. 6.60714269e-01 8.92857134e-01 9.28571403e-01
      9.46428597e-01 9.64285731e-01 5.71428597e-01 3.57142866e-01
      3.03571433e-01 2.85714298e-01 2.85714298e-01 2.85714298e-01
      2.85714298e-01 3.39285702e-01 3.92857134e-01 7.85714269e-01
      3.63636352e-02 6.54545426e-01 9.09090936e-01 9.27272737e-01
      7.45454550e-01 3.27272713e-01 2.54545450e-01 2.36363634e-01
      2.18181819e-01 2.18181819e-01 2.18181819e-01 2.00000003e-01
      2.18181819e-01 2.54545450e-01 3.09090912e-01 5.45454562e-01
      5.53571403e-01 9.10714269e-01 9.64285731e-01 9.64285731e-01
      9.82142866e-01 8.03571403e-01 3.92857134e-01 3.21428567e-01
      3.03571433e-01 3.03571433e-01 3.03571433e-01 3.21428567e-01
      3.39285702e-01 4.28571433e-01 6.42857134e-01 9.82142866e-01 0.
      4.72727269e-01 9.27272737e-01 9.63636339e-01 9.63636339e-01
      4.18181807e-01 3.09090912e-01 2.36363634e-01 2.18181819e-01
      2.18181819e-01 2.18181819e-01 2.18181819e-01 2.36363634e-01
      2.72727281e-01 3.45454544e-01 8.00000012e-01 0. 2.22222224e-01
      8.33333313e-01 9.62962985e-01 9.44444418e-01 5.00000000e-01
      2.59259254e-01 2.22222224e-01 2.03703701e-01 2.03703701e-01
      2.03703701e-01 2.03703701e-01 2.03703701e-01 2.22222224e-01
      2.77777791e-01 5.92592597e-01 0. 6.60714269e-01 8.92857134e-01
      9.28571403e-01 9.46428597e-01 9.64285731e-01 5.71428597e-01
      3.57142866e-01 3.03571433e-01 2.85714298e-01 2.85714298e-01
      2.85714298e-01 2.85714298e-01 3.39285702e-01 3.92857134e-01
      7.85714269e-01 5.92592597e-01 9.62962985e-01 9.81481493e-01 1. 1.
      4.07407403e-01 2.96296299e-01 2.59259254e-01 2.59259254e-01
      2.59259254e-01 2.59259254e-01 2.59259254e-01 2.96296299e-01
      3.70370358e-01 5.18518507e-01 1. 5.53571403e-01 9.10714269e-01
      9.64285731e-01 9.64285731e-01 9.82142866e-01 8.03571403e-01
      3.92857134e-01 3.21428567e-01 3.03571433e-01 3.03571433e-01
      3.03571433e-01 3.21428567e-01 3.39285702e-01 4.28571433e-01
      6.42857134e-01 9.82142866e-01 3.63636352e-02 6.54545426e-01
      9.09090936e-01 9.27272737e-01 7.45454550e-01 3.27272713e-01
      2.54545450e-01 2.36363634e-01 2.18181819e-01 2.18181819e-01
      2.18181819e-01 2.00000003e-01 2.18181819e-01 2.54545450e-01
      3.09090912e-01 5.45454562e-01 7.59259284e-01 9.44444418e-01
      9.62962985e-01 9.81481493e-01 9.81481493e-01 3.70370358e-01
      3.14814806e-01 2.59259254e-01 2.40740746e-01 2.40740746e-01
      2.40740746e-01 2.40740746e-01 2.77777791e-01 3.33333343e-01
      9.07407403e-01 9.81481493e-01 7.59259284e-01 9.44444418e-01
      9.62962985e-01 9.81481493e-01 9.81481493e-01 3.70370358e-01
      3.14814806e-01 2.59259254e-01 2.40740746e-01 2.40740746e-01
      2.40740746e-01 2.40740746e-01 2.77777791e-01 3.33333343e-01
      9.07407403e-01 9.81481493e-01 5.92592597e-01 9.62962985e-01
      9.81481493e-01 1. 1. 4.07407403e-01 2.96296299e-01 2.59259254e-01
      2.59259254e-01 2.59259254e-01 2.59259254e-01 2.59259254e-01
      2.96296299e-01 3.70370358e-01 5.18518507e-01 1. 0. 6.60714269e-01
      8.92857134e-01 9.28571403e-01 9.46428597e-01 9.64285731e-01
      5.71428597e-01 3.57142866e-01 3.03571433e-01 2.85714298e-01
      2.85714298e-01 2.85714298e-01 2.85714298e-01 3.39285702e-01
      3.92857134e-01 7.85714269e-01 7.59259284e-01 9.44444418e-01
      9.62962985e-01 9.81481493e-01 9.81481493e-01 3.70370358e-01
      3.14814806e-01 2.59259254e-01 2.40740746e-01 2.40740746e-01
      2.40740746e-01 2.40740746e-01 2.77777791e-01 3.33333343e-01
      9.07407403e-01 9.81481493e-01 5.92592597e-01 9.62962985e-01
      9.81481493e-01 1. 1. 4.07407403e-01 2.96296299e-01 2.59259254e-01
      2.59259254e-01 2.59259254e-01 2.59259254e-01 2.59259254e-01
      2.96296299e-01 3.70370358e-01 5.18518507e-01 1. 3.63636352e-02
      6.54545426e-01 9.09090936e-01 9.27272737e-01 7.45454550e-01
      3.27272713e-01 2.54545450e-01 2.36363634e-01 2.18181819e-01
      2.18181819e-01 2.18181819e-01 2.00000003e-01 2.18181819e-01
      2.54545450e-01 3.09090912e-01 5.45454562e-01 0. 6.60714269e-01
      8.92857134e-01 9.28571403e-01 9.46428597e-01 9.64285731e-01
      5.71428597e-01 3.57142866e-01 3.03571433e-01 2.85714298e-01
      2.85714298e-01 2.85714298e-01 2.85714298e-01 3.39285702e-01
      3.92857134e-01 7.85714269e-01 0. 6.60714269e-01 8.92857134e-01
      9.28571403e-01 9.46428597e-01 9.64285731e-01 5.71428597e-01
      3.57142866e-01 3.03571433e-01 2.85714298e-01 2.85714298e-01
      2.85714298e-01 2.85714298e-01 3.39285702e-01 3.92857134e-01
      7.85714269e-01 5.45454547e-02 4.54545468e-01 9.09090936e-01
      9.45454538e-01 8.54545474e-01 3.81818175e-01 2.36363634e-01
      2.18181819e-01 2.18181819e-01 2.18181819e-01 2.00000003e-01
      2.00000003e-01 2.00000003e-01 2.54545450e-01 3.09090912e-01
      4.00000006e-01 5.53571403e-01 9.10714269e-01 9.64285731e-01
      9.64285731e-01 9.82142866e-01 8.03571403e-01 3.92857134e-01
      3.21428567e-01 3.03571433e-01 3.03571433e-01 3.03571433e-01
      3.21428567e-01 3.39285702e-01 4.28571433e-01 6.42857134e-01
      9.82142866e-01 0. 5.63636363e-01 9.27272737e-01 9.63636339e-01
      9.27272737e-01 3.45454544e-01 2.90909082e-01 2.18181819e-01
      2.00000003e-01 2.18181819e-01 2.18181819e-01 2.18181819e-01
      2.36363634e-01 2.90909082e-01 3.27272713e-01 6.90909088e-01
      5.53571403e-01 9.10714269e-01 9.64285731e-01 9.64285731e-01
      9.82142866e-01 8.03571403e-01 3.92857134e-01 3.21428567e-01
      3.03571433e-01 3.03571433e-01 3.03571433e-01 3.21428567e-01
      3.39285702e-01 4.28571433e-01 6.42857134e-01 9.82142866e-01 0.
      2.22222224e-01 8.33333313e-01 9.62962985e-01 9.44444418e-01
      5.00000000e-01 2.59259254e-01 2.22222224e-01 2.03703701e-01
      2.03703701e-01 2.03703701e-01 2.03703701e-01 2.03703701e-01
      2.22222224e-01 2.77777791e-01 5.92592597e-01 5.92592597e-01
      9.62962985e-01 9.81481493e-01 1. 1. 4.07407403e-01 2.96296299e-01
      2.59259254e-01 2.59259254e-01 2.59259254e-01 2.59259254e-01
      2.59259254e-01 2.96296299e-01 3.70370358e-01 5.18518507e-01 1. 0.
      2.18181819e-01 8.90909076e-01 9.27272737e-01 9.45454538e-01
      9.09090936e-01 3.09090912e-01 2.54545450e-01 2.36363634e-01
      2.36363634e-01 2.36363634e-01 2.54545450e-01 2.72727281e-01
      2.54545450e-01 3.09090912e-01 4.54545468e-01 0. 2.18181819e-01
      8.90909076e-01 9.27272737e-01 9.45454538e-01 9.09090936e-01
      3.09090912e-01 2.54545450e-01 2.36363634e-01 2.36363634e-01
      2.36363634e-01 2.54545450e-01 2.72727281e-01 2.54545450e-01
      3.09090912e-01 4.54545468e-01 5.53571403e-01 9.10714269e-01
      9.64285731e-01 9.64285731e-01 9.82142866e-01 8.03571403e-01
      3.92857134e-01 3.21428567e-01 3.03571433e-01 3.03571433e-01
      3.03571433e-01 3.21428567e-01 3.39285702e-01 4.28571433e-01
      6.42857134e-01 9.82142866e-01 3.63636352e-02 6.54545426e-01
      9.09090936e-01 9.27272737e-01 7.45454550e-01 3.27272713e-01
      2.54545450e-01 2.36363634e-01 2.18181819e-01 2.18181819e-01
      2.18181819e-01 2.00000003e-01 2.18181819e-01 2.54545450e-01
      3.09090912e-01 5.45454562e-01 0. 4.90909100e-01 8.18181813e-01
      9.27272737e-01 9.09090936e-01 3.45454544e-01 2.54545450e-01
      2.36363634e-01 2.36363634e-01 2.36363634e-01 2.18181819e-01
      2.18181819e-01 2.54545450e-01 2.54545450e-01 2.90909082e-01
      7.45454550e-01 7.59259284e-01 9.44444418e-01 9.62962985e-01
      9.81481493e-01 9.81481493e-01 3.70370358e-01 3.14814806e-01
      2.59259254e-01 2.40740746e-01 2.40740746e-01 2.40740746e-01
      2.40740746e-01 2.77777791e-01 3.33333343e-01 9.07407403e-01
      9.81481493e-01 0. 4.90909100e-01 8.18181813e-01 9.27272737e-01
      9.09090936e-01 3.45454544e-01 2.54545450e-01 2.36363634e-01
      2.36363634e-01 2.36363634e-01 2.18181819e-01 2.18181819e-01
      2.54545450e-01 2.54545450e-01 2.90909082e-01 7.45454550e-01 0.
      5.63636363e-01 9.27272737e-01 9.63636339e-01 9.27272737e-01
      3.45454544e-01 2.90909082e-01 2.18181819e-01 2.00000003e-01
      2.18181819e-01 2.18181819e-01 2.18181819e-01 2.36363634e-01
      2.90909082e-01 3.27272713e-01 6.90909088e-01 0. 4.72727269e-01
      9.27272737e-01 9.63636339e-01 9.63636339e-01 4.18181807e-01
      3.09090912e-01 2.36363634e-01 2.18181819e-01 2.18181819e-01
      2.18181819e-01 2.18181819e-01 2.36363634e-01 2.72727281e-01
      3.45454544e-01 8.00000012e-01 5.92592597e-01 9.62962985e-01
      9.81481493e-01 1. 1. 4.07407403e-01 2.96296299e-01 2.59259254e-01
      2.59259254e-01 2.59259254e-01 2.59259254e-01 2.59259254e-01
      2.96296299e-01 3.70370358e-01 5.18518507e-01 1. 7.59259284e-01
      9.44444418e-01 9.62962985e-01 9.81481493e-01 9.81481493e-01
      3.70370358e-01 3.14814806e-01 2.59259254e-01 2.40740746e-01
      2.40740746e-01 2.40740746e-01 2.40740746e-01 2.77777791e-01
      3.33333343e-01 9.07407403e-01 9.81481493e-01 3.63636352e-02
      6.54545426e-01 9.09090936e-01 9.27272737e-01 7.45454550e-01
      3.27272713e-01 2.54545450e-01 2.36363634e-01 2.18181819e-01
      2.18181819e-01 2.18181819e-01 2.00000003e-01 2.18181819e-01
      2.54545450e-01 3.09090912e-01 5.45454562e-01 1.11111112e-01
      3.70370358e-01 5.74074090e-01 3.51851851e-01 3.33333343e-01
      3.14814806e-01 3.14814806e-01 2.96296299e-01 2.77777791e-01
      2.96296299e-01 2.77777791e-01 2.77777791e-01 2.59259254e-01
      2.77777791e-01 2.96296299e-01 3.33333343e-01 1. 6.49999976e-01
      6.25000000e-01 5.74999988e-01 5.50000012e-01 5.24999976e-01
      5.00000000e-01 4.74999994e-01 4.49999988e-01 4.00000006e-01
      3.49999994e-01 3.00000012e-01 2.75000006e-01 2.50000000e-01
      2.00000003e-01 2.00000003e-01 2.22222224e-01 5.37037015e-01
      4.81481493e-01 3.51851851e-01 3.33333343e-01 3.14814806e-01
      3.14814806e-01 2.77777791e-01 2.77777791e-01 2.59259254e-01
      2.59259254e-01 2.40740746e-01 2.59259254e-01 2.96296299e-01
      3.14814806e-01 3.88888896e-01 0. 3.03571433e-01 4.10714298e-01
      6.96428597e-01 7.67857134e-01 9.10714269e-01 9.10714269e-01
      6.07142866e-01 4.28571433e-01 3.75000000e-01 3.03571433e-01
      3.03571433e-01 2.85714298e-01 2.85714298e-01 2.85714298e-01
      2.85714298e-01 0. 1.85185179e-01 3.33333343e-01 2.03703701e-01
      2.03703701e-01 2.40740746e-01 2.40740746e-01 2.40740746e-01
      2.22222224e-01 2.22222224e-01 2.22222224e-01 2.03703701e-01
      2.22222224e-01 2.22222224e-01 2.40740746e-01 2.77777791e-01 0.
      1.88679248e-01 1.88679248e-01 2.07547173e-01 2.07547173e-01
      2.26415098e-01 2.45283023e-01 2.26415098e-01 2.07547173e-01
      1.88679248e-01 1.88679248e-01 2.07547173e-01 1.88679248e-01
      1.88679248e-01 2.26415098e-01 2.64150947e-01 9.25925896e-02
      2.77777791e-01 1.66666672e-01 1.66666672e-01 1.48148149e-01
      1.85185179e-01 2.40740746e-01 2.22222224e-01 2.22222224e-01
      2.22222224e-01 2.22222224e-01 2.03703701e-01 2.03703701e-01
      2.03703701e-01 2.22222224e-01 2.40740746e-01 0. 3.03571433e-01
      4.10714298e-01 6.96428597e-01 7.67857134e-01 9.10714269e-01
      9.10714269e-01 6.07142866e-01 4.28571433e-01 3.75000000e-01
      3.03571433e-01 3.03571433e-01 2.85714298e-01 2.85714298e-01
      2.85714298e-01 2.85714298e-01 0. 2.26415098e-01 2.45283023e-01
      1.69811323e-01 2.07547173e-01 2.64150947e-01 2.26415098e-01
      2.26415098e-01 2.26415098e-01 2.07547173e-01 2.07547173e-01
      1.88679248e-01 1.88679248e-01 1.88679248e-01 2.07547173e-01
      2.45283023e-01 1. 6.49999976e-01 6.25000000e-01 5.74999988e-01
      5.50000012e-01 5.24999976e-01 5.00000000e-01 4.74999994e-01
      4.49999988e-01 4.00000006e-01 3.49999994e-01 3.00000012e-01
      2.75000006e-01 2.50000000e-01 2.00000003e-01 2.00000003e-01
      5.66037744e-02 1.69811323e-01 1.32075474e-01 1.69811323e-01
      1.50943398e-01 2.45283023e-01 2.26415098e-01 2.07547173e-01
      2.07547173e-01 1.88679248e-01 2.07547173e-01 1.88679248e-01
      2.07547173e-01 2.07547173e-01 2.26415098e-01 2.64150947e-01
      9.25925896e-02 2.77777791e-01 1.66666672e-01 1.66666672e-01
      1.48148149e-01 1.85185179e-01 2.40740746e-01 2.22222224e-01
      2.22222224e-01 2.22222224e-01 2.22222224e-01 2.03703701e-01
      2.03703701e-01 2.03703701e-01 2.22222224e-01 2.40740746e-01 0.
      2.26415098e-01 2.45283023e-01 1.69811323e-01 2.07547173e-01
      2.64150947e-01 2.26415098e-01 2.26415098e-01 2.26415098e-01
      2.07547173e-01 2.07547173e-01 1.88679248e-01 1.88679248e-01
      1.88679248e-01 2.07547173e-01 2.45283023e-01 2.22222224e-01
      5.37037015e-01 4.81481493e-01 3.51851851e-01 3.33333343e-01
      3.14814806e-01 3.14814806e-01 2.77777791e-01 2.77777791e-01
      2.59259254e-01 2.59259254e-01 2.40740746e-01 2.59259254e-01
      2.96296299e-01 3.14814806e-01 3.88888896e-01 1.11111112e-01
      3.70370358e-01 5.74074090e-01 3.51851851e-01 3.33333343e-01
      3.14814806e-01 3.14814806e-01 2.96296299e-01 2.77777791e-01
      2.96296299e-01 2.77777791e-01 2.77777791e-01 2.59259254e-01
      2.77777791e-01 2.96296299e-01 3.33333343e-01 1. 6.53846145e-01
      5.00000000e-01 4.80769217e-01 4.61538464e-01 4.42307681e-01
      4.23076928e-01 4.03846145e-01 3.84615391e-01 3.65384609e-01
      3.46153855e-01 3.07692319e-01 2.69230783e-01 2.30769232e-01
      2.11538464e-01 1.92307696e-01 5.66037744e-02 1.69811323e-01
      1.32075474e-01 1.69811323e-01 1.50943398e-01 2.45283023e-01
      2.26415098e-01 2.07547173e-01 2.07547173e-01 1.88679248e-01
      2.07547173e-01 1.88679248e-01 2.07547173e-01 2.07547173e-01
      2.26415098e-01 2.64150947e-01 0. 3.03571433e-01 4.10714298e-01
      6.96428597e-01 7.67857134e-01 9.10714269e-01 9.10714269e-01
      6.07142866e-01 4.28571433e-01 3.75000000e-01 3.03571433e-01
      3.03571433e-01 2.85714298e-01 2.85714298e-01 2.85714298e-01
      2.85714298e-01 1. 6.53846145e-01 5.00000000e-01 4.80769217e-01
      4.61538464e-01 4.42307681e-01 4.23076928e-01 4.03846145e-01
      3.84615391e-01 3.65384609e-01 3.46153855e-01 3.07692319e-01
      2.69230783e-01 2.30769232e-01 2.11538464e-01 1.92307696e-01 0.
      2.26415098e-01 2.45283023e-01 1.69811323e-01 2.07547173e-01
      2.64150947e-01 2.26415098e-01 2.26415098e-01 2.26415098e-01
      2.07547173e-01 2.07547173e-01 1.88679248e-01 1.88679248e-01
      1.88679248e-01 2.07547173e-01 2.45283023e-01 5.66037744e-02
      1.69811323e-01 1.32075474e-01 1.69811323e-01 1.50943398e-01
      2.45283023e-01 2.26415098e-01 2.07547173e-01 2.07547173e-01
      1.88679248e-01 2.07547173e-01 1.88679248e-01 2.07547173e-01
      2.07547173e-01 2.26415098e-01 2.64150947e-01 9.25925896e-02
      2.77777791e-01 1.66666672e-01 1.66666672e-01 1.48148149e-01
      1.85185179e-01 2.40740746e-01 2.22222224e-01 2.22222224e-01
      2.22222224e-01 2.22222224e-01 2.03703701e-01 2.03703701e-01
      2.03703701e-01 2.22222224e-01 2.40740746e-01 0. 1.85185179e-01
      3.33333343e-01 2.03703701e-01 2.03703701e-01 2.40740746e-01
      2.40740746e-01 2.40740746e-01 2.22222224e-01 2.22222224e-01
      2.22222224e-01 2.03703701e-01 2.22222224e-01 2.22222224e-01
      2.40740746e-01 2.77777791e-01 0. 1.88679248e-01 1.88679248e-01
      2.07547173e-01 2.07547173e-01 2.26415098e-01 2.45283023e-01
      2.26415098e-01 2.07547173e-01 1.88679248e-01 1.88679248e-01
      2.07547173e-01 1.88679248e-01 1.88679248e-01 2.26415098e-01
      2.64150947e-01 0. 3.03571433e-01 4.10714298e-01 6.96428597e-01
      7.67857134e-01 9.10714269e-01 9.10714269e-01 6.07142866e-01
      4.28571433e-01 3.75000000e-01 3.03571433e-01 3.03571433e-01
      2.85714298e-01 2.85714298e-01 2.85714298e-01 2.85714298e-01 0.
      1.88679248e-01 1.88679248e-01 2.07547173e-01 2.07547173e-01
      2.26415098e-01 2.45283023e-01 2.26415098e-01 2.07547173e-01
      1.88679248e-01 1.88679248e-01 2.07547173e-01 1.88679248e-01
      1.88679248e-01 2.26415098e-01 2.64150947e-01 1. 6.53846145e-01
      5.00000000e-01 4.80769217e-01 4.61538464e-01 4.42307681e-01
      4.23076928e-01 4.03846145e-01 3.84615391e-01 3.65384609e-01
      3.46153855e-01 3.07692319e-01 2.69230783e-01 2.30769232e-01
      2.11538464e-01 1.92307696e-01 0. 1.88679248e-01 1.88679248e-01
      2.07547173e-01 2.07547173e-01 2.26415098e-01 2.45283023e-01
      2.26415098e-01 2.07547173e-01 1.88679248e-01 1.88679248e-01
      2.07547173e-01 1.88679248e-01 1.88679248e-01 2.26415098e-01
      2.64150947e-01 0. 1.88679248e-01 1.88679248e-01 2.07547173e-01
      2.07547173e-01 2.26415098e-01 2.45283023e-01 2.26415098e-01
      2.07547173e-01 1.88679248e-01 1.88679248e-01 2.07547173e-01
      1.88679248e-01 1.88679248e-01 2.26415098e-01 2.64150947e-01
      5.66037744e-02 1.69811323e-01 1.32075474e-01 1.69811323e-01
      1.50943398e-01 2.45283023e-01 2.26415098e-01 2.07547173e-01
      2.07547173e-01 1.88679248e-01 2.07547173e-01 1.88679248e-01
      2.07547173e-01 2.07547173e-01 2.26415098e-01 2.64150947e-01 0.
      2.26415098e-01 2.45283023e-01 1.69811323e-01 2.07547173e-01
      2.64150947e-01 2.26415098e-01 2.26415098e-01 2.26415098e-01
      2.07547173e-01 2.07547173e-01 1.88679248e-01 1.88679248e-01
      1.88679248e-01 2.07547173e-01 2.45283023e-01 0. 2.03703701e-01
      2.96296299e-01 1.66666672e-01 1.66666672e-01 2.03703701e-01
      2.59259254e-01 2.22222224e-01 2.22222224e-01 2.40740746e-01
      2.22222224e-01 2.03703701e-01 2.22222224e-01 2.22222224e-01
      2.40740746e-01 2.59259254e-01 9.25925896e-02 2.77777791e-01
      1.66666672e-01 1.66666672e-01 1.48148149e-01 1.85185179e-01
      2.40740746e-01 2.22222224e-01 2.22222224e-01 2.22222224e-01
      2.22222224e-01 2.03703701e-01 2.03703701e-01 2.03703701e-01
      2.22222224e-01 2.40740746e-01 0. 3.03571433e-01 4.10714298e-01
      6.96428597e-01 7.67857134e-01 9.10714269e-01 9.10714269e-01
      6.07142866e-01 4.28571433e-01 3.75000000e-01 3.03571433e-01
      3.03571433e-01 2.85714298e-01 2.85714298e-01 2.85714298e-01
      2.85714298e-01 2.22222224e-01 5.37037015e-01 4.81481493e-01
      3.51851851e-01 3.33333343e-01 3.14814806e-01 3.14814806e-01
      2.77777791e-01 2.77777791e-01 2.59259254e-01 2.59259254e-01
      2.40740746e-01 2.59259254e-01 2.96296299e-01 3.14814806e-01
      3.88888896e-01 0. 2.26415098e-01 2.45283023e-01 1.69811323e-01
      2.07547173e-01 2.64150947e-01 2.26415098e-01 2.26415098e-01
      2.26415098e-01 2.07547173e-01 2.07547173e-01 1.88679248e-01
      1.88679248e-01 1.88679248e-01 2.07547173e-01 2.45283023e-01 1.
      6.53846145e-01 5.00000000e-01 4.80769217e-01 4.61538464e-01
      4.42307681e-01 4.23076928e-01 4.03846145e-01 3.84615391e-01
      3.65384609e-01 3.46153855e-01 3.07692319e-01 2.69230783e-01
      2.30769232e-01 2.11538464e-01 1.92307696e-01 9.25925896e-02
      2.77777791e-01 1.66666672e-01 1.66666672e-01 1.48148149e-01
      1.85185179e-01 2.40740746e-01 2.22222224e-01 2.22222224e-01
      2.22222224e-01 2.22222224e-01 2.03703701e-01 2.03703701e-01
      2.03703701e-01 2.22222224e-01 2.40740746e-01 1.11111112e-01
      3.70370358e-01 5.74074090e-01 3.51851851e-01 3.33333343e-01
      3.14814806e-01 3.14814806e-01 2.96296299e-01 2.77777791e-01
      2.96296299e-01 2.77777791e-01 2.77777791e-01 2.59259254e-01
      2.77777791e-01 2.96296299e-01 3.33333343e-01 1. 6.49999976e-01
      6.25000000e-01 5.74999988e-01 5.50000012e-01 5.24999976e-01
      5.00000000e-01 4.74999994e-01 4.49999988e-01 4.00000006e-01
      3.49999994e-01 3.00000012e-01 2.75000006e-01 2.50000000e-01
      2.00000003e-01 2.00000003e-01 1.11111112e-01 3.70370358e-01
      5.74074090e-01 3.51851851e-01 3.33333343e-01 3.14814806e-01
      3.14814806e-01 2.96296299e-01 2.77777791e-01 2.96296299e-01
      2.77777791e-01 2.77777791e-01 2.59259254e-01 2.77777791e-01
      2.96296299e-01 3.33333343e-01 0. 3.03571433e-01 4.10714298e-01
      6.96428597e-01 7.67857134e-01 9.10714269e-01 9.10714269e-01
      6.07142866e-01 4.28571433e-01 3.75000000e-01 3.03571433e-01
      3.03571433e-01 2.85714298e-01 2.85714298e-01 2.85714298e-01
      2.85714298e-01 0. 3.03571433e-01 4.10714298e-01 6.96428597e-01
      7.67857134e-01 9.10714269e-01 9.10714269e-01 6.07142866e-01
      4.28571433e-01 3.75000000e-01 3.03571433e-01 3.03571433e-01
      2.85714298e-01 2.85714298e-01 2.85714298e-01 2.85714298e-01
      2.22222224e-01 5.37037015e-01 4.81481493e-01 3.51851851e-01
      3.33333343e-01 3.14814806e-01 3.14814806e-01 2.77777791e-01
      2.77777791e-01 2.59259254e-01 2.59259254e-01 2.40740746e-01
      2.59259254e-01 2.96296299e-01 3.14814806e-01 3.88888896e-01 1.
      6.53846145e-01 5.00000000e-01 4.80769217e-01 4.61538464e-01
      4.42307681e-01 4.23076928e-01 4.03846145e-01 3.84615391e-01
      3.65384609e-01 3.46153855e-01 3.07692319e-01 2.69230783e-01
      2.30769232e-01 2.11538464e-01 1.92307696e-01 0. 3.03571433e-01
      4.10714298e-01 6.96428597e-01 7.67857134e-01 9.10714269e-01
      9.10714269e-01 6.07142866e-01 4.28571433e-01 3.75000000e-01
      3.03571433e-01 3.03571433e-01 2.85714298e-01 2.85714298e-01
      2.85714298e-01 2.85714298e-01 0. 1.88679248e-01 1.88679248e-01
      2.07547173e-01 2.07547173e-01 2.26415098e-01 2.45283023e-01
      2.26415098e-01 2.07547173e-01 1.88679248e-01 1.88679248e-01
      2.07547173e-01 1.88679248e-01 1.88679248e-01 2.26415098e-01
      2.64150947e-01 1. 6.49999976e-01 6.25000000e-01 5.74999988e-01
      5.50000012e-01 5.24999976e-01 5.00000000e-01 4.74999994e-01
      4.49999988e-01 4.00000006e-01 3.49999994e-01 3.00000012e-01
      2.75000006e-01 2.50000000e-01 2.00000003e-01 2.00000003e-01 0.
      3.03571433e-01 4.10714298e-01 6.96428597e-01 7.67857134e-01
      9.10714269e-01 9.10714269e-01 6.07142866e-01 4.28571433e-01
      3.75000000e-01 3.03571433e-01 3.03571433e-01 2.85714298e-01
      2.85714298e-01 2.85714298e-01 2.85714298e-01 0. 2.26415098e-01
      2.45283023e-01 1.69811323e-01 2.07547173e-01 2.64150947e-01
      2.26415098e-01 2.26415098e-01 2.26415098e-01 2.07547173e-01
      2.07547173e-01 1.88679248e-01 1.88679248e-01 1.88679248e-01
      2.07547173e-01 2.45283023e-01 9.25925896e-02 2.77777791e-01
      1.66666672e-01 1.66666672e-01 1.48148149e-01 1.85185179e-01
      2.40740746e-01 2.22222224e-01 2.22222224e-01 2.22222224e-01
      2.22222224e-01 2.03703701e-01 2.03703701e-01 2.03703701e-01
      2.22222224e-01 2.40740746e-01 0. 3.03571433e-01 4.10714298e-01
      6.96428597e-01 7.67857134e-01 9.10714269e-01 9.10714269e-01
      6.07142866e-01 4.28571433e-01 3.75000000e-01 3.03571433e-01
      3.03571433e-01 2.85714298e-01 2.85714298e-01 2.85714298e-01
      2.85714298e-01 0. 3.03571433e-01 4.10714298e-01 6.96428597e-01
      7.67857134e-01 9.10714269e-01 9.10714269e-01 6.07142866e-01
      4.28571433e-01 3.75000000e-01 3.03571433e-01 3.03571433e-01
      2.85714298e-01 2.85714298e-01 2.85714298e-01 2.85714298e-01 0.
      1.85185179e-01 3.33333343e-01 2.03703701e-01 2.03703701e-01
      2.40740746e-01 2.40740746e-01 2.40740746e-01 2.22222224e-01
      2.22222224e-01 2.22222224e-01 2.03703701e-01 2.22222224e-01
      2.22222224e-01 2.40740746e-01 2.77777791e-01 1.11111112e-01
      3.70370358e-01 5.74074090e-01 3.51851851e-01 3.33333343e-01
      3.14814806e-01 3.14814806e-01 2.96296299e-01 2.77777791e-01
      2.96296299e-01 2.77777791e-01 2.77777791e-01 2.59259254e-01
      2.77777791e-01 2.96296299e-01 3.33333343e-01 1. 6.49999976e-01
      6.25000000e-01 5.74999988e-01 5.50000012e-01 5.24999976e-01
      5.00000000e-01 4.74999994e-01 4.49999988e-01 4.00000006e-01
      3.49999994e-01 3.00000012e-01 2.75000006e-01 2.50000000e-01
      2.00000003e-01 2.00000003e-01 9.25925896e-02 2.77777791e-01
      1.66666672e-01 1.66666672e-01 1.48148149e-01 1.85185179e-01
      2.40740746e-01 2.22222224e-01 2.22222224e-01 2.22222224e-01
      2.22222224e-01 2.03703701e-01 2.03703701e-01 2.03703701e-01
      2.22222224e-01 2.40740746e-01 0. 1.85185179e-01 3.33333343e-01
      2.03703701e-01 2.03703701e-01 2.40740746e-01 2.40740746e-01
      2.40740746e-01 2.22222224e-01 2.22222224e-01 2.22222224e-01
      2.03703701e-01 2.22222224e-01 2.22222224e-01 2.40740746e-01
      2.77777791e-01 2.22222224e-01 5.37037015e-01 4.81481493e-01
      3.51851851e-01 3.33333343e-01 3.14814806e-01 3.14814806e-01
      2.77777791e-01 2.77777791e-01 2.59259254e-01 2.59259254e-01
      2.40740746e-01 2.59259254e-01 2.96296299e-01 3.14814806e-01
      3.88888896e-01 9.25925896e-02 2.77777791e-01 1.66666672e-01
      1.66666672e-01 1.48148149e-01 1.85185179e-01 2.40740746e-01
      2.22222224e-01 2.22222224e-01 2.22222224e-01 2.22222224e-01
      2.03703701e-01 2.03703701e-01 2.03703701e-01 2.22222224e-01
      2.40740746e-01 1.11111112e-01 3.70370358e-01 5.74074090e-01
      3.51851851e-01 3.33333343e-01 3.14814806e-01 3.14814806e-01
      2.96296299e-01 2.77777791e-01 2.96296299e-01 2.77777791e-01
      2.77777791e-01 2.59259254e-01 2.77777791e-01 2.96296299e-01
      3.33333343e-01 0. 2.26415098e-01 2.45283023e-01 1.69811323e-01
      2.07547173e-01 2.64150947e-01 2.26415098e-01 2.26415098e-01
      2.26415098e-01 2.07547173e-01 2.07547173e-01 1.88679248e-01
      1.88679248e-01 1.88679248e-01 2.07547173e-01 2.45283023e-01 0.
      3.03571433e-01 4.10714298e-01 6.96428597e-01 7.67857134e-01
      9.10714269e-01 9.10714269e-01 6.07142866e-01 4.28571433e-01
      3.75000000e-01 3.03571433e-01 3.03571433e-01 2.85714298e-01
      2.85714298e-01 2.85714298e-01 2.85714298e-01 0. 2.03703701e-01
      2.96296299e-01 1.66666672e-01 1.66666672e-01 2.03703701e-01
      2.59259254e-01 2.22222224e-01 2.22222224e-01 2.40740746e-01
      2.22222224e-01 2.03703701e-01 2.22222224e-01 2.22222224e-01
      2.40740746e-01 2.59259254e-01 0. 3.03571433e-01 4.10714298e-01
      6.96428597e-01 7.67857134e-01 9.10714269e-01 9.10714269e-01
      6.07142866e-01 4.28571433e-01 3.75000000e-01 3.03571433e-01
      3.03571433e-01 2.85714298e-01 2.85714298e-01 2.85714298e-01
      2.85714298e-01 0. 3.03571433e-01 4.10714298e-01 6.96428597e-01
      7.67857134e-01 9.10714269e-01 9.10714269e-01 6.07142866e-01
      4.28571433e-01 3.75000000e-01 3.03571433e-01 3.03571433e-01
      2.85714298e-01 2.85714298e-01 2.85714298e-01 2.85714298e-01 0.
      1.85185179e-01 3.33333343e-01 2.03703701e-01 2.03703701e-01
      2.40740746e-01 2.40740746e-01 2.40740746e-01 2.22222224e-01
      2.22222224e-01 2.22222224e-01 2.03703701e-01 2.22222224e-01
      2.22222224e-01 2.40740746e-01 2.77777791e-01 0. 2.26415098e-01
      2.45283023e-01 1.69811323e-01 2.07547173e-01 2.64150947e-01
      2.26415098e-01 2.26415098e-01 2.26415098e-01 2.07547173e-01
      2.07547173e-01 1.88679248e-01 1.88679248e-01 1.88679248e-01
      2.07547173e-01 2.45283023e-01 0. 1.85185179e-01 3.33333343e-01
      2.03703701e-01 2.03703701e-01 2.40740746e-01 2.40740746e-01
      2.40740746e-01 2.22222224e-01 2.22222224e-01 2.22222224e-01
      2.03703701e-01 2.22222224e-01 2.22222224e-01 2.40740746e-01
      2.77777791e-01 1. 6.49999976e-01 6.25000000e-01 5.74999988e-01
      5.50000012e-01 5.24999976e-01 5.00000000e-01 4.74999994e-01
      4.49999988e-01 4.00000006e-01 3.49999994e-01 3.00000012e-01
      2.75000006e-01 2.50000000e-01 2.00000003e-01 2.00000003e-01 1.
      6.49999976e-01 6.25000000e-01 5.74999988e-01 5.50000012e-01
      5.24999976e-01 5.00000000e-01 4.74999994e-01 4.49999988e-01
      4.00000006e-01 3.49999994e-01 3.00000012e-01 2.75000006e-01
      2.50000000e-01 2.00000003e-01 2.00000003e-01 2.22222224e-01
      5.37037015e-01 4.81481493e-01 3.51851851e-01 3.33333343e-01
      3.14814806e-01 3.14814806e-01 2.77777791e-01 2.77777791e-01
      2.59259254e-01 2.59259254e-01 2.40740746e-01 2.59259254e-01
      2.96296299e-01 3.14814806e-01 3.88888896e-01 0. 2.03703701e-01
      2.96296299e-01 1.66666672e-01 1.66666672e-01 2.03703701e-01
      2.59259254e-01 2.22222224e-01 2.22222224e-01 2.40740746e-01
      2.22222224e-01 2.03703701e-01 2.22222224e-01 2.22222224e-01
      2.40740746e-01 2.59259254e-01 1. 6.49999976e-01 6.25000000e-01
      5.74999988e-01 5.50000012e-01 5.24999976e-01 5.00000000e-01
      4.74999994e-01 4.49999988e-01 4.00000006e-01 3.49999994e-01
      3.00000012e-01 2.75000006e-01 2.50000000e-01 2.00000003e-01
      2.00000003e-01 1. 6.53846145e-01 5.00000000e-01 4.80769217e-01
      4.61538464e-01 4.42307681e-01 4.23076928e-01 4.03846145e-01
      3.84615391e-01 3.65384609e-01 3.46153855e-01 3.07692319e-01
      2.69230783e-01 2.30769232e-01 2.11538464e-01 1.92307696e-01 0.
      2.03703701e-01 2.96296299e-01 1.66666672e-01 1.66666672e-01
      2.03703701e-01 2.59259254e-01 2.22222224e-01 2.22222224e-01
      2.40740746e-01 2.22222224e-01 2.03703701e-01 2.22222224e-01
      2.22222224e-01 2.40740746e-01 2.59259254e-01 1. 6.53846145e-01
      5.00000000e-01 4.80769217e-01 4.61538464e-01 4.42307681e-01
      4.23076928e-01 4.03846145e-01 3.84615391e-01 3.65384609e-01
      3.46153855e-01 3.07692319e-01 2.69230783e-01 2.30769232e-01
      2.11538464e-01 1.92307696e-01 0. 2.26415098e-01 2.45283023e-01
      1.69811323e-01 2.07547173e-01 2.64150947e-01 2.26415098e-01
      2.26415098e-01 2.26415098e-01 2.07547173e-01 2.07547173e-01
      1.88679248e-01 1.88679248e-01 1.88679248e-01 2.07547173e-01
      2.45283023e-01 1. 6.49999976e-01 6.25000000e-01 5.74999988e-01
      5.50000012e-01 5.24999976e-01 5.00000000e-01 4.74999994e-01
      4.49999988e-01 4.00000006e-01 3.49999994e-01 3.00000012e-01
      2.75000006e-01 2.50000000e-01 2.00000003e-01 2.00000003e-01
      5.66037744e-02 1.69811323e-01 1.32075474e-01 1.69811323e-01
      1.50943398e-01 2.45283023e-01 2.26415098e-01 2.07547173e-01
      2.07547173e-01 1.88679248e-01 2.07547173e-01 1.88679248e-01
      2.07547173e-01 2.07547173e-01 2.26415098e-01 2.64150947e-01</data></samples>
  <responses type_id="opencv-matrix">
    <rows>160</rows>
    <cols>1</cols>
    <dt>f</dt>
    <data>
      10. 10. 10. 10. 10. 10. 10. 10. 10. 10. 10. 10. 10. 10. 10. 10.
      10. 10. 10. 10. 10. 10. 10. 10. 10. 10. 10. 10. 10. 10. 10. 10.
      10. 10. 10. 10. 10. 10. 10. 10. 10. 10. 10. 10. 10. 10. 10. 10.
      10. 10. 10. 10. 10. 10. 10. 10. 10. 10. 10. 10. 10. 10. 10. 10.
      10. 10. 10. 10. 10. 10. 10. 10. 10. 10. 10. 10. 10. 10. 10. 10.
      13. 13. 13. 13. 13. 13. 13. 13. 13. 13. 13. 13. 13. 13. 13. 13.
      13. 13. 13. 13. 13. 13. 13. 13. 13. 13. 13. 13. 13. 13. 13. 13.
      13. 13. 13. 13. 13. 13. 13. 13. 13. 13. 13. 13. 13. 13. 13. 13.
      13. 13. 13. 13. 13. 13. 13. 13. 13. 13. 13. 13. 13. 13. 13. 13.
      13. 13. 13. 13. 13. 13. 13. 13. 13. 13. 13. 13. 13. 13. 13. 13.</data></responses></opencv_ml_knn>
</opencv_storage>
