<?xml version="1.0"?>
<opencv_storage>
<opencv_ml_knn>
  <format>3</format>
  <is_classifier>1</is_classifier>
  <default_k>10</default_k>
  <samples type_id="opencv-matrix">
    <rows>320</rows>
    <cols>5</cols>
    <dt>f</dt>
    <data>
      1.10570824e+00 1.01253128e+00 1.03984058e+00 1.24163675e+00
      9.36021268e-01 1.11461616e+00 1.02631581e+00 1.04268289e+00
      1.24565244e+00 9.07900453e-01 1.11040342e+00 1.02784228e+00
      1.02966106e+00 1.26722181e+00 9.55163598e-01 1.06483126e+00
      1.03831422e+00 1.02072537e+00 1.13676727e+00 1.05278635e+00
      1.12473798e+00 1.11253202e+00 1.03861785e+00 1.27285850e+00
      9.03187096e-01 1.11721230e+00 1.10152280e+00 1.03734446e+00
      1.26478159e+00 8.72273862e-01 1.12879586e+00 1.04066980e+00
      1.03807616e+00 1.25946820e+00 9.85008538e-01 1.07715428e+00
      1.04464281e+00 1.02123547e+00 1.20240486e+00 9.81025875e-01
      1.12000000e+00 1.03960395e+00 1.03830647e+00 1.25151706e+00
      9.84368324e-01 1.12618291e+00 1.03263402e+00 1.04008436e+00
      1.26834357e+00 1.05157912e+00 1.11461616e+00 1.02631581e+00
      1.04268289e+00 1.24565244e+00 9.07900453e-01 1.07394361e+00
      1.03409088e+00 1.01543736e+00 1.16546535e+00 9.88415003e-01
      1.11550474e+00 1.04387987e+00 1.02404809e+00 1.24940062e+00
      9.33504105e-01 1.06483126e+00 1.03831422e+00 1.02072537e+00
      1.13676727e+00 1.05278635e+00 1.06483126e+00 1.03831422e+00
      1.02072537e+00 1.13676727e+00 1.05278635e+00 1.11354172e+00
      1.03240740e+00 1.02605212e+00 1.24710345e+00 9.39604402e-01
      1.08476281e+00 1.02921343e+00 1.02661598e+00 1.18062568e+00
      1.00747573e+00 1.12879586e+00 1.04066980e+00 1.03807616e+00
      1.25946820e+00 9.85008538e-01 1.12765956e+00 1.01913881e+00
      1.04858303e+00 1.26858616e+00 9.50346053e-01 1.11550474e+00
      1.04387987e+00 1.02404809e+00 1.24940062e+00 9.33504105e-01
      1.10570824e+00 1.01253128e+00 1.03984058e+00 1.24163675e+00
      9.36021268e-01 1.13213527e+00 1.09069765e+00 1.03906250e+00
      1.27066422e+00 1.05567896e+00 1.12354803e+00 1.08372092e+00
      1.04383564e+00 1.26423192e+00 8.90840828e-01 1.06483126e+00
      1.03831422e+00 1.02072537e+00 1.13676727e+00 1.05278635e+00
      1.11275029e+00 1.02631581e+00 1.02857149e+00 1.26933217e+00
      9.06430840e-01 1.12249207e+00 1.03791463e+00 1.02765954e+00
      1.25548172e+00 9.67873991e-01 1.11974788e+00 1.11083126e+00
      1.03305781e+00 1.27058792e+00 9.06224310e-01 1.11275029e+00
      1.02631581e+00 1.02857149e+00 1.26933217e+00 9.06430840e-01
      1.12275136e+00 1.02666664e+00 1.04600000e+00 1.26325226e+00
      9.08354163e-01 1.11912227e+00 1.02610970e+00 1.04453444e+00
      1.26417589e+00 9.28168178e-01 1.11721230e+00 1.10152280e+00
      1.03734446e+00 1.26478159e+00 8.72273862e-01 1.11204183e+00
      1.04618943e+00 1.02898550e+00 1.25823033e+00 9.32483256e-01
      1.12765956e+00 1.01913881e+00 1.04858303e+00 1.26858616e+00
      9.50346053e-01 1.07715428e+00 1.04464281e+00 1.02123547e+00
      1.20240486e+00 9.81025875e-01 1.12277019e+00 1.03271031e+00
      1.03773582e+00 1.25011563e+00 9.09497023e-01 1.12879586e+00
      1.04066980e+00 1.03807616e+00 1.25946820e+00 9.85008538e-01
      1.11354172e+00 1.03240740e+00 1.02605212e+00 1.24710345e+00
      9.39604402e-01 1.12879586e+00 1.04066980e+00 1.03807616e+00
      1.25946820e+00 9.85008538e-01 1.08718491e+00 1.01990044e+00
      1.00990105e+00 1.19417846e+00 9.88740087e-01 1.11789477e+00
      1.05348837e+00 1.02658486e+00 1.24513233e+00 9.16865468e-01
      1.11354172e+00 1.03240740e+00 1.02605212e+00 1.24710345e+00
      9.39604402e-01 1.08199644e+00 1.02268434e+00 1.02697837e+00
      1.16885626e+00 9.88415003e-01 1.12038016e+00 1.02870810e+00
      1.05252099e+00 1.25674188e+00 8.65899742e-01 1.11275029e+00
      1.02631581e+00 1.02857149e+00 1.26933217e+00 9.06430840e-01
      1.11932421e+00 1.03598976e+00 1.04216862e+00 1.26483953e+00
      9.46478486e-01 1.12249207e+00 1.03357315e+00 1.04294479e+00
      1.26715946e+00 8.99623513e-01 1.11550474e+00 1.04387987e+00
      1.02404809e+00 1.24940062e+00 9.33504105e-01 1.07715428e+00
      1.04464281e+00 1.02123547e+00 1.20240486e+00 9.81025875e-01
      1.08718491e+00 1.01990044e+00 1.00990105e+00 1.19417846e+00
      9.88740087e-01 1.11789477e+00 1.05348837e+00 1.02658486e+00
      1.24513233e+00 9.16865468e-01 1.08476281e+00 1.02921343e+00
      1.02661598e+00 1.18062568e+00 1.00747573e+00 1.11826825e+00
      1.03117502e+00 1.03400004e+00 1.28221655e+00 9.04140294e-01
      1.12275136e+00 1.02666664e+00 1.04600000e+00 1.26325226e+00
      9.08354163e-01 1.11040342e+00 1.02784228e+00 1.02966106e+00
      1.26722181e+00 9.55163598e-01 1.11111116e+00 1.02153111e+00
      1.03413653e+00 1.25088537e+00 9.29823160e-01 1.11204183e+00
      1.04618943e+00 1.02898550e+00 1.25823033e+00 9.32483256e-01
      1.11550474e+00 1.04387987e+00 1.02404809e+00 1.24940062e+00
      9.33504105e-01 1.13213527e+00 1.09069765e+00 1.03906250e+00
      1.27066422e+00 1.05567896e+00 1.09433961e+00 1.02797198e+00
      1.03846157e+00 1.22641504e+00 9.48161006e-01 1.12275136e+00
      1.02666664e+00 1.04600000e+00 1.26325226e+00 9.08354163e-01
      1.11789477e+00 1.05348837e+00 1.02658486e+00 1.24513233e+00
      9.16865468e-01 1.12473798e+00 1.11253202e+00 1.03861785e+00
      1.27285850e+00 9.03187096e-01 1.11962223e+00 1.08564818e+00
      1.03252029e+00 1.26925480e+00 9.74183977e-01 1.06483126e+00
      1.03831422e+00 1.02072537e+00 1.13676727e+00 1.05278635e+00
      1.07715428e+00 1.04464281e+00 1.02123547e+00 1.20240486e+00
      9.81025875e-01 1.12879586e+00 1.04066980e+00 1.03807616e+00
      1.25946820e+00 9.85008538e-01 1.12723446e+00 1.08744395e+00
      1.04025424e+00 1.26530993e+00 9.58464503e-01 1.07394361e+00
      1.03409088e+00 1.01543736e+00 1.16546535e+00 9.88415003e-01
      1.11974788e+00 1.11083126e+00 1.03305781e+00 1.27058792e+00
      9.06224310e-01 1.11550474e+00 1.04387987e+00 1.02404809e+00
      1.24940062e+00 9.33504105e-01 1.09433961e+00 1.02797198e+00
      1.03846157e+00 1.22641504e+00 9.48161006e-01 1.12197685e+00
      1.03233254e+00 1.03061223e+00 1.25945830e+00 8.94604981e-01
      1.12879586e+00 1.04066980e+00 1.03807616e+00 1.25946820e+00
      9.85008538e-01 1.10570824e+00 1.01253128e+00 1.03984058e+00
      1.24163675e+00 9.36021268e-01 1.12277019e+00 1.03271031e+00
      1.03773582e+00 1.25011563e+00 9.09497023e-01 1.12038016e+00
      1.02870810e+00 1.05252099e+00 1.25674188e+00 8.65899742e-01
      1.11275029e+00 1.02631581e+00 1.02857149e+00 1.26933217e+00
      9.06430840e-01 1.12618291e+00 1.03263402e+00 1.04008436e+00
      1.26834357e+00 1.05157912e+00 1.11974788e+00 1.11083126e+00
      1.03305781e+00 1.27058792e+00 9.06224310e-01 1.07394361e+00
      1.03409088e+00 1.01543736e+00 1.16546535e+00 9.88415003e-01
      1.11204183e+00 1.04618943e+00 1.02898550e+00 1.25823033e+00
      9.32483256e-01 1.11820078e+00 1.08706462e+00 1.03112030e+00
      1.25756001e+00 9.52519834e-01 1.11040342e+00 1.02784228e+00
      1.02966106e+00 1.26722181e+00 9.55163598e-01 1.12275136e+00
      1.02666664e+00 1.04600000e+00 1.26325226e+00 9.08354163e-01
      1.13213527e+00 1.09069765e+00 1.03906250e+00 1.27066422e+00
      1.05567896e+00 1.08718491e+00 1.01990044e+00 1.00990105e+00
      1.19417846e+00 9.88740087e-01 1.11461616e+00 1.02631581e+00
      1.04268289e+00 1.24565244e+00 9.07900453e-01 1.06483126e+00
      1.03831422e+00 1.02072537e+00 1.13676727e+00 1.05278635e+00
      1.11111116e+00 1.02153111e+00 1.03413653e+00 1.25088537e+00
      9.29823160e-01 1.11134458e+00 1.03414631e+00 1.01209676e+00
      1.25470328e+00 1.00125492e+00 1.13185656e+00 1.03937006e+00
      1.03983223e+00 1.26803982e+00 9.03603613e-01 1.08199644e+00
      1.02268434e+00 1.02697837e+00 1.16885626e+00 9.88415003e-01
      1.09433961e+00 1.02797198e+00 1.03846157e+00 1.22641504e+00
      9.48161006e-01 1.11275029e+00 1.02631581e+00 1.02857149e+00
      1.26933217e+00 9.06430840e-01 1.11654532e+00 1.03597116e+00
      1.02222228e+00 1.25790620e+00 9.44974244e-01 1.07394361e+00
      1.03409088e+00 1.01543736e+00 1.16546535e+00 9.88415003e-01
      1.11275029e+00 1.02631581e+00 1.02857149e+00 1.26933217e+00
      9.06430840e-01 1.11974788e+00 1.11083126e+00 1.03305781e+00
      1.27058792e+00 9.06224310e-01 1.12000000e+00 1.03960395e+00
      1.03830647e+00 1.25151706e+00 9.84368324e-01 1.11974788e+00
      1.11083126e+00 1.03305781e+00 1.27058792e+00 9.06224310e-01
      1.12105930e+00 1.04109585e+00 1.03030300e+00 1.25006092e+00
      9.60437655e-01 1.06777894e+00 1.02863967e+00 1.01635993e+00
      1.16371214e+00 1.00067639e+00 1.11630845e+00 1.03488374e+00
      1.02669907e+00 1.23540246e+00 1.02536869e+00 1.11265826e+00
      1.02033901e+00 1.03324807e+00 1.25351119e+00 1.02968192e+00
      1.12005103e+00 1.09836066e+00 1.03157890e+00 1.25348723e+00
      9.29362833e-01 1.13248408e+00 1.08215296e+00 1.05597961e+00
      1.27949059e+00 9.38632727e-01 1.13493061e+00 1.09090912e+00
      1.05454540e+00 1.25296307e+00 9.00622189e-01 1.12420785e+00
      1.06478870e+00 1.05822790e+00 1.27018809e+00 9.39488530e-01
      1.11577606e+00 1.07917893e+00 1.03053439e+00 1.27399278e+00
      1.02712440e+00 1.11125159e+00 1.02801120e+00 1.02750003e+00
      1.23569489e+00 1.00677228e+00 1.11577606e+00 1.07917893e+00
      1.03053439e+00 1.27399278e+00 1.02712440e+00 1.11630845e+00
      1.03488374e+00 1.02669907e+00 1.23540246e+00 1.02536869e+00
      1.11195934e+00 1.03592813e+00 1.02479339e+00 1.27397776e+00
      9.50565159e-01 1.11125159e+00 1.02801120e+00 1.02750003e+00
      1.23569489e+00 1.00677228e+00 1.13265312e+00 1.11874998e+00
      1.03157890e+00 1.28112221e+00 1.05864465e+00 1.11152887e+00
      1.03468204e+00 1.03324807e+00 1.25795257e+00 1.02967274e+00
      1.10519648e+00 1.01680672e+00 1.02189779e+00 1.24484193e+00
      1.01975834e+00 1.12625003e+00 1.06232297e+00 1.03921568e+00
      1.25754702e+00 9.98005569e-01 1.12105930e+00 1.04109585e+00
      1.03030300e+00 1.25006092e+00 9.60437655e-01 1.12752521e+00
      1.04747772e+00 1.03818619e+00 1.25843322e+00 9.96805131e-01
      1.09796441e+00 1.01739132e+00 1.01012659e+00 1.22644067e+00
      9.84256566e-01 1.12420785e+00 1.06478870e+00 1.05822790e+00
      1.27018809e+00 9.39488530e-01 1.11577606e+00 1.07917893e+00
      1.03053439e+00 1.27399278e+00 1.02712440e+00 1.11802030e+00
      1.08238637e+00 1.02284265e+00 1.26538479e+00 1.00326169e+00
      1.12090683e+00 1.03303301e+00 1.03466666e+00 1.26428986e+00
      1.00173104e+00 1.09796441e+00 1.01152742e+00 1.01272261e+00
      1.22644067e+00 9.98857796e-01 1.12090683e+00 1.03303301e+00
      1.03466666e+00 1.26428986e+00 1.00173104e+00 1.12105930e+00
      1.04109585e+00 1.03030300e+00 1.25006092e+00 9.60437655e-01
      1.12420785e+00 1.06478870e+00 1.05822790e+00 1.27018809e+00
      9.39488530e-01 1.07015705e+00 1.03117502e+00 1.02066112e+00
      1.16858637e+00 1.01450062e+00 1.11265826e+00 1.02033901e+00
      1.03324807e+00 1.25351119e+00 1.02968192e+00 1.12674272e+00
      1.03669727e+00 1.02393615e+00 1.25767744e+00 9.67572451e-01
      1.11265826e+00 1.02033901e+00 1.03324807e+00 1.25351119e+00
      1.02968192e+00 1.12105930e+00 1.04109585e+00 1.03030300e+00
      1.25006092e+00 9.60437655e-01 1.12105930e+00 1.04109585e+00
      1.03030300e+00 1.25006092e+00 9.60437655e-01 1.11485648e+00
      1.02292264e+00 1.04066980e+00 1.24864638e+00 9.71804380e-01
      1.11660326e+00 1.03592813e+00 1.02902377e+00 1.25251603e+00
      1.02552152e+00 1.11152887e+00 1.03468204e+00 1.03324807e+00
      1.25795257e+00 1.02967274e+00 1.04623652e+00 1.02518892e+00
      1.01217043e+00 1.13333333e+00 9.52204585e-01 1.13248408e+00
      1.08215296e+00 1.05597961e+00 1.27949059e+00 9.38632727e-01
      1.11727619e+00 1.03741491e+00 1.03044498e+00 1.25658321e+00
      1.03327262e+00 1.11237371e+00 1.03380287e+00 1.02403843e+00
      1.24012661e+00 1.00299656e+00 1.12674272e+00 1.03669727e+00
      1.02393615e+00 1.25767744e+00 9.67572451e-01 1.11787069e+00
      1.06213021e+00 1.00797868e+00 1.27230167e+00 9.42557812e-01
      1.12185931e+00 1.09415579e+00 1.04102564e+00 1.24562323e+00
      9.13327217e-01 1.07015705e+00 1.03117502e+00 1.02066112e+00
      1.16858637e+00 1.01450062e+00 1.12625003e+00 1.06232297e+00
      1.03921568e+00 1.25754702e+00 9.98005569e-01 1.13248408e+00
      1.08215296e+00 1.05597961e+00 1.27949059e+00 9.38632727e-01
      1.11802030e+00 1.08238637e+00 1.02284265e+00 1.26538479e+00
      1.00326169e+00 1.11237371e+00 1.03380287e+00 1.02403843e+00
      1.24012661e+00 1.00299656e+00 1.12420785e+00 1.06478870e+00
      1.05822790e+00 1.27018809e+00 9.39488530e-01 1.11787069e+00
      1.06213021e+00 1.00797868e+00 1.27230167e+00 9.42557812e-01
      1.11630845e+00 1.03488374e+00 1.02669907e+00 1.23540246e+00
      1.02536869e+00 1.12185931e+00 1.09415579e+00 1.04102564e+00
      1.24562323e+00 9.13327217e-01 1.12752521e+00 1.05810392e+00
      1.03703701e+00 1.26239955e+00 1.01068783e+00 1.13037980e+00
      1.07780981e+00 1.05167961e+00 1.25347674e+00 9.28981364e-01
      1.12420785e+00 1.06478870e+00 1.05822790e+00 1.27018809e+00
      9.39488530e-01 1.12075472e+00 1.03378379e+00 1.03044498e+00
      1.25027788e+00 9.84287679e-01 1.12105930e+00 1.04109585e+00
      1.03030300e+00 1.25006092e+00 9.60437655e-01 1.07202876e+00
      1.01445091e+00 1.00660789e+00 1.18367350e+00 1.00712299e+00
      1.08393288e+00 1.06164384e+00 1.03030300e+00 1.16950405e+00
      9.82689619e-01 1.08300078e+00 1.05587673e+00 1.05873263e+00
      1.17589462e+00 9.74426985e-01 1.09177971e+00 1.05788422e+00
      1.05236483e+00 1.17155063e+00 9.38814640e-01 1.07920003e+00
      1.04705882e+00 1.04132235e+00 1.16980338e+00 1.01929009e+00
      1.08035004e+00 1.04627764e+00 1.04437399e+00 1.16467786e+00
      9.29588735e-01 1.08207166e+00 1.03960395e+00 1.05098689e+00
      1.16206872e+00 1.01744962e+00 1.05149889e+00 1.03907633e+00
      1.02162158e+00 1.13326705e+00 9.17987406e-01 1.05149889e+00
      1.03907633e+00 1.02162158e+00 1.13326705e+00 9.17987406e-01
      1.07833731e+00 1.03585660e+00 1.04173112e+00 1.16019142e+00
      9.58812058e-01 1.09177971e+00 1.05788422e+00 1.05236483e+00
      1.17155063e+00 9.38814640e-01 1.08060658e+00 1.08258533e+00
      1.04140127e+00 1.17138493e+00 9.90744650e-01 1.07040000e+00
      1.03472221e+00 1.02901030e+00 1.15546000e+00 8.96509469e-01
      1.07833731e+00 1.03585660e+00 1.04173112e+00 1.16019142e+00
      9.58812058e-01 1.07342374e+00 1.04182506e+00 1.03953874e+00
      1.16019928e+00 9.87188876e-01 1.07939053e+00 1.08364308e+00
      1.04326928e+00 1.15198123e+00 9.55354929e-01 1.07920003e+00
      1.04705882e+00 1.04132235e+00 1.16980338e+00 1.01929009e+00
      1.08300078e+00 1.05587673e+00 1.05873263e+00 1.17589462e+00
      9.74426985e-01 1.05149889e+00 1.03907633e+00 1.02162158e+00
      1.13326705e+00 9.17987406e-01 1.08720005e+00 1.05335963e+00
      1.04897320e+00 1.17578912e+00 9.32612598e-01 1.08146966e+00
      1.07731092e+00 1.04444444e+00 1.16414475e+00 9.58689511e-01
      1.08393288e+00 1.06164384e+00 1.03030300e+00 1.16950405e+00
      9.82689619e-01 1.07679999e+00 1.09274876e+00 1.03482592e+00
      1.16020405e+00 9.44109023e-01 1.07980847e+00 1.04373753e+00
      1.05445540e+00 1.15422213e+00 1.00417376e+00 1.06333077e+00
      1.05660379e+00 1.03782892e+00 1.15103400e+00 9.23563004e-01
      1.08118975e+00 1.05286348e+00 1.03381646e+00 1.17274296e+00
      9.78084862e-01 1.06863523e+00 1.01511884e+00 1.04846525e+00
      1.15765119e+00 9.59048092e-01 1.07661617e+00 1.04563487e+00
      1.03091192e+00 1.15833950e+00 9.58812058e-01 1.08393288e+00
      1.06164384e+00 1.03030300e+00 1.16950405e+00 9.82689619e-01
      1.07599998e+00 1.08207703e+00 1.04674459e+00 1.15594339e+00
      9.52439845e-01 1.07980847e+00 1.04373753e+00 1.05445540e+00
      1.15422213e+00 1.00417376e+00 1.07262576e+00 1.03053439e+00
      1.03803492e+00 1.15501428e+00 8.92649949e-01 1.08118975e+00
      1.05286348e+00 1.03381646e+00 1.17274296e+00 9.78084862e-01
      1.09244370e+00 1.11643839e+00 1.04654896e+00 1.16656876e+00
      1.01685607e+00 1.07980847e+00 1.04373753e+00 1.05445540e+00
      1.15422213e+00 1.00417376e+00 1.09163988e+00 1.08233273e+00
      1.06429780e+00 1.16651595e+00 9.43061650e-01 1.08319998e+00
      1.08304501e+00 1.05317318e+00 1.16204369e+00 9.50142562e-01
      1.07538092e+00 1.03925228e+00 1.06794679e+00 1.16612160e+00
      9.56791878e-01 1.07262576e+00 1.03053439e+00 1.03803492e+00
      1.15501428e+00 8.92649949e-01 1.08035004e+00 1.04627764e+00
      1.04437399e+00 1.16467786e+00 9.29588735e-01 1.08681667e+00
      1.05050504e+00 1.04508853e+00 1.15964365e+00 9.94115293e-01
      1.08286858e+00 1.04669261e+00 1.04620457e+00 1.15643692e+00
      1.01345348e+00 1.07833731e+00 1.03585660e+00 1.04173112e+00
      1.16019142e+00 9.58812058e-01 1.07538092e+00 1.03925228e+00
      1.06794679e+00 1.16612160e+00 9.56791878e-01 1.08118975e+00
      1.05286348e+00 1.03381646e+00 1.17274296e+00 9.78084862e-01
      1.07262576e+00 1.03053439e+00 1.03803492e+00 1.15501428e+00
      8.92649949e-01 1.08159995e+00 1.04166663e+00 1.04192543e+00
      1.16886508e+00 9.80153918e-01 1.08067095e+00 1.08040202e+00
      1.04288161e+00 1.15820956e+00 9.41203177e-01 1.06333077e+00
      1.05660379e+00 1.03782892e+00 1.15103400e+00 9.23563004e-01
      1.09177971e+00 1.05788422e+00 1.05236483e+00 1.17155063e+00
      9.38814640e-01 1.07939053e+00 1.08364308e+00 1.04326928e+00
      1.15198123e+00 9.55354929e-01 1.07375097e+00 1.02388060e+00
      1.03767657e+00 1.14639175e+00 8.92649949e-01 1.08466458e+00
      1.07903779e+00 1.05679858e+00 1.16491246e+00 9.65249896e-01
      1.08720005e+00 1.05335963e+00 1.04897320e+00 1.17578912e+00
      9.32612598e-01 1.08060658e+00 1.08258533e+00 1.04140127e+00
      1.17138493e+00 9.90744650e-01 1.03193033e+00 1.01863348e+00
      1.00750005e+00 1.07547164e+00 8.90002191e-01 1.08286858e+00
      1.04669261e+00 1.04620457e+00 1.15643692e+00 1.01345348e+00
      1.07661617e+00 1.04563487e+00 1.03091192e+00 1.15833950e+00
      9.58812058e-01 1.07375097e+00 1.02388060e+00 1.03767657e+00
      1.14639175e+00 8.92649949e-01 1.09244370e+00 1.11643839e+00
      1.04654896e+00 1.16656876e+00 1.01685607e+00 1.08366537e+00
      1.04320991e+00 1.04006410e+00 1.16212785e+00 1.01004589e+00
      1.08681667e+00 1.05050504e+00 1.04508853e+00 1.15964365e+00
      9.94115293e-01 1.06863523e+00 1.01511884e+00 1.04846525e+00
      1.15765119e+00 9.59048092e-01 1.08681667e+00 1.05050504e+00
      1.04508853e+00 1.15964365e+00 9.94115293e-01 1.05149889e+00
      1.03907633e+00 1.02162158e+00 1.13326705e+00 9.17987406e-01
      1.08720005e+00 1.05335963e+00 1.04897320e+00 1.17578912e+00
      9.32612598e-01 1.08466458e+00 1.07903779e+00 1.05679858e+00
      1.16491246e+00 9.65249896e-01 1.07920003e+00 1.04705882e+00
      1.04132235e+00 1.16980338e+00 1.01929009e+00 1.07538092e+00
      1.03925228e+00 1.06794679e+00 1.16612160e+00 9.56791878e-01
      1.07920003e+00 1.04705882e+00 1.04132235e+00 1.16980338e+00
      1.01929009e+00 1.07262576e+00 1.03053439e+00 1.03803492e+00
      1.15501428e+00 8.92649949e-01 1.03752756e+00 1.01935482e+00
      1.01312912e+00 1.09050775e+00 8.94833148e-01 1.03752756e+00
      1.01935482e+00 1.01312912e+00 1.09050775e+00 8.94833148e-01
      1.08681667e+00 1.05050504e+00 1.04508853e+00 1.15964365e+00
      9.94115293e-01 1.08720005e+00 1.05335963e+00 1.04897320e+00
      1.17578912e+00 9.32612598e-01 1.08319998e+00 1.08304501e+00
      1.05317318e+00 1.16204369e+00 9.50142562e-01 1.08466458e+00
      1.07903779e+00 1.05679858e+00 1.16491246e+00 9.65249896e-01
      1.08681667e+00 1.05050504e+00 1.04508853e+00 1.15964365e+00
      9.94115293e-01 1.07262576e+00 1.03053439e+00 1.03803492e+00
      1.15501428e+00 8.92649949e-01 1.07342374e+00 1.04182506e+00
      1.03953874e+00 1.16019928e+00 9.87188876e-01 1.06060600e+00
      1.02793300e+00 1.00886524e+00 1.13083744e+00 8.86952162e-01
      1.08393288e+00 1.06164384e+00 1.03030300e+00 1.16950405e+00
      9.82689619e-01 1.08366537e+00 1.04320991e+00 1.04006410e+00
      1.16212785e+00 1.01004589e+00 1.08393288e+00 1.06164384e+00
      1.03030300e+00 1.16950405e+00 9.82689619e-01 1.06645322e+00
      1.01670647e+00 1.03583062e+00 1.15993106e+00 8.91028523e-01
      1.09244370e+00 1.11643839e+00 1.04654896e+00 1.16656876e+00
      1.01685607e+00 1.08159995e+00 1.04166663e+00 1.04192543e+00
      1.16886508e+00 9.80153918e-01 1.08393288e+00 1.06164384e+00
      1.03030300e+00 1.16950405e+00 9.82689619e-01 1.08035004e+00
      1.04627764e+00 1.04437399e+00 1.16467786e+00 9.29588735e-01
      1.03193033e+00 1.01863348e+00 1.00750005e+00 1.07547164e+00
      8.90002191e-01 1.07538092e+00 1.03925228e+00 1.06794679e+00
      1.16612160e+00 9.56791878e-01 1.08406723e+00 1.05109489e+00
      1.04068863e+00 1.16606450e+00 1.03439546e+00 1.07599998e+00
      1.08207703e+00 1.04674459e+00 1.15594339e+00 9.52439845e-01
      1.09244370e+00 1.11643839e+00 1.04654896e+00 1.16656876e+00
      1.01685607e+00 1.07599998e+00 1.08207703e+00 1.04674459e+00
      1.15594339e+00 9.52439845e-01 1.08366537e+00 1.04320991e+00
      1.04006410e+00 1.16212785e+00 1.01004589e+00 1.07920003e+00
      1.04705882e+00 1.04132235e+00 1.16980338e+00 1.01929009e+00
      1.07980847e+00 1.04373753e+00 1.05445540e+00 1.15422213e+00
      1.00417376e+00 1.08319998e+00 1.08304501e+00 1.05317318e+00
      1.16204369e+00 9.50142562e-01 1.08286858e+00 1.04669261e+00
      1.04620457e+00 1.15643692e+00 1.01345348e+00 1.08146966e+00
      1.07731092e+00 1.04444444e+00 1.16414475e+00 9.58689511e-01
      1.09595370e+00 1.06648934e+00 1.05088496e+00 1.15930605e+00
      9.98952568e-01 1.07953215e+00 1.05379748e+00 1.04501605e+00
      1.17967105e+00 9.78188157e-01 1.09196746e+00 1.04871798e+00
      1.04608297e+00 1.17499101e+00 9.61570442e-01 1.10556841e+00
      1.07520890e+00 1.05739510e+00 1.17243874e+00 9.89973962e-01
      1.06920421e+00 1.02298856e+00 1.02447557e+00 1.14602065e+00
      9.36202347e-01 1.06920421e+00 1.02298856e+00 1.02447557e+00
      1.14602065e+00 9.36202347e-01 1.09813082e+00 1.05866671e+00
      1.04618943e+00 1.17329788e+00 9.72664595e-01 1.09059238e+00
      1.04884315e+00 1.05188680e+00 1.17235768e+00 9.90944505e-01
      1.08680558e+00 1.04050636e+00 1.03456223e+00 1.17129612e+00
      9.20449913e-01 1.08680558e+00 1.04050636e+00 1.03456223e+00
      1.17129612e+00 9.20449913e-01 1.09248555e+00 1.07908165e+00
      1.05489266e+00 1.17061806e+00 9.62832332e-01 1.03121746e+00
      1.02880657e+00 1.02431607e+00 1.06139433e+00 9.22942340e-01
      1.10465121e+00 1.04568529e+00 1.05797100e+00 1.18138242e+00
      9.56186831e-01 1.06728542e+00 1.02452314e+00 1.02580643e+00
      1.15196788e+00 9.85642612e-01 1.06920421e+00 1.02298856e+00
      1.02447557e+00 1.14602065e+00 9.36202347e-01 1.09280741e+00
      1.08695650e+00 1.05515587e+00 1.16473269e+00 9.27947700e-01
      1.06728542e+00 1.02452314e+00 1.02580643e+00 1.15196788e+00
      9.85642612e-01 1.09756100e+00 1.06027400e+00 1.05352116e+00
      1.17673934e+00 9.87569690e-01 1.10196984e+00 1.06299210e+00
      1.07055211e+00 1.17525601e+00 1.00824463e+00 1.09227216e+00
      1.06079030e+00 1.04999995e+00 1.17359769e+00 9.34492409e-01
      1.09756100e+00 1.06027400e+00 1.05352116e+00 1.17673934e+00
      9.87569690e-01 1.08285391e+00 1.07197940e+00 1.05109489e+00
      1.15396976e+00 9.24980164e-01 1.09259260e+00 1.04325700e+00
      1.03211010e+00 1.17723918e+00 9.81232405e-01 1.09227216e+00
      1.06079030e+00 1.04999995e+00 1.17359769e+00 9.34492409e-01
      1.06728542e+00 1.02452314e+00 1.02580643e+00 1.15196788e+00
      9.85642612e-01 1.06728542e+00 1.02452314e+00 1.02580643e+00
      1.15196788e+00 9.85642612e-01 1.11046517e+00 1.06806278e+00
      1.09006214e+00 1.17527223e+00 1.03173482e+00 1.02525258e+00
      1.02127659e+00 1.01045299e+00 1.06060600e+00 8.82737637e-01
      1.08285391e+00 1.07197940e+00 1.05109489e+00 1.15396976e+00
      9.24980164e-01 1.09756100e+00 1.06027400e+00 1.05352116e+00
      1.17673934e+00 9.87569690e-01 1.08294928e+00 1.04466498e+00
      1.04358351e+00 1.16390574e+00 9.31008220e-01 1.08680558e+00
      1.04050636e+00 1.03456223e+00 1.17129612e+00 9.20449913e-01
      1.08912039e+00 1.04632151e+00 1.05011928e+00 1.17465258e+00
      9.68415260e-01 1.09756100e+00 1.06027400e+00 1.05352116e+00
      1.17673934e+00 9.87569690e-01 1.06728542e+00 1.02452314e+00
      1.02580643e+00 1.15196788e+00 9.85642612e-01 1.06920421e+00
      1.02298856e+00 1.02447557e+00 1.14602065e+00 9.36202347e-01
      1.09718966e+00 1.05744123e+00 1.05172420e+00 1.18221939e+00
      9.32178080e-01 1.06920421e+00 1.02298856e+00 1.02447557e+00
      1.14602065e+00 9.36202347e-01 1.09227216e+00 1.06079030e+00
      1.04999995e+00 1.17359769e+00 9.34492409e-01 1.09280741e+00
      1.08695650e+00 1.05515587e+00 1.16473269e+00 9.27947700e-01
      1.09207463e+00 1.03954804e+00 1.05783129e+00 1.16001642e+00
      9.56791580e-01 1.11046517e+00 1.06806278e+00 1.09006214e+00
      1.17527223e+00 1.03173482e+00 1.09756100e+00 1.06027400e+00
      1.05352116e+00 1.17673934e+00 9.87569690e-01 1.06728542e+00
      1.02452314e+00 1.02580643e+00 1.15196788e+00 9.85642612e-01
      1.09280741e+00 1.08695650e+00 1.05515587e+00 1.16473269e+00
      9.27947700e-01 1.10556841e+00 1.07520890e+00 1.05739510e+00
      1.17243874e+00 9.89973962e-01 1.11046517e+00 1.06806278e+00
      1.09006214e+00 1.17527223e+00 1.03173482e+00 1.09227216e+00
      1.06079030e+00 1.04999995e+00 1.17359769e+00 9.34492409e-01
      1.08680558e+00 1.04050636e+00 1.03456223e+00 1.17129612e+00
      9.20449913e-01 1.09059238e+00 1.04884315e+00 1.05188680e+00
      1.17235768e+00 9.90944505e-01 1.09259260e+00 1.04325700e+00
      1.03211010e+00 1.17723918e+00 9.81232405e-01 1.10452962e+00
      1.06933331e+00 1.04232800e+00 1.17812920e+00 1.00125027e+00
      1.09718966e+00 1.05744123e+00 1.05172420e+00 1.18221939e+00
      9.32178080e-01 1.09259260e+00 1.04325700e+00 1.03211010e+00
      1.17723918e+00 9.81232405e-01 1.10556841e+00 1.07520890e+00
      1.05739510e+00 1.17243874e+00 9.89973962e-01 1.08912039e+00
      1.04632151e+00 1.05011928e+00 1.17465258e+00 9.68415260e-01
      1.11046517e+00 1.06806278e+00 1.09006214e+00 1.17527223e+00
      1.03173482e+00 1.08285391e+00 1.07197940e+00 1.05109489e+00
      1.15396976e+00 9.24980164e-01 1.09132946e+00 1.04218364e+00
      1.06140351e+00 1.17011738e+00 9.73770618e-01 1.09259260e+00
      1.04325700e+00 1.03211010e+00 1.17723918e+00 9.81232405e-01</data></samples>
  <responses type_id="opencv-matrix">
    <rows>320</rows>
    <cols>1</cols>
    <dt>f</dt>
    <data>
      10. 10. 10. 10. 10. 10. 10. 10. 10. 10. 10. 10. 10. 10. 10. 10.
      10. 10. 10. 10. 10. 10. 10. 10. 10. 10. 10. 10. 10. 10. 10. 10.
      10. 10. 10. 10. 10. 10. 10. 10. 10. 10. 10. 10. 10. 10. 10. 10.
      10. 10. 10. 10. 10. 10. 10. 10. 10. 10. 10. 10. 10. 10. 10. 10.
      10. 10. 10. 10. 10. 10. 10. 10. 10. 10. 10. 10. 10. 10. 10. 10.
      10. 10. 10. 10. 10. 10. 10. 10. 10. 10. 10. 10. 10. 10. 10. 10.
      10. 10. 10. 10. 10. 10. 10. 10. 10. 10. 10. 10. 10. 10. 10. 10.
      10. 10. 10. 10. 10. 10. 10. 10. 10. 10. 10. 10. 10. 10. 10. 10.
      10. 10. 10. 10. 10. 10. 10. 10. 10. 10. 10. 10. 10. 10. 10. 10.
      10. 10. 10. 10. 10. 10. 10. 10. 10. 10. 10. 10. 10. 10. 10. 10.
      13. 13. 13. 13. 13. 13. 13. 13. 13. 13. 13. 13. 13. 13. 13. 13.
      13. 13. 13. 13. 13. 13. 13. 13. 13. 13. 13. 13. 13. 13. 13. 13.
      13. 13. 13. 13. 13. 13. 13. 13. 13. 13. 13. 13. 13. 13. 13. 13.
      13. 13. 13. 13. 13. 13. 13. 13. 13. 13. 13. 13. 13. 13. 13. 13.
      13. 13. 13. 13. 13. 13. 13. 13. 13. 13. 13. 13. 13. 13. 13. 13.
      13. 13. 13. 13. 13. 13. 13. 13. 13. 13. 13. 13. 13. 13. 13. 13.
      13. 13. 13. 13. 13. 13. 13. 13. 13. 13. 13. 13. 13. 13. 13. 13.
      13. 13. 13. 13. 13. 13. 13. 13. 13. 13. 13. 13. 13. 13. 13. 13.
      13. 13. 13. 13. 13. 13. 13. 13. 13. 13. 13. 13. 13. 13. 13. 13.
      13. 13. 13. 13. 13. 13. 13. 13. 13. 13. 13. 13. 13. 13. 13. 13.</data></responses></opencv_ml_knn>
</opencv_storage>
