<?xml version="1.0"?>
<opencv_storage>
<opencv_ml_knn>
  <format>3</format>
  <is_classifier>1</is_classifier>
  <default_k>10</default_k>
  <samples type_id="opencv-matrix">
    <rows>160</rows>
    <cols>4</cols>
    <dt>f</dt>
    <data>
      1.31213021e+00 1.15875614e+00 1.47703707e+00 1.51242602e+00
      1.29999995e+00 1.14909089e+00 1.50943398e+00 1.50904989e+00
      1.29999995e+00 1.19103312e+00 1.43459916e+00 1.48763621e+00
      1.31868136e+00 1.21897805e+00 1.46381092e+00 1.54184449e+00
      1.30724216e+00 1.20879126e+00 1.43854749e+00 1.49583018e+00
      1.30757916e+00 1.16632438e+00 1.50149703e+00 1.54966891e+00
      1.31333339e+00 1.16666663e+00 1.54041207e+00 1.54666662e+00
      1.27761412e+00 1.18697476e+00 1.45023692e+00 1.45145893e+00
      1.29999995e+00 1.14909089e+00 1.50943398e+00 1.50904989e+00
      1.30955887e+00 1.18677044e+00 1.46391749e+00 1.50294101e+00
      1.30014646e+00 1.19688106e+00 1.40799999e+00 1.47937918e+00
      1.32029521e+00 1.18548381e+00 1.49492013e+00 1.55158663e+00
      1.30724216e+00 1.20879126e+00 1.43854749e+00 1.49583018e+00
      1.31868136e+00 1.21897805e+00 1.46381092e+00 1.54184449e+00
      1.31213021e+00 1.15875614e+00 1.47703707e+00 1.51242602e+00
      1.29051089e+00 1.13559318e+00 1.49764526e+00 1.50986683e+00
      1.29051089e+00 1.13559318e+00 1.49764526e+00 1.50986683e+00
      1.34947836e+00 1.26813185e+00 1.43765903e+00 1.57675099e+00
      1.30051434e+00 1.16363633e+00 1.42780030e+00 1.50330651e+00
      1.27052784e+00 1.15209126e+00 1.37369788e+00 1.43037772e+00
      1.32029521e+00 1.18548381e+00 1.49492013e+00 1.55158663e+00
      1.30110705e+00 1.17560077e+00 1.51490068e+00 1.48757970e+00
      1.31868136e+00 1.21897805e+00 1.46381092e+00 1.54184449e+00
      1.34947836e+00 1.26813185e+00 1.43765903e+00 1.57675099e+00
      1.29051089e+00 1.13559318e+00 1.49764526e+00 1.50986683e+00
      1.29525220e+00 1.17798162e+00 1.47770703e+00 1.47021234e+00
      1.27761412e+00 1.18697476e+00 1.45023692e+00 1.45145893e+00
      1.30876935e+00 1.29912019e+00 1.37500000e+00 1.47154236e+00
      1.30643964e+00 1.33136094e+00 1.50485432e+00 1.50466275e+00
      1.30724216e+00 1.20879126e+00 1.43854749e+00 1.49583018e+00
      1.30610740e+00 1.14606738e+00 1.51846159e+00 1.54311073e+00
      1.30655861e+00 1.18503118e+00 1.48214281e+00 1.50235283e+00
      1.31319082e+00 1.18795180e+00 1.48367953e+00 1.51100850e+00
      1.28970587e+00 1.20545077e+00 1.45839870e+00 1.45163655e+00
      1.30269873e+00 1.49122810e+00 1.41078305e+00 1.50760007e+00
      1.31213021e+00 1.15875614e+00 1.47703707e+00 1.51242602e+00
      1.30757916e+00 1.16632438e+00 1.50149703e+00 1.54966891e+00
      1.28970587e+00 1.20545077e+00 1.45839870e+00 1.45163655e+00
      1.33112097e+00 1.22140217e+00 1.53973508e+00 1.54066312e+00
      1.31868136e+00 1.21897805e+00 1.46381092e+00 1.54184449e+00
      2.14333344e+00 2.30960846e+00 2.21387291e+00 2.65286303e+00
      2.11500549e+00 1.87383175e+00 2.20960689e+00 2.60476875e+00
      2.08093119e+00 2.38281250e+00 2.11881185e+00 2.52999115e+00
      2.06528831e+00 2.26470590e+00 2.07721996e+00 2.50272036e+00
      2.11358571e+00 2.10285711e+00 2.25835180e+00 2.56267595e+00
      2.12763596e+00 1.98743713e+00 2.23127747e+00 2.60819817e+00
      2.12208652e+00 2.39084506e+00 2.17159772e+00 2.59121323e+00
      2.12693167e+00 2.49342108e+00 2.23684216e+00 2.64117312e+00
      2.10607743e+00 2.17699122e+00 2.31890655e+00 2.56463790e+00
      2.10186195e+00 2.07739949e+00 2.15779471e+00 2.57233405e+00
      2.08461547e+00 2.07288623e+00 2.21218491e+00 2.52197814e+00
      2.10066366e+00 2.00740743e+00 2.19058299e+00 2.54466796e+00
      2.09670329e+00 1.54545450e+00 2.18201756e+00 2.52226520e+00
      2.11738658e+00 2.35714293e+00 2.25612473e+00 2.53579521e+00
      2.13058043e+00 2.16949153e+00 2.22127652e+00 2.60151243e+00
      2.14017653e+00 1.91466665e+00 2.25995803e+00 2.61368608e+00
      2.06659389e+00 2.20253158e+00 2.15310073e+00 2.50504613e+00
      2.14017653e+00 1.91466665e+00 2.25995803e+00 2.61368608e+00
      2.13199115e+00 2.25078368e+00 2.22077918e+00 2.59835172e+00
      2.10186195e+00 2.07739949e+00 2.15779471e+00 2.57233405e+00
      2.08990002e+00 1.91160226e+00 2.13502121e+00 2.50166416e+00
      2.13296080e+00 2.05154634e+00 2.19612074e+00 2.61273742e+00
      2.11500549e+00 1.87383175e+00 2.20960689e+00 2.60476875e+00
      2.12763596e+00 1.98743713e+00 2.23127747e+00 2.60819817e+00
      2.08791208e+00 2.18404913e+00 2.21244645e+00 2.54917932e+00
      2.06659389e+00 2.20253158e+00 2.15310073e+00 2.50504613e+00
      2.11500549e+00 1.87383175e+00 2.20960689e+00 2.60476875e+00
      2.13199115e+00 2.25078368e+00 2.22077918e+00 2.59835172e+00
      2.12763596e+00 1.98743713e+00 2.23127747e+00 2.60819817e+00
      2.08498907e+00 2.13043475e+00 2.14757276e+00 2.53624797e+00
      2.12693167e+00 2.49342108e+00 2.23684216e+00 2.64117312e+00
      2.06659389e+00 2.20253158e+00 2.15310073e+00 2.50504613e+00
      2.11525798e+00 2.07692313e+00 2.26652455e+00 2.63183331e+00
      2.11525798e+00 2.07692313e+00 2.26652455e+00 2.63183331e+00
      2.12763596e+00 1.98743713e+00 2.23127747e+00 2.60819817e+00
      2.11500549e+00 1.87383175e+00 2.20960689e+00 2.60476875e+00
      2.12208652e+00 2.39084506e+00 2.17159772e+00 2.59121323e+00
      2.12555552e+00 1.63025212e+00 2.12673259e+00 2.58808017e+00
      2.08791208e+00 2.18404913e+00 2.21244645e+00 2.54917932e+00
      2.11308193e+00 2.03296709e+00 2.21568632e+00 2.55131149e+00
      1.18067753e+00 1.17674422e+00 1.23111117e+00 1.57793581e+00
      1.17250001e+00 1.16114795e+00 1.21844661e+00 1.60300016e+00
      1.16729093e+00 1.18899524e+00 1.14840984e+00 1.55177653e+00
      1.16917288e+00 1.25087106e+00 1.17915308e+00 1.57731700e+00
      1.16957605e+00 1.17256641e+00 1.16906476e+00 1.59102225e+00
      1.16612375e+00 1.08550191e+00 2.36363626e+00 1.68168342e+00
      1.22528160e+00 1.17558885e+00 1.32773113e+00 1.74067581e+00
      1.13642049e+00 1.13235295e+00 1.29357803e+00 1.54604971e+00
      1.16624999e+00 1.19387758e+00 1.16197181e+00 1.56727934e+00
      1.19698870e+00 1.18501174e+00 1.36746991e+00 1.66875768e+00
      1.23279095e+00 1.16533864e+00 1.80769229e+00 1.75198710e+00
      1.18191719e+00 1.08252430e+00 1.39999998e+00 1.69139552e+00
      1.16896117e+00 1.20338988e+00 1.18124998e+00 1.56803274e+00
      1.16770959e+00 1.17011499e+00 1.16942143e+00 1.56946170e+00
      1.16624999e+00 1.19387758e+00 1.16197181e+00 1.56727934e+00
      1.16562104e+00 1.18117642e+00 1.16510904e+00 1.56336272e+00
      1.18067753e+00 1.17674422e+00 1.23111117e+00 1.57793581e+00
      1.16981137e+00 1.18779337e+00 1.16243660e+00 1.58305299e+00
      1.13642049e+00 1.13235295e+00 1.29357803e+00 1.54604971e+00
      1.18191719e+00 1.08252430e+00 1.39999998e+00 1.69139552e+00
      1.16624999e+00 1.19387758e+00 1.16197181e+00 1.56727934e+00
      1.14086294e+00 1.12951171e+00 1.24427485e+00 1.60301971e+00
      1.17691338e+00 1.17633414e+00 1.16403782e+00 1.57390201e+00
      1.16612375e+00 1.08550191e+00 2.36363626e+00 1.68168342e+00
      1.16624999e+00 1.19387758e+00 1.16197181e+00 1.56727934e+00
      1.22528160e+00 1.17558885e+00 1.32773113e+00 1.74067581e+00
      1.13470876e+00 1.14285719e+00 1.50000000e+00 1.56776500e+00
      1.16791975e+00 1.16666663e+00 1.23857868e+00 1.60834885e+00
      1.23279095e+00 1.16533864e+00 1.80769229e+00 1.75198710e+00
      1.17353308e+00 1.22255194e+00 1.18045115e+00 1.57084727e+00
      1.17358494e+00 1.21024263e+00 1.11728394e+00 1.60201240e+00
      1.19106698e+00 1.21148038e+00 1.19814241e+00 1.66182601e+00
      1.22528160e+00 1.17558885e+00 1.32773113e+00 1.74067581e+00
      1.14017522e+00 1.13655460e+00 1.36708856e+00 1.54709947e+00
      1.14017522e+00 1.13655460e+00 1.36708856e+00 1.54709947e+00
      1.16612375e+00 1.08550191e+00 2.36363626e+00 1.68168342e+00
      1.17358494e+00 1.21024263e+00 1.11728394e+00 1.60201240e+00
      1.13903058e+00 1.13247859e+00 1.27586210e+00 1.56122446e+00
      1.22528160e+00 1.17558885e+00 1.32773113e+00 1.74067581e+00
      1.13470876e+00 1.14285719e+00 1.50000000e+00 1.56776500e+00
      1.20588231e+00 1.19873154e+00 1.16702354e+00 1.24691224e+00
      1.20413435e+00 1.17539859e+00 1.18997908e+00 1.22511470e+00
      1.20956516e+00 1.20132744e+00 1.15423727e+00 1.23201740e+00
      1.16396248e+00 1.15217388e+00 1.33474576e+00 1.18216169e+00
      1.19134200e+00 1.17241383e+00 1.15025902e+00 1.19210029e+00
      1.16768026e+00 1.14977968e+00 1.18775511e+00 1.16848230e+00
      1.20382690e+00 1.22633743e+00 1.18688524e+00 1.20577180e+00
      1.19915259e+00 1.22912621e+00 1.21224487e+00 1.23068595e+00
      1.19810510e+00 1.21017694e+00 1.13195550e+00 1.21963811e+00
      1.19639790e+00 1.19951344e+00 1.18348622e+00 1.21490264e+00
      1.20585704e+00 1.21694219e+00 1.17297292e+00 1.20990348e+00
      1.20000005e+00 1.18219459e+00 1.13485110e+00 1.22103977e+00
      1.20017326e+00 1.19047618e+00 1.15560162e+00 1.20925689e+00
      1.19465327e+00 1.23620307e+00 1.21340382e+00 1.21080840e+00
      1.19465327e+00 1.23620307e+00 1.21340382e+00 1.21080840e+00
      1.20413435e+00 1.17539859e+00 1.18997908e+00 1.22511470e+00
      1.20382690e+00 1.22633743e+00 1.18688524e+00 1.20577180e+00
      1.18025756e+00 1.17943108e+00 1.12849164e+00 1.20493722e+00
      1.20382690e+00 1.22633743e+00 1.18688524e+00 1.20577180e+00
      1.20413435e+00 1.17539859e+00 1.18997908e+00 1.22511470e+00
      1.19043481e+00 1.12825656e+00 1.15034962e+00 1.19204283e+00
      1.19210982e+00 1.18580377e+00 1.13091481e+00 1.21440804e+00
      1.19810510e+00 1.21017694e+00 1.13195550e+00 1.21963811e+00
      1.13157892e+00 1.18222225e+00 1.31443298e+00 1.14684522e+00
      1.13157892e+00 1.18222225e+00 1.31443298e+00 1.14684522e+00
      1.21880341e+00 1.21192050e+00 1.20357943e+00 1.23783827e+00
      1.18370879e+00 1.17679560e+00 1.14312613e+00 1.21663773e+00
      1.19043481e+00 1.12825656e+00 1.15034962e+00 1.19204283e+00
      1.16145837e+00 1.18032789e+00 1.17448676e+00 1.19047618e+00
      1.21880341e+00 1.21192050e+00 1.20357943e+00 1.23783827e+00
      1.21061790e+00 1.16699409e+00 1.16156459e+00 1.23237598e+00
      1.21061790e+00 1.16699409e+00 1.16156459e+00 1.23237598e+00
      1.18696404e+00 1.21727753e+00 1.15714288e+00 1.18780065e+00
      1.20585704e+00 1.21694219e+00 1.17297292e+00 1.20990348e+00
      1.18974364e+00 1.19832397e+00 1.17266190e+00 1.19783211e+00
      1.17484927e+00 1.14495802e+00 1.21971834e+00 1.20757937e+00
      1.18937445e+00 1.22847676e+00 1.24104238e+00 1.20389569e+00
      1.14457834e+00 1.16343486e+00 1.14441419e+00 1.15456092e+00
      1.20585704e+00 1.21694219e+00 1.17297292e+00 1.20990348e+00
      1.20382690e+00 1.22633743e+00 1.18688524e+00 1.20577180e+00</data></samples>
  <responses type_id="opencv-matrix">
    <rows>160</rows>
    <cols>1</cols>
    <dt>f</dt>
    <data>
      0. 0. 0. 0. 0. 0. 0. 0. 0. 0. 0. 0. 0. 0. 0. 0. 0. 0. 0. 0. 0. 0.
      0. 0. 0. 0. 0. 0. 0. 0. 0. 0. 0. 0. 0. 0. 0. 0. 0. 0. 1. 1. 1. 1.
      1. 1. 1. 1. 1. 1. 1. 1. 1. 1. 1. 1. 1. 1. 1. 1. 1. 1. 1. 1. 1. 1.
      1. 1. 1. 1. 1. 1. 1. 1. 1. 1. 1. 1. 1. 1. 2. 2. 2. 2. 2. 2. 2. 2.
      2. 2. 2. 2. 2. 2. 2. 2. 2. 2. 2. 2. 2. 2. 2. 2. 2. 2. 2. 2. 2. 2.
      2. 2. 2. 2. 2. 2. 2. 2. 2. 2. 3. 3. 3. 3. 3. 3. 3. 3. 3. 3. 3. 3.
      3. 3. 3. 3. 3. 3. 3. 3. 3. 3. 3. 3. 3. 3. 3. 3. 3. 3. 3. 3. 3. 3.
      3. 3. 3. 3. 3. 3.</data></responses></opencv_ml_knn>
</opencv_storage>
