<?xml version="1.0"?>
<opencv_storage>
<opencv_ml_knn>
  <format>3</format>
  <is_classifier>1</is_classifier>
  <default_k>10</default_k>
  <samples type_id="opencv-matrix">
    <rows>800</rows>
    <cols>5</cols>
    <dt>f</dt>
    <data>
      1.07219565e+00 1.05214727e+00 1.05230772e+00 1.15429938e+00
      1.00307691e+00 1.06890357e+00 1.08000004e+00 1.05203617e+00
      1.12026715e+00 1.58371043e+00 1.07696903e+00 1.03799391e+00
      1.07221353e+00 1.14113772e+00 1.03296709e+00 1.05334914e+00
      1.04977381e+00 1.01367188e+00 1.09859550e+00 1.29492188e+00
      1.06399524e+00 1.04461539e+00 1.03719008e+00 1.14436638e+00
      8.95316780e-01 1.06775343e+00 1.04502046e+00 1.02968037e+00
      1.13326979e+00 1.67351604e+00 1.07501507e+00 1.05683565e+00
      1.05938697e+00 1.12566936e+00 1.24712646e+00 1.07501507e+00
      1.05683565e+00 1.05938697e+00 1.12566936e+00 1.24712646e+00
      1.06775343e+00 1.04502046e+00 1.02968037e+00 1.13326979e+00
      1.67351604e+00 1.07409644e+00 1.08059216e+00 1.04494381e+00
      1.15624046e+00 8.53932559e-01 1.06775343e+00 1.04502046e+00
      1.02968037e+00 1.13326979e+00 1.67351604e+00 1.05334914e+00
      1.04977381e+00 1.01367188e+00 1.09859550e+00 1.29492188e+00
      1.06775343e+00 1.04502046e+00 1.02968037e+00 1.13326979e+00
      1.67351604e+00 1.07219565e+00 1.05214727e+00 1.05230772e+00
      1.15429938e+00 1.00307691e+00 1.07219565e+00 1.05214727e+00
      1.05230772e+00 1.15429938e+00 1.00307691e+00 1.07219565e+00
      1.05214727e+00 1.05230772e+00 1.15429938e+00 1.00307691e+00
      1.06890357e+00 1.08000004e+00 1.05203617e+00 1.12026715e+00
      1.58371043e+00 1.06775343e+00 1.04502046e+00 1.02968037e+00
      1.13326979e+00 1.67351604e+00 1.07845509e+00 1.09873056e+00
      1.08675802e+00 1.15147853e+00 1.61872149e+00 1.07845509e+00
      1.09873056e+00 1.08675802e+00 1.15147853e+00 1.61872149e+00
      1.06399524e+00 1.04461539e+00 1.03719008e+00 1.14436638e+00
      8.95316780e-01 1.07696903e+00 1.03799391e+00 1.07221353e+00
      1.14113772e+00 1.03296709e+00 1.06890357e+00 1.08000004e+00
      1.05203617e+00 1.12026715e+00 1.58371043e+00 1.07845509e+00
      1.09873056e+00 1.08675802e+00 1.15147853e+00 1.61872149e+00
      1.06775343e+00 1.04502046e+00 1.02968037e+00 1.13326979e+00
      1.67351604e+00 1.06399524e+00 1.04461539e+00 1.03719008e+00
      1.14436638e+00 8.95316780e-01 1.06890357e+00 1.08000004e+00
      1.05203617e+00 1.12026715e+00 1.58371043e+00 1.07062149e+00
      1.06086957e+00 1.07628131e+00 1.12422514e+00 9.59475577e-01
      1.07062149e+00 1.06086957e+00 1.07628131e+00 1.12422514e+00
      9.59475577e-01 1.06775343e+00 1.04502046e+00 1.02968037e+00
      1.13326979e+00 1.67351604e+00 1.06775343e+00 1.04502046e+00
      1.02968037e+00 1.13326979e+00 1.67351604e+00 1.06399524e+00
      1.04461539e+00 1.03719008e+00 1.14436638e+00 8.95316780e-01
      1.06399524e+00 1.04461539e+00 1.03719008e+00 1.14436638e+00
      8.95316780e-01 1.06399524e+00 1.04461539e+00 1.03719008e+00
      1.14436638e+00 8.95316780e-01 1.07845509e+00 1.09873056e+00
      1.08675802e+00 1.15147853e+00 1.61872149e+00 1.07501507e+00
      1.05683565e+00 1.05938697e+00 1.12566936e+00 1.24712646e+00
      1.07409644e+00 1.08059216e+00 1.04494381e+00 1.15624046e+00
      8.53932559e-01 1.07219565e+00 1.05214727e+00 1.05230772e+00
      1.15429938e+00 1.00307691e+00 1.06890357e+00 1.08000004e+00
      1.05203617e+00 1.12026715e+00 1.58371043e+00 1.06775343e+00
      1.04502046e+00 1.02968037e+00 1.13326979e+00 1.67351604e+00
      1.06399524e+00 1.04461539e+00 1.03719008e+00 1.14436638e+00
      8.95316780e-01 1.07409644e+00 1.08059216e+00 1.04494381e+00
      1.15624046e+00 8.53932559e-01 1.07501507e+00 1.05683565e+00
      1.05938697e+00 1.12566936e+00 1.24712646e+00 1.07501507e+00
      1.05683565e+00 1.05938697e+00 1.12566936e+00 1.24712646e+00
      1.06775343e+00 1.04502046e+00 1.02968037e+00 1.13326979e+00
      1.67351604e+00 1.07219565e+00 1.05214727e+00 1.05230772e+00
      1.15429938e+00 1.00307691e+00 1.05800331e+00 1.04090273e+00
      1.04477608e+00 1.10302448e+00 2.64552236e+00 1.05334914e+00
      1.04977381e+00 1.01367188e+00 1.09859550e+00 1.29492188e+00
      1.07696903e+00 1.03799391e+00 1.07221353e+00 1.14113772e+00
      1.03296709e+00 1.06775343e+00 1.04502046e+00 1.02968037e+00
      1.13326979e+00 1.67351604e+00 1.07845509e+00 1.09873056e+00
      1.08675802e+00 1.15147853e+00 1.61872149e+00 1.05800331e+00
      1.04090273e+00 1.04477608e+00 1.10302448e+00 2.64552236e+00
      1.07219565e+00 1.05214727e+00 1.05230772e+00 1.15429938e+00
      1.00307691e+00 1.07501507e+00 1.05683565e+00 1.05938697e+00
      1.12566936e+00 1.24712646e+00 1.07501507e+00 1.05683565e+00
      1.05938697e+00 1.12566936e+00 1.24712646e+00 1.07845509e+00
      1.09873056e+00 1.08675802e+00 1.15147853e+00 1.61872149e+00
      1.06775343e+00 1.04502046e+00 1.02968037e+00 1.13326979e+00
      1.67351604e+00 1.07501507e+00 1.05683565e+00 1.05938697e+00
      1.12566936e+00 1.24712646e+00 1.07845509e+00 1.09873056e+00
      1.08675802e+00 1.15147853e+00 1.61872149e+00 1.07219565e+00
      1.05214727e+00 1.05230772e+00 1.15429938e+00 1.00307691e+00
      1.06775343e+00 1.04502046e+00 1.02968037e+00 1.13326979e+00
      1.67351604e+00 1.06775343e+00 1.04502046e+00 1.02968037e+00
      1.13326979e+00 1.67351604e+00 1.07409644e+00 1.08059216e+00
      1.04494381e+00 1.15624046e+00 8.53932559e-01 1.05800331e+00
      1.04090273e+00 1.04477608e+00 1.10302448e+00 2.64552236e+00
      1.06890357e+00 1.08000004e+00 1.05203617e+00 1.12026715e+00
      1.58371043e+00 1.05800331e+00 1.04090273e+00 1.04477608e+00
      1.10302448e+00 2.64552236e+00 1.07696903e+00 1.03799391e+00
      1.07221353e+00 1.14113772e+00 1.03296709e+00 1.07845509e+00
      1.09873056e+00 1.08675802e+00 1.15147853e+00 1.61872149e+00
      1.07062149e+00 1.06086957e+00 1.07628131e+00 1.12422514e+00
      9.59475577e-01 1.07062149e+00 1.06086957e+00 1.07628131e+00
      1.12422514e+00 9.59475577e-01 1.05800331e+00 1.04090273e+00
      1.04477608e+00 1.10302448e+00 2.64552236e+00 1.07219565e+00
      1.05214727e+00 1.05230772e+00 1.15429938e+00 1.00307691e+00
      1.06399524e+00 1.04461539e+00 1.03719008e+00 1.14436638e+00
      8.95316780e-01 1.07501507e+00 1.05683565e+00 1.05938697e+00
      1.12566936e+00 1.24712646e+00 1.06399524e+00 1.04461539e+00
      1.03719008e+00 1.14436638e+00 8.95316780e-01 1.06890357e+00
      1.08000004e+00 1.05203617e+00 1.12026715e+00 1.58371043e+00
      1.05334914e+00 1.04977381e+00 1.01367188e+00 1.09859550e+00
      1.29492188e+00 1.07845509e+00 1.09873056e+00 1.08675802e+00
      1.15147853e+00 1.61872149e+00 1.07501507e+00 1.05683565e+00
      1.05938697e+00 1.12566936e+00 1.24712646e+00 1.07219565e+00
      1.05214727e+00 1.05230772e+00 1.15429938e+00 1.00307691e+00
      1.05800331e+00 1.04090273e+00 1.04477608e+00 1.10302448e+00
      2.64552236e+00 1.07219565e+00 1.05214727e+00 1.05230772e+00
      1.15429938e+00 1.00307691e+00 1.06775343e+00 1.04502046e+00
      1.02968037e+00 1.13326979e+00 1.67351604e+00 1.06399524e+00
      1.04461539e+00 1.03719008e+00 1.14436638e+00 8.95316780e-01
      1.07219565e+00 1.05214727e+00 1.05230772e+00 1.15429938e+00
      1.00307691e+00 1.07696903e+00 1.03799391e+00 1.07221353e+00
      1.14113772e+00 1.03296709e+00 1.07409644e+00 1.08059216e+00
      1.04494381e+00 1.15624046e+00 8.53932559e-01 1.06399524e+00
      1.04461539e+00 1.03719008e+00 1.14436638e+00 8.95316780e-01
      1.07501507e+00 1.05683565e+00 1.05938697e+00 1.12566936e+00
      1.24712646e+00 1.07409644e+00 1.08059216e+00 1.04494381e+00
      1.15624046e+00 8.53932559e-01 1.07062149e+00 1.06086957e+00
      1.07628131e+00 1.12422514e+00 9.59475577e-01 1.07845509e+00
      1.09873056e+00 1.08675802e+00 1.15147853e+00 1.61872149e+00
      1.06399524e+00 1.04461539e+00 1.03719008e+00 1.14436638e+00
      8.95316780e-01 1.07409644e+00 1.08059216e+00 1.04494381e+00
      1.15624046e+00 8.53932559e-01 1.07696903e+00 1.03799391e+00
      1.07221353e+00 1.14113772e+00 1.03296709e+00 1.06890357e+00
      1.08000004e+00 1.05203617e+00 1.12026715e+00 1.58371043e+00
      1.07845509e+00 1.09873056e+00 1.08675802e+00 1.15147853e+00
      1.61872149e+00 1.07062149e+00 1.06086957e+00 1.07628131e+00
      1.12422514e+00 9.59475577e-01 1.07845509e+00 1.09873056e+00
      1.08675802e+00 1.15147853e+00 1.61872149e+00 1.07501507e+00
      1.05683565e+00 1.05938697e+00 1.12566936e+00 1.24712646e+00
      1.07696903e+00 1.03799391e+00 1.07221353e+00 1.14113772e+00
      1.03296709e+00 1.06399524e+00 1.04461539e+00 1.03719008e+00
      1.14436638e+00 8.95316780e-01 1.07696903e+00 1.03799391e+00
      1.07221353e+00 1.14113772e+00 1.03296709e+00 1.07062149e+00
      1.06086957e+00 1.07628131e+00 1.12422514e+00 9.59475577e-01
      1.07409644e+00 1.08059216e+00 1.04494381e+00 1.15624046e+00
      8.53932559e-01 1.05334914e+00 1.04977381e+00 1.01367188e+00
      1.09859550e+00 1.29492188e+00 1.06775343e+00 1.04502046e+00
      1.02968037e+00 1.13326979e+00 1.67351604e+00 1.07219565e+00
      1.05214727e+00 1.05230772e+00 1.15429938e+00 1.00307691e+00
      1.06775343e+00 1.04502046e+00 1.02968037e+00 1.13326979e+00
      1.67351604e+00 1.07501507e+00 1.05683565e+00 1.05938697e+00
      1.12566936e+00 1.24712646e+00 1.07219565e+00 1.05214727e+00
      1.05230772e+00 1.15429938e+00 1.00307691e+00 1.07062149e+00
      1.06086957e+00 1.07628131e+00 1.12422514e+00 9.59475577e-01
      1.07845509e+00 1.09873056e+00 1.08675802e+00 1.15147853e+00
      1.61872149e+00 1.05800331e+00 1.04090273e+00 1.04477608e+00
      1.10302448e+00 2.64552236e+00 1.06775343e+00 1.04502046e+00
      1.02968037e+00 1.13326979e+00 1.67351604e+00 1.05334914e+00
      1.04977381e+00 1.01367188e+00 1.09859550e+00 1.29492188e+00
      1.06775343e+00 1.04502046e+00 1.02968037e+00 1.13326979e+00
      1.67351604e+00 1.06775343e+00 1.04502046e+00 1.02968037e+00
      1.13326979e+00 1.67351604e+00 1.06775343e+00 1.04502046e+00
      1.02968037e+00 1.13326979e+00 1.67351604e+00 1.05334914e+00
      1.04977381e+00 1.01367188e+00 1.09859550e+00 1.29492188e+00
      1.06399524e+00 1.04461539e+00 1.03719008e+00 1.14436638e+00
      8.95316780e-01 1.06399524e+00 1.04461539e+00 1.03719008e+00
      1.14436638e+00 8.95316780e-01 1.06399524e+00 1.04461539e+00
      1.03719008e+00 1.14436638e+00 8.95316780e-01 1.07501507e+00
      1.05683565e+00 1.05938697e+00 1.12566936e+00 1.24712646e+00
      1.07409644e+00 1.08059216e+00 1.04494381e+00 1.15624046e+00
      8.53932559e-01 1.06775343e+00 1.04502046e+00 1.02968037e+00
      1.13326979e+00 1.67351604e+00 1.05334914e+00 1.04977381e+00
      1.01367188e+00 1.09859550e+00 1.29492188e+00 1.06399524e+00
      1.04461539e+00 1.03719008e+00 1.14436638e+00 8.95316780e-01
      1.07062149e+00 1.06086957e+00 1.07628131e+00 1.12422514e+00
      9.59475577e-01 1.06890357e+00 1.08000004e+00 1.05203617e+00
      1.12026715e+00 1.58371043e+00 1.07409644e+00 1.08059216e+00
      1.04494381e+00 1.15624046e+00 8.53932559e-01 1.06775343e+00
      1.04502046e+00 1.02968037e+00 1.13326979e+00 1.67351604e+00
      1.07696903e+00 1.03799391e+00 1.07221353e+00 1.14113772e+00
      1.03296709e+00 1.05800331e+00 1.04090273e+00 1.04477608e+00
      1.10302448e+00 2.64552236e+00 1.05800331e+00 1.04090273e+00
      1.04477608e+00 1.10302448e+00 2.64552236e+00 1.07062149e+00
      1.06086957e+00 1.07628131e+00 1.12422514e+00 9.59475577e-01
      1.07501507e+00 1.05683565e+00 1.05938697e+00 1.12566936e+00
      1.24712646e+00 1.06399524e+00 1.04461539e+00 1.03719008e+00
      1.14436638e+00 8.95316780e-01 1.06399524e+00 1.04461539e+00
      1.03719008e+00 1.14436638e+00 8.95316780e-01 1.07501507e+00
      1.05683565e+00 1.05938697e+00 1.12566936e+00 1.24712646e+00
      1.07219565e+00 1.05214727e+00 1.05230772e+00 1.15429938e+00
      1.00307691e+00 1.06890357e+00 1.08000004e+00 1.05203617e+00
      1.12026715e+00 1.58371043e+00 1.06890357e+00 1.08000004e+00
      1.05203617e+00 1.12026715e+00 1.58371043e+00 1.05800331e+00
      1.04090273e+00 1.04477608e+00 1.10302448e+00 2.64552236e+00
      1.07696903e+00 1.03799391e+00 1.07221353e+00 1.14113772e+00
      1.03296709e+00 1.07501507e+00 1.05683565e+00 1.05938697e+00
      1.12566936e+00 1.24712646e+00 1.07845509e+00 1.09873056e+00
      1.08675802e+00 1.15147853e+00 1.61872149e+00 1.05334914e+00
      1.04977381e+00 1.01367188e+00 1.09859550e+00 1.29492188e+00
      1.05334914e+00 1.04977381e+00 1.01367188e+00 1.09859550e+00
      1.29492188e+00 1.07409644e+00 1.08059216e+00 1.04494381e+00
      1.15624046e+00 8.53932559e-01 1.07845509e+00 1.09873056e+00
      1.08675802e+00 1.15147853e+00 1.61872149e+00 1.07696903e+00
      1.03799391e+00 1.07221353e+00 1.14113772e+00 1.03296709e+00
      1.06775343e+00 1.04502046e+00 1.02968037e+00 1.13326979e+00
      1.67351604e+00 1.06775343e+00 1.04502046e+00 1.02968037e+00
      1.13326979e+00 1.67351604e+00 1.06775343e+00 1.04502046e+00
      1.02968037e+00 1.13326979e+00 1.67351604e+00 1.05800331e+00
      1.04090273e+00 1.04477608e+00 1.10302448e+00 2.64552236e+00
      1.05334914e+00 1.04977381e+00 1.01367188e+00 1.09859550e+00
      1.29492188e+00 1.05334914e+00 1.04977381e+00 1.01367188e+00
      1.09859550e+00 1.29492188e+00 1.07409644e+00 1.08059216e+00
      1.04494381e+00 1.15624046e+00 8.53932559e-01 1.06399524e+00
      1.04461539e+00 1.03719008e+00 1.14436638e+00 8.95316780e-01
      1.07409644e+00 1.08059216e+00 1.04494381e+00 1.15624046e+00
      8.53932559e-01 1.07062149e+00 1.06086957e+00 1.07628131e+00
      1.12422514e+00 9.59475577e-01 1.06775343e+00 1.04502046e+00
      1.02968037e+00 1.13326979e+00 1.67351604e+00 1.05334914e+00
      1.04977381e+00 1.01367188e+00 1.09859550e+00 1.29492188e+00
      1.05800331e+00 1.04090273e+00 1.04477608e+00 1.10302448e+00
      2.64552236e+00 1.07409644e+00 1.08059216e+00 1.04494381e+00
      1.15624046e+00 8.53932559e-01 1.07696903e+00 1.03799391e+00
      1.07221353e+00 1.14113772e+00 1.03296709e+00 1.07501507e+00
      1.05683565e+00 1.05938697e+00 1.12566936e+00 1.24712646e+00
      1.06775343e+00 1.04502046e+00 1.02968037e+00 1.13326979e+00
      1.67351604e+00 1.05334914e+00 1.04977381e+00 1.01367188e+00
      1.09859550e+00 1.29492188e+00 1.06399524e+00 1.04461539e+00
      1.03719008e+00 1.14436638e+00 8.95316780e-01 1.06399524e+00
      1.04461539e+00 1.03719008e+00 1.14436638e+00 8.95316780e-01
      1.06775343e+00 1.04502046e+00 1.02968037e+00 1.13326979e+00
      1.67351604e+00 1.06399524e+00 1.04461539e+00 1.03719008e+00
      1.14436638e+00 8.95316780e-01 1.07409644e+00 1.08059216e+00
      1.04494381e+00 1.15624046e+00 8.53932559e-01 1.07845509e+00
      1.09873056e+00 1.08675802e+00 1.15147853e+00 1.61872149e+00
      1.07696903e+00 1.03799391e+00 1.07221353e+00 1.14113772e+00
      1.03296709e+00 1.07219565e+00 1.05214727e+00 1.05230772e+00
      1.15429938e+00 1.00307691e+00 1.07501507e+00 1.05683565e+00
      1.05938697e+00 1.12566936e+00 1.24712646e+00 1.05334914e+00
      1.04977381e+00 1.01367188e+00 1.09859550e+00 1.29492188e+00
      1.06775343e+00 1.04502046e+00 1.02968037e+00 1.13326979e+00
      1.67351604e+00 1.06890357e+00 1.08000004e+00 1.05203617e+00
      1.12026715e+00 1.58371043e+00 1.06890357e+00 1.08000004e+00
      1.05203617e+00 1.12026715e+00 1.58371043e+00 1.06399524e+00
      1.04461539e+00 1.03719008e+00 1.14436638e+00 8.95316780e-01
      1.07501507e+00 1.05683565e+00 1.05938697e+00 1.12566936e+00
      1.24712646e+00 1.07696903e+00 1.03799391e+00 1.07221353e+00
      1.14113772e+00 1.03296709e+00 1.05334914e+00 1.04977381e+00
      1.01367188e+00 1.09859550e+00 1.29492188e+00 1.06890357e+00
      1.08000004e+00 1.05203617e+00 1.12026715e+00 1.58371043e+00
      1.05334914e+00 1.04977381e+00 1.01367188e+00 1.09859550e+00
      1.29492188e+00 1.06399524e+00 1.04461539e+00 1.03719008e+00
      1.14436638e+00 8.95316780e-01 1.07219565e+00 1.05214727e+00
      1.05230772e+00 1.15429938e+00 1.00307691e+00 1.07219565e+00
      1.05214727e+00 1.05230772e+00 1.15429938e+00 1.00307691e+00
      1.07219565e+00 1.05214727e+00 1.05230772e+00 1.15429938e+00
      1.00307691e+00 1.07696903e+00 1.03799391e+00 1.07221353e+00
      1.14113772e+00 1.03296709e+00 1.06775343e+00 1.04502046e+00
      1.02968037e+00 1.13326979e+00 1.67351604e+00 1.07696903e+00
      1.03799391e+00 1.07221353e+00 1.14113772e+00 1.03296709e+00
      1.06775343e+00 1.04502046e+00 1.02968037e+00 1.13326979e+00
      1.67351604e+00 1.07501507e+00 1.05683565e+00 1.05938697e+00
      1.12566936e+00 1.24712646e+00 1.07501507e+00 1.05683565e+00
      1.05938697e+00 1.12566936e+00 1.24712646e+00 1.05334914e+00
      1.04977381e+00 1.01367188e+00 1.09859550e+00 1.29492188e+00
      1.05474865e+00 1.06094527e+00 1.04104483e+00 1.10723209e+00
      1.50000000e+00 1.05583751e+00 1.04565537e+00 1.02739727e+00
      1.12374902e+00 1.16267121e+00 1.04588699e+00 1.03453040e+00
      1.02722776e+00 1.10277843e+00 8.96039605e-01 1.05583751e+00
      1.04565537e+00 1.02739727e+00 1.12374902e+00 1.16267121e+00
      1.05474865e+00 1.06094527e+00 1.04104483e+00 1.10723209e+00
      1.50000000e+00 1.04588699e+00 1.03453040e+00 1.02722776e+00
      1.10277843e+00 8.96039605e-01 1.03806579e+00 1.01920235e+00
      1.05882359e+00 1.07510293e+00 1.37322509e+00 1.06359029e+00
      1.05952382e+00 1.02696073e+00 1.11871147e+00 1.64705884e+00
      1.04588699e+00 1.03453040e+00 1.02722776e+00 1.10277843e+00
      8.96039605e-01 1.06958473e+00 1.05202317e+00 1.04398823e+00
      1.14173090e+00 1.01466274e+00 1.06058919e+00 1.04470944e+00
      1.04314721e+00 1.12494957e+00 8.51522863e-01 1.05664611e+00
      1.03724134e+00 1.02298856e+00 1.09045434e+00 4.16666651e+00
      1.05583751e+00 1.04565537e+00 1.02739727e+00 1.12374902e+00
      1.16267121e+00 1.05474865e+00 1.06094527e+00 1.04104483e+00
      1.10723209e+00 1.50000000e+00 1.05664611e+00 1.03724134e+00
      1.02298856e+00 1.09045434e+00 4.16666651e+00 1.05289817e+00
      1.08239698e+00 1.05980861e+00 1.11395288e+00 1.91626799e+00
      1.06958473e+00 1.05202317e+00 1.04398823e+00 1.14173090e+00
      1.01466274e+00 1.03806579e+00 1.01920235e+00 1.05882359e+00
      1.07510293e+00 1.37322509e+00 1.05583751e+00 1.04565537e+00
      1.02739727e+00 1.12374902e+00 1.16267121e+00 1.05680537e+00
      1.03935862e+00 1.02414489e+00 1.12152362e+00 1.38028169e+00
      1.03806579e+00 1.01920235e+00 1.05882359e+00 1.07510293e+00
      1.37322509e+00 1.06958473e+00 1.05202317e+00 1.04398823e+00
      1.14173090e+00 1.01466274e+00 1.03806579e+00 1.01920235e+00
      1.05882359e+00 1.07510293e+00 1.37322509e+00 1.03806579e+00
      1.01920235e+00 1.05882359e+00 1.07510293e+00 1.37322509e+00
      1.04588699e+00 1.03453040e+00 1.02722776e+00 1.10277843e+00
      8.96039605e-01 1.05474865e+00 1.06094527e+00 1.04104483e+00
      1.10723209e+00 1.50000000e+00 1.06958473e+00 1.05202317e+00
      1.04398823e+00 1.14173090e+00 1.01466274e+00 1.05583751e+00
      1.04565537e+00 1.02739727e+00 1.12374902e+00 1.16267121e+00
      1.05583751e+00 1.04565537e+00 1.02739727e+00 1.12374902e+00
      1.16267121e+00 1.06958473e+00 1.05202317e+00 1.04398823e+00
      1.14173090e+00 1.01466274e+00 1.06058919e+00 1.04470944e+00
      1.04314721e+00 1.12494957e+00 8.51522863e-01 1.04588699e+00
      1.03453040e+00 1.02722776e+00 1.10277843e+00 8.96039605e-01
      1.05664611e+00 1.03724134e+00 1.02298856e+00 1.09045434e+00
      4.16666651e+00 1.05664611e+00 1.03724134e+00 1.02298856e+00
      1.09045434e+00 4.16666651e+00 1.04588699e+00 1.03453040e+00
      1.02722776e+00 1.10277843e+00 8.96039605e-01 1.03717279e+00
      1.04260647e+00 1.08196723e+00 1.09424078e+00 6.54098368e+00
      1.06958473e+00 1.05202317e+00 1.04398823e+00 1.14173090e+00
      1.01466274e+00 1.05583751e+00 1.04565537e+00 1.02739727e+00
      1.12374902e+00 1.16267121e+00 1.03717279e+00 1.04260647e+00
      1.08196723e+00 1.09424078e+00 6.54098368e+00 1.05474865e+00
      1.06094527e+00 1.04104483e+00 1.10723209e+00 1.50000000e+00
      1.05289817e+00 1.08239698e+00 1.05980861e+00 1.11395288e+00
      1.91626799e+00 1.06958473e+00 1.05202317e+00 1.04398823e+00
      1.14173090e+00 1.01466274e+00 1.03717279e+00 1.04260647e+00
      1.08196723e+00 1.09424078e+00 6.54098368e+00 1.03717279e+00
      1.04260647e+00 1.08196723e+00 1.09424078e+00 6.54098368e+00
      1.05583751e+00 1.04565537e+00 1.02739727e+00 1.12374902e+00
      1.16267121e+00 1.05680537e+00 1.03935862e+00 1.02414489e+00
      1.12152362e+00 1.38028169e+00 1.06958473e+00 1.05202317e+00
      1.04398823e+00 1.14173090e+00 1.01466274e+00 1.03717279e+00
      1.04260647e+00 1.08196723e+00 1.09424078e+00 6.54098368e+00
      1.03806579e+00 1.01920235e+00 1.05882359e+00 1.07510293e+00
      1.37322509e+00 1.03806579e+00 1.01920235e+00 1.05882359e+00
      1.07510293e+00 1.37322509e+00 1.06058919e+00 1.04470944e+00
      1.04314721e+00 1.12494957e+00 8.51522863e-01 1.03806579e+00
      1.01920235e+00 1.05882359e+00 1.07510293e+00 1.37322509e+00
      1.05474865e+00 1.06094527e+00 1.04104483e+00 1.10723209e+00
      1.50000000e+00 1.05664611e+00 1.03724134e+00 1.02298856e+00
      1.09045434e+00 4.16666651e+00 1.06359029e+00 1.05952382e+00
      1.02696073e+00 1.11871147e+00 1.64705884e+00 1.04588699e+00
      1.03453040e+00 1.02722776e+00 1.10277843e+00 8.96039605e-01
      1.05474865e+00 1.06094527e+00 1.04104483e+00 1.10723209e+00
      1.50000000e+00 1.03806579e+00 1.01920235e+00 1.05882359e+00
      1.07510293e+00 1.37322509e+00 1.05664611e+00 1.03724134e+00
      1.02298856e+00 1.09045434e+00 4.16666651e+00 1.05289817e+00
      1.08239698e+00 1.05980861e+00 1.11395288e+00 1.91626799e+00
      1.03717279e+00 1.04260647e+00 1.08196723e+00 1.09424078e+00
      6.54098368e+00 1.05474865e+00 1.06094527e+00 1.04104483e+00
      1.10723209e+00 1.50000000e+00 1.06058919e+00 1.04470944e+00
      1.04314721e+00 1.12494957e+00 8.51522863e-01 1.06058919e+00
      1.04470944e+00 1.04314721e+00 1.12494957e+00 8.51522863e-01
      1.03717279e+00 1.04260647e+00 1.08196723e+00 1.09424078e+00
      6.54098368e+00 1.05664611e+00 1.03724134e+00 1.02298856e+00
      1.09045434e+00 4.16666651e+00 1.06359029e+00 1.05952382e+00
      1.02696073e+00 1.11871147e+00 1.64705884e+00 1.04588699e+00
      1.03453040e+00 1.02722776e+00 1.10277843e+00 8.96039605e-01
      1.05289817e+00 1.08239698e+00 1.05980861e+00 1.11395288e+00
      1.91626799e+00 1.05664611e+00 1.03724134e+00 1.02298856e+00
      1.09045434e+00 4.16666651e+00 1.05289817e+00 1.08239698e+00
      1.05980861e+00 1.11395288e+00 1.91626799e+00 1.03806579e+00
      1.01920235e+00 1.05882359e+00 1.07510293e+00 1.37322509e+00
      1.03717279e+00 1.04260647e+00 1.08196723e+00 1.09424078e+00
      6.54098368e+00 1.05583751e+00 1.04565537e+00 1.02739727e+00
      1.12374902e+00 1.16267121e+00 1.05680537e+00 1.03935862e+00
      1.02414489e+00 1.12152362e+00 1.38028169e+00 1.06058919e+00
      1.04470944e+00 1.04314721e+00 1.12494957e+00 8.51522863e-01
      1.03806579e+00 1.01920235e+00 1.05882359e+00 1.07510293e+00
      1.37322509e+00 1.05583751e+00 1.04565537e+00 1.02739727e+00
      1.12374902e+00 1.16267121e+00 1.05680537e+00 1.03935862e+00
      1.02414489e+00 1.12152362e+00 1.38028169e+00 1.05289817e+00
      1.08239698e+00 1.05980861e+00 1.11395288e+00 1.91626799e+00
      1.06958473e+00 1.05202317e+00 1.04398823e+00 1.14173090e+00
      1.01466274e+00 1.05664611e+00 1.03724134e+00 1.02298856e+00
      1.09045434e+00 4.16666651e+00 1.06958473e+00 1.05202317e+00
      1.04398823e+00 1.14173090e+00 1.01466274e+00 1.03717279e+00
      1.04260647e+00 1.08196723e+00 1.09424078e+00 6.54098368e+00
      1.03717279e+00 1.04260647e+00 1.08196723e+00 1.09424078e+00
      6.54098368e+00 1.04588699e+00 1.03453040e+00 1.02722776e+00
      1.10277843e+00 8.96039605e-01 1.06359029e+00 1.05952382e+00
      1.02696073e+00 1.11871147e+00 1.64705884e+00 1.03806579e+00
      1.01920235e+00 1.05882359e+00 1.07510293e+00 1.37322509e+00
      1.03806579e+00 1.01920235e+00 1.05882359e+00 1.07510293e+00
      1.37322509e+00 1.06359029e+00 1.05952382e+00 1.02696073e+00
      1.11871147e+00 1.64705884e+00 1.05583751e+00 1.04565537e+00
      1.02739727e+00 1.12374902e+00 1.16267121e+00 1.04588699e+00
      1.03453040e+00 1.02722776e+00 1.10277843e+00 8.96039605e-01
      1.06058919e+00 1.04470944e+00 1.04314721e+00 1.12494957e+00
      8.51522863e-01 1.06359029e+00 1.05952382e+00 1.02696073e+00
      1.11871147e+00 1.64705884e+00 1.06359029e+00 1.05952382e+00
      1.02696073e+00 1.11871147e+00 1.64705884e+00 1.06958473e+00
      1.05202317e+00 1.04398823e+00 1.14173090e+00 1.01466274e+00
      1.05289817e+00 1.08239698e+00 1.05980861e+00 1.11395288e+00
      1.91626799e+00 1.05664611e+00 1.03724134e+00 1.02298856e+00
      1.09045434e+00 4.16666651e+00 1.05289817e+00 1.08239698e+00
      1.05980861e+00 1.11395288e+00 1.91626799e+00 1.03717279e+00
      1.04260647e+00 1.08196723e+00 1.09424078e+00 6.54098368e+00
      1.05474865e+00 1.06094527e+00 1.04104483e+00 1.10723209e+00
      1.50000000e+00 1.05680537e+00 1.03935862e+00 1.02414489e+00
      1.12152362e+00 1.38028169e+00 1.03717279e+00 1.04260647e+00
      1.08196723e+00 1.09424078e+00 6.54098368e+00 1.06359029e+00
      1.05952382e+00 1.02696073e+00 1.11871147e+00 1.64705884e+00
      1.05680537e+00 1.03935862e+00 1.02414489e+00 1.12152362e+00
      1.38028169e+00 1.03717279e+00 1.04260647e+00 1.08196723e+00
      1.09424078e+00 6.54098368e+00 1.05680537e+00 1.03935862e+00
      1.02414489e+00 1.12152362e+00 1.38028169e+00 1.03806579e+00
      1.01920235e+00 1.05882359e+00 1.07510293e+00 1.37322509e+00
      1.05474865e+00 1.06094527e+00 1.04104483e+00 1.10723209e+00
      1.50000000e+00 1.05664611e+00 1.03724134e+00 1.02298856e+00
      1.09045434e+00 4.16666651e+00 1.03806579e+00 1.01920235e+00
      1.05882359e+00 1.07510293e+00 1.37322509e+00 1.04588699e+00
      1.03453040e+00 1.02722776e+00 1.10277843e+00 8.96039605e-01
      1.05583751e+00 1.04565537e+00 1.02739727e+00 1.12374902e+00
      1.16267121e+00 1.05289817e+00 1.08239698e+00 1.05980861e+00
      1.11395288e+00 1.91626799e+00 1.03717279e+00 1.04260647e+00
      1.08196723e+00 1.09424078e+00 6.54098368e+00 1.03806579e+00
      1.01920235e+00 1.05882359e+00 1.07510293e+00 1.37322509e+00
      1.05680537e+00 1.03935862e+00 1.02414489e+00 1.12152362e+00
      1.38028169e+00 1.03806579e+00 1.01920235e+00 1.05882359e+00
      1.07510293e+00 1.37322509e+00 1.06058919e+00 1.04470944e+00
      1.04314721e+00 1.12494957e+00 8.51522863e-01 1.05680537e+00
      1.03935862e+00 1.02414489e+00 1.12152362e+00 1.38028169e+00
      1.05680537e+00 1.03935862e+00 1.02414489e+00 1.12152362e+00
      1.38028169e+00 1.05474865e+00 1.06094527e+00 1.04104483e+00
      1.10723209e+00 1.50000000e+00 1.05664611e+00 1.03724134e+00
      1.02298856e+00 1.09045434e+00 4.16666651e+00 1.03806579e+00
      1.01920235e+00 1.05882359e+00 1.07510293e+00 1.37322509e+00
      1.03717279e+00 1.04260647e+00 1.08196723e+00 1.09424078e+00
      6.54098368e+00 1.05289817e+00 1.08239698e+00 1.05980861e+00
      1.11395288e+00 1.91626799e+00 1.05664611e+00 1.03724134e+00
      1.02298856e+00 1.09045434e+00 4.16666651e+00 1.05474865e+00
      1.06094527e+00 1.04104483e+00 1.10723209e+00 1.50000000e+00
      1.03717279e+00 1.04260647e+00 1.08196723e+00 1.09424078e+00
      6.54098368e+00 1.05680537e+00 1.03935862e+00 1.02414489e+00
      1.12152362e+00 1.38028169e+00 1.03806579e+00 1.01920235e+00
      1.05882359e+00 1.07510293e+00 1.37322509e+00 1.03806579e+00
      1.01920235e+00 1.05882359e+00 1.07510293e+00 1.37322509e+00
      1.06359029e+00 1.05952382e+00 1.02696073e+00 1.11871147e+00
      1.64705884e+00 1.03717279e+00 1.04260647e+00 1.08196723e+00
      1.09424078e+00 6.54098368e+00 1.05664611e+00 1.03724134e+00
      1.02298856e+00 1.09045434e+00 4.16666651e+00 1.03806579e+00
      1.01920235e+00 1.05882359e+00 1.07510293e+00 1.37322509e+00
      1.03717279e+00 1.04260647e+00 1.08196723e+00 1.09424078e+00
      6.54098368e+00 1.03806579e+00 1.01920235e+00 1.05882359e+00
      1.07510293e+00 1.37322509e+00 1.06058919e+00 1.04470944e+00
      1.04314721e+00 1.12494957e+00 8.51522863e-01 1.05583751e+00
      1.04565537e+00 1.02739727e+00 1.12374902e+00 1.16267121e+00
      1.05474865e+00 1.06094527e+00 1.04104483e+00 1.10723209e+00
      1.50000000e+00 1.05289817e+00 1.08239698e+00 1.05980861e+00
      1.11395288e+00 1.91626799e+00 1.05289817e+00 1.08239698e+00
      1.05980861e+00 1.11395288e+00 1.91626799e+00 1.05680537e+00
      1.03935862e+00 1.02414489e+00 1.12152362e+00 1.38028169e+00
      1.05664611e+00 1.03724134e+00 1.02298856e+00 1.09045434e+00
      4.16666651e+00 1.05289817e+00 1.08239698e+00 1.05980861e+00
      1.11395288e+00 1.91626799e+00 1.05664611e+00 1.03724134e+00
      1.02298856e+00 1.09045434e+00 4.16666651e+00 1.05664611e+00
      1.03724134e+00 1.02298856e+00 1.09045434e+00 4.16666651e+00
      1.03717279e+00 1.04260647e+00 1.08196723e+00 1.09424078e+00
      6.54098368e+00 1.05583751e+00 1.04565537e+00 1.02739727e+00
      1.12374902e+00 1.16267121e+00 1.05680537e+00 1.03935862e+00
      1.02414489e+00 1.12152362e+00 1.38028169e+00 1.05583751e+00
      1.04565537e+00 1.02739727e+00 1.12374902e+00 1.16267121e+00
      1.06058919e+00 1.04470944e+00 1.04314721e+00 1.12494957e+00
      8.51522863e-01 1.05583751e+00 1.04565537e+00 1.02739727e+00
      1.12374902e+00 1.16267121e+00 1.06359029e+00 1.05952382e+00
      1.02696073e+00 1.11871147e+00 1.64705884e+00 1.03806579e+00
      1.01920235e+00 1.05882359e+00 1.07510293e+00 1.37322509e+00
      1.05289817e+00 1.08239698e+00 1.05980861e+00 1.11395288e+00
      1.91626799e+00 1.05680537e+00 1.03935862e+00 1.02414489e+00
      1.12152362e+00 1.38028169e+00 1.04588699e+00 1.03453040e+00
      1.02722776e+00 1.10277843e+00 8.96039605e-01 1.05680537e+00
      1.03935862e+00 1.02414489e+00 1.12152362e+00 1.38028169e+00
      1.03806579e+00 1.01920235e+00 1.05882359e+00 1.07510293e+00
      1.37322509e+00 1.05289817e+00 1.08239698e+00 1.05980861e+00
      1.11395288e+00 1.91626799e+00 1.03717279e+00 1.04260647e+00
      1.08196723e+00 1.09424078e+00 6.54098368e+00 1.06058919e+00
      1.04470944e+00 1.04314721e+00 1.12494957e+00 8.51522863e-01
      1.05680537e+00 1.03935862e+00 1.02414489e+00 1.12152362e+00
      1.38028169e+00 1.05289817e+00 1.08239698e+00 1.05980861e+00
      1.11395288e+00 1.91626799e+00 1.05474865e+00 1.06094527e+00
      1.04104483e+00 1.10723209e+00 1.50000000e+00 1.05664611e+00
      1.03724134e+00 1.02298856e+00 1.09045434e+00 4.16666651e+00
      1.06058919e+00 1.04470944e+00 1.04314721e+00 1.12494957e+00
      8.51522863e-01 1.06058919e+00 1.04470944e+00 1.04314721e+00
      1.12494957e+00 8.51522863e-01 1.05583751e+00 1.04565537e+00
      1.02739727e+00 1.12374902e+00 1.16267121e+00 1.06958473e+00
      1.05202317e+00 1.04398823e+00 1.14173090e+00 1.01466274e+00
      1.03717279e+00 1.04260647e+00 1.08196723e+00 1.09424078e+00
      6.54098368e+00 1.05474865e+00 1.06094527e+00 1.04104483e+00
      1.10723209e+00 1.50000000e+00 1.05664611e+00 1.03724134e+00
      1.02298856e+00 1.09045434e+00 4.16666651e+00 1.03717279e+00
      1.04260647e+00 1.08196723e+00 1.09424078e+00 6.54098368e+00
      1.05664611e+00 1.03724134e+00 1.02298856e+00 1.09045434e+00
      4.16666651e+00 1.05289817e+00 1.08239698e+00 1.05980861e+00
      1.11395288e+00 1.91626799e+00 1.06058919e+00 1.04470944e+00
      1.04314721e+00 1.12494957e+00 8.51522863e-01 1.05664611e+00
      1.03724134e+00 1.02298856e+00 1.09045434e+00 4.16666651e+00
      1.03806579e+00 1.01920235e+00 1.05882359e+00 1.07510293e+00
      1.37322509e+00 1.05680537e+00 1.03935862e+00 1.02414489e+00
      1.12152362e+00 1.38028169e+00 1.03806579e+00 1.01920235e+00
      1.05882359e+00 1.07510293e+00 1.37322509e+00 1.05289817e+00
      1.08239698e+00 1.05980861e+00 1.11395288e+00 1.91626799e+00
      1.05289817e+00 1.08239698e+00 1.05980861e+00 1.11395288e+00
      1.91626799e+00 1.05474865e+00 1.06094527e+00 1.04104483e+00
      1.10723209e+00 1.50000000e+00 1.04588699e+00 1.03453040e+00
      1.02722776e+00 1.10277843e+00 8.96039605e-01 1.03806579e+00
      1.01920235e+00 1.05882359e+00 1.07510293e+00 1.37322509e+00
      1.05583751e+00 1.04565537e+00 1.02739727e+00 1.12374902e+00
      1.16267121e+00 1.03806579e+00 1.01920235e+00 1.05882359e+00
      1.07510293e+00 1.37322509e+00 1.06058919e+00 1.04470944e+00
      1.04314721e+00 1.12494957e+00 8.51522863e-01 1.06958473e+00
      1.05202317e+00 1.04398823e+00 1.14173090e+00 1.01466274e+00
      1.05474865e+00 1.06094527e+00 1.04104483e+00 1.10723209e+00
      1.50000000e+00 1.06958473e+00 1.05202317e+00 1.04398823e+00
      1.14173090e+00 1.01466274e+00 1.05583751e+00 1.04565537e+00
      1.02739727e+00 1.12374902e+00 1.16267121e+00 1.04588699e+00
      1.03453040e+00 1.02722776e+00 1.10277843e+00 8.96039605e-01
      1.05664611e+00 1.03724134e+00 1.02298856e+00 1.09045434e+00
      4.16666651e+00 1.03717279e+00 1.04260647e+00 1.08196723e+00
      1.09424078e+00 6.54098368e+00 1.03806579e+00 1.01920235e+00
      1.05882359e+00 1.07510293e+00 1.37322509e+00 1.06058919e+00
      1.04470944e+00 1.04314721e+00 1.12494957e+00 8.51522863e-01
      1.74292457e+00 1. 1.08101261e+00 3.10377264e+00 5.06329127e-02
      1.59366751e+00 1.04225349e+00 1.17982459e+00 3.03957772e+00
      3.11403513e-01 2.05825233e+00 12. 1.25858128e+00 3.83689332e+00
      4.57665883e-03 1.07659113e+00 1.09682083e+00 1.04278076e+00
      1.18684733e+00 9.25133705e-01 2.44736838e+00 27. 2.90909100e+01
      4.84210539e+00 9.09090936e-02 2.81632662e+00 2.29999995e+00
      5.43333321e+01 5.63265228e+00 1.66666663e+00 1.33550489e+00
      1.29629624e+00 3.16216207e+00 1.95439744e+00 7.29729712e-01
      1.07659113e+00 1.09682083e+00 1.04278076e+00 1.18684733e+00
      9.25133705e-01 1.80395687e+00 1.45454550e+00 1.10869563e+00
      3.24100709e+00 4.78260852e-02 1.59366751e+00 1.04225349e+00
      1.17982459e+00 3.03957772e+00 3.11403513e-01 2.20171666e+00 .Inf
      5.77999992e+01 4.32618046e+00 0. 1.33550489e+00 1.29629624e+00
      3.16216207e+00 1.95439744e+00 7.29729712e-01 1.80395687e+00
      1.45454550e+00 1.10869563e+00 3.24100709e+00 4.78260852e-02
      2.05825233e+00 12. 1.25858128e+00 3.83689332e+00 4.57665883e-03
      1.74292457e+00 1. 1.08101261e+00 3.10377264e+00 5.06329127e-02
      1.83080256e+00 1. 1.11638951e+00 3.25379610e+00 4.03800458e-02
      2.20171666e+00 .Inf 5.77999992e+01 4.32618046e+00 0.
      1.07659113e+00 1.09682083e+00 1.04278076e+00 1.18684733e+00
      9.25133705e-01 1.83080256e+00 1. 1.11638951e+00 3.25379610e+00
      4.03800458e-02 1.80395687e+00 1.45454550e+00 1.10869563e+00
      3.24100709e+00 4.78260852e-02 2.20171666e+00 .Inf 5.77999992e+01
      4.32618046e+00 0. 1.33550489e+00 1.29629624e+00 3.16216207e+00
      1.95439744e+00 7.29729712e-01 2.44736838e+00 27. 2.90909100e+01
      4.84210539e+00 9.09090936e-02 2.81632662e+00 2.29999995e+00
      5.43333321e+01 5.63265228e+00 1.66666663e+00 1.07659113e+00
      1.09682083e+00 1.04278076e+00 1.18684733e+00 9.25133705e-01
      2.81632662e+00 2.29999995e+00 5.43333321e+01 5.63265228e+00
      1.66666663e+00 1.83080256e+00 1. 1.11638951e+00 3.25379610e+00
      4.03800458e-02 2.81632662e+00 2.29999995e+00 5.43333321e+01
      5.63265228e+00 1.66666663e+00 2.81632662e+00 2.29999995e+00
      5.43333321e+01 5.63265228e+00 1.66666663e+00 2.20171666e+00 .Inf
      5.77999992e+01 4.32618046e+00 0. 1.80395687e+00 1.45454550e+00
      1.10869563e+00 3.24100709e+00 4.78260852e-02 1.72202170e+00 4.
      6.36111116e+00 3.06859207e+00 1.38888896e-01 1.33550489e+00
      1.29629624e+00 3.16216207e+00 1.95439744e+00 7.29729712e-01
      1.07659113e+00 1.09682083e+00 1.04278076e+00 1.18684733e+00
      9.25133705e-01 2.05825233e+00 12. 1.25858128e+00 3.83689332e+00
      4.57665883e-03 1.80395687e+00 1.45454550e+00 1.10869563e+00
      3.24100709e+00 4.78260852e-02 1.83080256e+00 1. 1.11638951e+00
      3.25379610e+00 4.03800458e-02 1.33550489e+00 1.29629624e+00
      3.16216207e+00 1.95439744e+00 7.29729712e-01 1.74292457e+00 1.
      1.08101261e+00 3.10377264e+00 5.06329127e-02 1.59366751e+00
      1.04225349e+00 1.17982459e+00 3.03957772e+00 3.11403513e-01
      1.74292457e+00 1. 1.08101261e+00 3.10377264e+00 5.06329127e-02
      1.07659113e+00 1.09682083e+00 1.04278076e+00 1.18684733e+00
      9.25133705e-01 1.07659113e+00 1.09682083e+00 1.04278076e+00
      1.18684733e+00 9.25133705e-01 2.05825233e+00 12. 1.25858128e+00
      3.83689332e+00 4.57665883e-03 1.83080256e+00 1. 1.11638951e+00
      3.25379610e+00 4.03800458e-02 1.07659113e+00 1.09682083e+00
      1.04278076e+00 1.18684733e+00 9.25133705e-01 2.81632662e+00
      2.29999995e+00 5.43333321e+01 5.63265228e+00 1.66666663e+00
      1.59366751e+00 1.04225349e+00 1.17982459e+00 3.03957772e+00
      3.11403513e-01 1.07659113e+00 1.09682083e+00 1.04278076e+00
      1.18684733e+00 9.25133705e-01 1.80395687e+00 1.45454550e+00
      1.10869563e+00 3.24100709e+00 4.78260852e-02 1.33550489e+00
      1.29629624e+00 3.16216207e+00 1.95439744e+00 7.29729712e-01
      1.07659113e+00 1.09682083e+00 1.04278076e+00 1.18684733e+00
      9.25133705e-01 1.07659113e+00 1.09682083e+00 1.04278076e+00
      1.18684733e+00 9.25133705e-01 2.44736838e+00 27. 2.90909100e+01
      4.84210539e+00 9.09090936e-02 1.74292457e+00 1. 1.08101261e+00
      3.10377264e+00 5.06329127e-02 1.59366751e+00 1.04225349e+00
      1.17982459e+00 3.03957772e+00 3.11403513e-01 1.33550489e+00
      1.29629624e+00 3.16216207e+00 1.95439744e+00 7.29729712e-01
      2.44736838e+00 27. 2.90909100e+01 4.84210539e+00 9.09090936e-02
      2.05825233e+00 12. 1.25858128e+00 3.83689332e+00 4.57665883e-03
      1.33550489e+00 1.29629624e+00 3.16216207e+00 1.95439744e+00
      7.29729712e-01 1.74292457e+00 1. 1.08101261e+00 3.10377264e+00
      5.06329127e-02 1.80395687e+00 1.45454550e+00 1.10869563e+00
      3.24100709e+00 4.78260852e-02 1.07659113e+00 1.09682083e+00
      1.04278076e+00 1.18684733e+00 9.25133705e-01 1.72202170e+00 4.
      6.36111116e+00 3.06859207e+00 1.38888896e-01 1.07659113e+00
      1.09682083e+00 1.04278076e+00 1.18684733e+00 9.25133705e-01
      1.07659113e+00 1.09682083e+00 1.04278076e+00 1.18684733e+00
      9.25133705e-01 2.44736838e+00 27. 2.90909100e+01 4.84210539e+00
      9.09090936e-02 1.80395687e+00 1.45454550e+00 1.10869563e+00
      3.24100709e+00 4.78260852e-02 2.44736838e+00 27. 2.90909100e+01
      4.84210539e+00 9.09090936e-02 1.59366751e+00 1.04225349e+00
      1.17982459e+00 3.03957772e+00 3.11403513e-01 1.59366751e+00
      1.04225349e+00 1.17982459e+00 3.03957772e+00 3.11403513e-01
      2.05825233e+00 12. 1.25858128e+00 3.83689332e+00 4.57665883e-03
      1.72202170e+00 4. 6.36111116e+00 3.06859207e+00 1.38888896e-01
      1.59366751e+00 1.04225349e+00 1.17982459e+00 3.03957772e+00
      3.11403513e-01 1.83080256e+00 1. 1.11638951e+00 3.25379610e+00
      4.03800458e-02 1.72202170e+00 4. 6.36111116e+00 3.06859207e+00
      1.38888896e-01 1.83080256e+00 1. 1.11638951e+00 3.25379610e+00
      4.03800458e-02 1.80395687e+00 1.45454550e+00 1.10869563e+00
      3.24100709e+00 4.78260852e-02 1.59366751e+00 1.04225349e+00
      1.17982459e+00 3.03957772e+00 3.11403513e-01 2.20171666e+00 .Inf
      5.77999992e+01 4.32618046e+00 0. 1.80395687e+00 1.45454550e+00
      1.10869563e+00 3.24100709e+00 4.78260852e-02 1.74292457e+00 1.
      1.08101261e+00 3.10377264e+00 5.06329127e-02 1.07659113e+00
      1.09682083e+00 1.04278076e+00 1.18684733e+00 9.25133705e-01
      2.20171666e+00 .Inf 5.77999992e+01 4.32618046e+00 0.
      1.72202170e+00 4. 6.36111116e+00 3.06859207e+00 1.38888896e-01
      2.44736838e+00 27. 2.90909100e+01 4.84210539e+00 9.09090936e-02
      2.20171666e+00 .Inf 5.77999992e+01 4.32618046e+00 0.
      2.05825233e+00 12. 1.25858128e+00 3.83689332e+00 4.57665883e-03
      2.05825233e+00 12. 1.25858128e+00 3.83689332e+00 4.57665883e-03
      2.05825233e+00 12. 1.25858128e+00 3.83689332e+00 4.57665883e-03
      1.07659113e+00 1.09682083e+00 1.04278076e+00 1.18684733e+00
      9.25133705e-01 1.80395687e+00 1.45454550e+00 1.10869563e+00
      3.24100709e+00 4.78260852e-02 2.05825233e+00 12. 1.25858128e+00
      3.83689332e+00 4.57665883e-03 1.74292457e+00 1. 1.08101261e+00
      3.10377264e+00 5.06329127e-02 2.81632662e+00 2.29999995e+00
      5.43333321e+01 5.63265228e+00 1.66666663e+00 2.81632662e+00
      2.29999995e+00 5.43333321e+01 5.63265228e+00 1.66666663e+00
      2.20171666e+00 .Inf 5.77999992e+01 4.32618046e+00 0.
      1.80395687e+00 1.45454550e+00 1.10869563e+00 3.24100709e+00
      4.78260852e-02 1.07659113e+00 1.09682083e+00 1.04278076e+00
      1.18684733e+00 9.25133705e-01 1.72202170e+00 4. 6.36111116e+00
      3.06859207e+00 1.38888896e-01 1.59366751e+00 1.04225349e+00
      1.17982459e+00 3.03957772e+00 3.11403513e-01 2.20171666e+00 .Inf
      5.77999992e+01 4.32618046e+00 0. 2.81632662e+00 2.29999995e+00
      5.43333321e+01 5.63265228e+00 1.66666663e+00 1.59366751e+00
      1.04225349e+00 1.17982459e+00 3.03957772e+00 3.11403513e-01
      1.59366751e+00 1.04225349e+00 1.17982459e+00 3.03957772e+00
      3.11403513e-01 2.81632662e+00 2.29999995e+00 5.43333321e+01
      5.63265228e+00 1.66666663e+00 1.74292457e+00 1. 1.08101261e+00
      3.10377264e+00 5.06329127e-02 2.20171666e+00 .Inf 5.77999992e+01
      4.32618046e+00 0. 1.74292457e+00 1. 1.08101261e+00 3.10377264e+00
      5.06329127e-02 2.44736838e+00 27. 2.90909100e+01 4.84210539e+00
      9.09090936e-02 2.44736838e+00 27. 2.90909100e+01 4.84210539e+00
      9.09090936e-02 1.83080256e+00 1. 1.11638951e+00 3.25379610e+00
      4.03800458e-02 2.05825233e+00 12. 1.25858128e+00 3.83689332e+00
      4.57665883e-03 2.81632662e+00 2.29999995e+00 5.43333321e+01
      5.63265228e+00 1.66666663e+00 2.81632662e+00 2.29999995e+00
      5.43333321e+01 5.63265228e+00 1.66666663e+00 1.80395687e+00
      1.45454550e+00 1.10869563e+00 3.24100709e+00 4.78260852e-02
      2.05825233e+00 12. 1.25858128e+00 3.83689332e+00 4.57665883e-03
      1.72202170e+00 4. 6.36111116e+00 3.06859207e+00 1.38888896e-01
      1.72202170e+00 4. 6.36111116e+00 3.06859207e+00 1.38888896e-01
      1.07659113e+00 1.09682083e+00 1.04278076e+00 1.18684733e+00
      9.25133705e-01 1.72202170e+00 4. 6.36111116e+00 3.06859207e+00
      1.38888896e-01 1.07659113e+00 1.09682083e+00 1.04278076e+00
      1.18684733e+00 9.25133705e-01 2.05825233e+00 12. 1.25858128e+00
      3.83689332e+00 4.57665883e-03 1.83080256e+00 1. 1.11638951e+00
      3.25379610e+00 4.03800458e-02 1.74292457e+00 1. 1.08101261e+00
      3.10377264e+00 5.06329127e-02 1.80395687e+00 1.45454550e+00
      1.10869563e+00 3.24100709e+00 4.78260852e-02 1.59366751e+00
      1.04225349e+00 1.17982459e+00 3.03957772e+00 3.11403513e-01
      2.20171666e+00 .Inf 5.77999992e+01 4.32618046e+00 0.
      1.07659113e+00 1.09682083e+00 1.04278076e+00 1.18684733e+00
      9.25133705e-01 1.59366751e+00 1.04225349e+00 1.17982459e+00
      3.03957772e+00 3.11403513e-01 2.81632662e+00 2.29999995e+00
      5.43333321e+01 5.63265228e+00 1.66666663e+00 1.83080256e+00 1.
      1.11638951e+00 3.25379610e+00 4.03800458e-02 2.81632662e+00
      2.29999995e+00 5.43333321e+01 5.63265228e+00 1.66666663e+00
      1.59366751e+00 1.04225349e+00 1.17982459e+00 3.03957772e+00
      3.11403513e-01 2.44736838e+00 27. 2.90909100e+01 4.84210539e+00
      9.09090936e-02 1.33550489e+00 1.29629624e+00 3.16216207e+00
      1.95439744e+00 7.29729712e-01 1.72202170e+00 4. 6.36111116e+00
      3.06859207e+00 1.38888896e-01 1.07659113e+00 1.09682083e+00
      1.04278076e+00 1.18684733e+00 9.25133705e-01 1.83080256e+00 1.
      1.11638951e+00 3.25379610e+00 4.03800458e-02 1.07659113e+00
      1.09682083e+00 1.04278076e+00 1.18684733e+00 9.25133705e-01
      1.74292457e+00 1. 1.08101261e+00 3.10377264e+00 5.06329127e-02
      1.74292457e+00 1. 1.08101261e+00 3.10377264e+00 5.06329127e-02
      1.33550489e+00 1.29629624e+00 3.16216207e+00 1.95439744e+00
      7.29729712e-01 1.80395687e+00 1.45454550e+00 1.10869563e+00
      3.24100709e+00 4.78260852e-02 2.20171666e+00 .Inf 5.77999992e+01
      4.32618046e+00 0. 1.83080256e+00 1. 1.11638951e+00 3.25379610e+00
      4.03800458e-02 1.72202170e+00 4. 6.36111116e+00 3.06859207e+00
      1.38888896e-01 2.20171666e+00 .Inf 5.77999992e+01 4.32618046e+00
      0. 2.44736838e+00 27. 2.90909100e+01 4.84210539e+00 9.09090936e-02
      1.07659113e+00 1.09682083e+00 1.04278076e+00 1.18684733e+00
      9.25133705e-01 2.05825233e+00 12. 1.25858128e+00 3.83689332e+00
      4.57665883e-03 1.72202170e+00 4. 6.36111116e+00 3.06859207e+00
      1.38888896e-01 1.80395687e+00 1.45454550e+00 1.10869563e+00
      3.24100709e+00 4.78260852e-02 2.20171666e+00 .Inf 5.77999992e+01
      4.32618046e+00 0. 1.83080256e+00 1. 1.11638951e+00 3.25379610e+00
      4.03800458e-02 1.07659113e+00 1.09682083e+00 1.04278076e+00
      1.18684733e+00 9.25133705e-01 2.81632662e+00 2.29999995e+00
      5.43333321e+01 5.63265228e+00 1.66666663e+00 1.74292457e+00 1.
      1.08101261e+00 3.10377264e+00 5.06329127e-02 1.07659113e+00
      1.09682083e+00 1.04278076e+00 1.18684733e+00 9.25133705e-01
      2.20171666e+00 .Inf 5.77999992e+01 4.32618046e+00 0.
      1.83080256e+00 1. 1.11638951e+00 3.25379610e+00 4.03800458e-02
      1.59366751e+00 1.04225349e+00 1.17982459e+00 3.03957772e+00
      3.11403513e-01 1.59366751e+00 1.04225349e+00 1.17982459e+00
      3.03957772e+00 3.11403513e-01 1.59366751e+00 1.04225349e+00
      1.17982459e+00 3.03957772e+00 3.11403513e-01 2.05825233e+00 12.
      1.25858128e+00 3.83689332e+00 4.57665883e-03 1.80395687e+00
      1.45454550e+00 1.10869563e+00 3.24100709e+00 4.78260852e-02
      2.05825233e+00 12. 1.25858128e+00 3.83689332e+00 4.57665883e-03
      1.07659113e+00 1.09682083e+00 1.04278076e+00 1.18684733e+00
      9.25133705e-01 2.81632662e+00 2.29999995e+00 5.43333321e+01
      5.63265228e+00 1.66666663e+00 1.74292457e+00 1. 1.08101261e+00
      3.10377264e+00 5.06329127e-02 1.74292457e+00 1. 1.08101261e+00
      3.10377264e+00 5.06329127e-02 1.59366751e+00 1.04225349e+00
      1.17982459e+00 3.03957772e+00 3.11403513e-01 1.72202170e+00 4.
      6.36111116e+00 3.06859207e+00 1.38888896e-01 1.33550489e+00
      1.29629624e+00 3.16216207e+00 1.95439744e+00 7.29729712e-01
      2.44736838e+00 27. 2.90909100e+01 4.84210539e+00 9.09090936e-02
      1.72202170e+00 4. 6.36111116e+00 3.06859207e+00 1.38888896e-01
      2.20171666e+00 .Inf 5.77999992e+01 4.32618046e+00 0.
      1.07659113e+00 1.09682083e+00 1.04278076e+00 1.18684733e+00
      9.25133705e-01 1.80395687e+00 1.45454550e+00 1.10869563e+00
      3.24100709e+00 4.78260852e-02 1.72202170e+00 4. 6.36111116e+00
      3.06859207e+00 1.38888896e-01 1.07659113e+00 1.09682083e+00
      1.04278076e+00 1.18684733e+00 9.25133705e-01 1.59366751e+00
      1.04225349e+00 1.17982459e+00 3.03957772e+00 3.11403513e-01
      1.80395687e+00 1.45454550e+00 1.10869563e+00 3.24100709e+00
      4.78260852e-02 1.83080256e+00 1. 1.11638951e+00 3.25379610e+00
      4.03800458e-02 1.74292457e+00 1. 1.08101261e+00 3.10377264e+00
      5.06329127e-02 1.80395687e+00 1.45454550e+00 1.10869563e+00
      3.24100709e+00 4.78260852e-02 2.81632662e+00 2.29999995e+00
      5.43333321e+01 5.63265228e+00 1.66666663e+00 1.59366751e+00
      1.04225349e+00 1.17982459e+00 3.03957772e+00 3.11403513e-01
      2.81632662e+00 2.29999995e+00 5.43333321e+01 5.63265228e+00
      1.66666663e+00 1.59366751e+00 1.04225349e+00 1.17982459e+00
      3.03957772e+00 3.11403513e-01 1.07659113e+00 1.09682083e+00
      1.04278076e+00 1.18684733e+00 9.25133705e-01 1.59366751e+00
      1.04225349e+00 1.17982459e+00 3.03957772e+00 3.11403513e-01
      1.74292457e+00 1. 1.08101261e+00 3.10377264e+00 5.06329127e-02
      2.44736838e+00 27. 2.90909100e+01 4.84210539e+00 9.09090936e-02
      1.80395687e+00 1.45454550e+00 1.10869563e+00 3.24100709e+00
      4.78260852e-02 2.44736838e+00 27. 2.90909100e+01 4.84210539e+00
      9.09090936e-02 1.74292457e+00 1. 1.08101261e+00 3.10377264e+00
      5.06329127e-02 1.80395687e+00 1.45454550e+00 1.10869563e+00
      3.24100709e+00 4.78260852e-02 2.44736838e+00 27. 2.90909100e+01
      4.84210539e+00 9.09090936e-02 1.80395687e+00 1.45454550e+00
      1.10869563e+00 3.24100709e+00 4.78260852e-02 1.07486093e+00
      1.14203453e+00 1.03088808e+00 1.15584052e+00 5.02895772e-01
      1.06448364e+00 1.12183905e+00 1.02777779e+00 1.14256930e+00
      5.25362313e-01 1.08547890e+00 1.06633902e+00 1.05020487e+00
      1.18760026e+00 8.34016383e-01 1.04117644e+00 1.09176469e+00
      1.01067615e+00 1.11176467e+00 7.56227732e-01 1.08055699e+00
      1.08364308e+00 1.03563941e+00 1.15860105e+00 5.63941300e-01
      1.08841777e+00 1.09256446e+00 1.03644156e+00 1.17538464e+00
      7.06323683e-01 1.08547890e+00 1.06633902e+00 1.05020487e+00
      1.18760026e+00 8.34016383e-01 1.08031082e+00 1.09608543e+00
      1.04889405e+00 1.16880143e+00 9.81373668e-01 1.08014476e+00
      1.09312975e+00 1.03186023e+00 1.18016803e+00 6.73175752e-01
      1.07315838e+00 1.05542457e+00 1.03260875e+00 1.17994142e+00
      9.21739101e-01 1.08055699e+00 1.08364308e+00 1.03563941e+00
      1.15860105e+00 5.63941300e-01 1.05711424e+00 1.06966293e+00
      1.00802565e+00 1.13627255e+00 7.14285731e-01 1.08031082e+00
      1.09608543e+00 1.04889405e+00 1.16880143e+00 9.81373668e-01
      1.04117644e+00 1.09176469e+00 1.01067615e+00 1.11176467e+00
      7.56227732e-01 1.08031082e+00 1.09608543e+00 1.04889405e+00
      1.16880143e+00 9.81373668e-01 1.05711424e+00 1.06966293e+00
      1.00802565e+00 1.13627255e+00 7.14285731e-01 1.08014476e+00
      1.09312975e+00 1.03186023e+00 1.18016803e+00 6.73175752e-01
      1.04117644e+00 1.09176469e+00 1.01067615e+00 1.11176467e+00
      7.56227732e-01 1.08841777e+00 1.09256446e+00 1.03644156e+00
      1.17538464e+00 7.06323683e-01 1.08055699e+00 1.08364308e+00
      1.03563941e+00 1.15860105e+00 5.63941300e-01 1.08841777e+00
      1.09256446e+00 1.03644156e+00 1.17538464e+00 7.06323683e-01
      1.06448364e+00 1.12183905e+00 1.02777779e+00 1.14256930e+00
      5.25362313e-01 1.04117644e+00 1.09176469e+00 1.01067615e+00
      1.11176467e+00 7.56227732e-01 1.08547890e+00 1.06633902e+00
      1.05020487e+00 1.18760026e+00 8.34016383e-01 1.07486093e+00
      1.14203453e+00 1.03088808e+00 1.15584052e+00 5.02895772e-01
      1.04117644e+00 1.09176469e+00 1.01067615e+00 1.11176467e+00
      7.56227732e-01 1.08031082e+00 1.09608543e+00 1.04889405e+00
      1.16880143e+00 9.81373668e-01 1.07315838e+00 1.05542457e+00
      1.03260875e+00 1.17994142e+00 9.21739101e-01 1.06448364e+00
      1.12183905e+00 1.02777779e+00 1.14256930e+00 5.25362313e-01
      1.06448364e+00 1.12183905e+00 1.02777779e+00 1.14256930e+00
      5.25362313e-01 1.08547890e+00 1.06633902e+00 1.05020487e+00
      1.18760026e+00 8.34016383e-01 1.08547890e+00 1.06633902e+00
      1.05020487e+00 1.18760026e+00 8.34016383e-01 1.08055699e+00
      1.08364308e+00 1.03563941e+00 1.15860105e+00 5.63941300e-01
      1.08547890e+00 1.06633902e+00 1.05020487e+00 1.18760026e+00
      8.34016383e-01 1.08179009e+00 1.07666099e+00 1.04389083e+00
      1.18475425e+00 6.96322680e-01 1.06448364e+00 1.12183905e+00
      1.02777779e+00 1.14256930e+00 5.25362313e-01 1.05711424e+00
      1.06966293e+00 1.00802565e+00 1.13627255e+00 7.14285731e-01
      1.06448364e+00 1.12183905e+00 1.02777779e+00 1.14256930e+00
      5.25362313e-01 1.08014476e+00 1.09312975e+00 1.03186023e+00
      1.18016803e+00 6.73175752e-01 1.04117644e+00 1.09176469e+00
      1.01067615e+00 1.11176467e+00 7.56227732e-01 1.08055699e+00
      1.08364308e+00 1.03563941e+00 1.15860105e+00 5.63941300e-01
      1.07486093e+00 1.14203453e+00 1.03088808e+00 1.15584052e+00
      5.02895772e-01 1.08179009e+00 1.07666099e+00 1.04389083e+00
      1.18475425e+00 6.96322680e-01 1.08547890e+00 1.06633902e+00
      1.05020487e+00 1.18760026e+00 8.34016383e-01 1.08055699e+00
      1.08364308e+00 1.03563941e+00 1.15860105e+00 5.63941300e-01
      1.08014476e+00 1.09312975e+00 1.03186023e+00 1.18016803e+00
      6.73175752e-01 1.04117644e+00 1.09176469e+00 1.01067615e+00
      1.11176467e+00 7.56227732e-01 1.07486093e+00 1.14203453e+00
      1.03088808e+00 1.15584052e+00 5.02895772e-01 1.06448364e+00
      1.12183905e+00 1.02777779e+00 1.14256930e+00 5.25362313e-01
      1.04117644e+00 1.09176469e+00 1.01067615e+00 1.11176467e+00
      7.56227732e-01 1.08055699e+00 1.08364308e+00 1.03563941e+00
      1.15860105e+00 5.63941300e-01 1.08014476e+00 1.09312975e+00
      1.03186023e+00 1.18016803e+00 6.73175752e-01 1.05711424e+00
      1.06966293e+00 1.00802565e+00 1.13627255e+00 7.14285731e-01
      1.08547890e+00 1.06633902e+00 1.05020487e+00 1.18760026e+00
      8.34016383e-01 1.08031082e+00 1.09608543e+00 1.04889405e+00
      1.16880143e+00 9.81373668e-01 1.05711424e+00 1.06966293e+00
      1.00802565e+00 1.13627255e+00 7.14285731e-01 1.08014476e+00
      1.09312975e+00 1.03186023e+00 1.18016803e+00 6.73175752e-01
      1.08547890e+00 1.06633902e+00 1.05020487e+00 1.18760026e+00
      8.34016383e-01 1.08179009e+00 1.07666099e+00 1.04389083e+00
      1.18475425e+00 6.96322680e-01 1.07315838e+00 1.05542457e+00
      1.03260875e+00 1.17994142e+00 9.21739101e-01 1.05711424e+00
      1.06966293e+00 1.00802565e+00 1.13627255e+00 7.14285731e-01
      1.04117644e+00 1.09176469e+00 1.01067615e+00 1.11176467e+00
      7.56227732e-01 1.05711424e+00 1.06966293e+00 1.00802565e+00
      1.13627255e+00 7.14285731e-01 1.04117644e+00 1.09176469e+00
      1.01067615e+00 1.11176467e+00 7.56227732e-01 1.04117644e+00
      1.09176469e+00 1.01067615e+00 1.11176467e+00 7.56227732e-01
      1.08031082e+00 1.09608543e+00 1.04889405e+00 1.16880143e+00
      9.81373668e-01 1.04117644e+00 1.09176469e+00 1.01067615e+00
      1.11176467e+00 7.56227732e-01 1.07486093e+00 1.14203453e+00
      1.03088808e+00 1.15584052e+00 5.02895772e-01 1.06448364e+00
      1.12183905e+00 1.02777779e+00 1.14256930e+00 5.25362313e-01
      1.08014476e+00 1.09312975e+00 1.03186023e+00 1.18016803e+00
      6.73175752e-01 1.08179009e+00 1.07666099e+00 1.04389083e+00
      1.18475425e+00 6.96322680e-01 1.08014476e+00 1.09312975e+00
      1.03186023e+00 1.18016803e+00 6.73175752e-01 1.08031082e+00
      1.09608543e+00 1.04889405e+00 1.16880143e+00 9.81373668e-01
      1.05711424e+00 1.06966293e+00 1.00802565e+00 1.13627255e+00
      7.14285731e-01 1.08547890e+00 1.06633902e+00 1.05020487e+00
      1.18760026e+00 8.34016383e-01 1.06448364e+00 1.12183905e+00
      1.02777779e+00 1.14256930e+00 5.25362313e-01 1.08031082e+00
      1.09608543e+00 1.04889405e+00 1.16880143e+00 9.81373668e-01
      1.04117644e+00 1.09176469e+00 1.01067615e+00 1.11176467e+00
      7.56227732e-01 1.05711424e+00 1.06966293e+00 1.00802565e+00
      1.13627255e+00 7.14285731e-01 1.08014476e+00 1.09312975e+00
      1.03186023e+00 1.18016803e+00 6.73175752e-01 1.08547890e+00
      1.06633902e+00 1.05020487e+00 1.18760026e+00 8.34016383e-01
      1.04117644e+00 1.09176469e+00 1.01067615e+00 1.11176467e+00
      7.56227732e-01 1.05711424e+00 1.06966293e+00 1.00802565e+00
      1.13627255e+00 7.14285731e-01 1.04117644e+00 1.09176469e+00
      1.01067615e+00 1.11176467e+00 7.56227732e-01 1.08547890e+00
      1.06633902e+00 1.05020487e+00 1.18760026e+00 8.34016383e-01
      1.08841777e+00 1.09256446e+00 1.03644156e+00 1.17538464e+00
      7.06323683e-01 1.05711424e+00 1.06966293e+00 1.00802565e+00
      1.13627255e+00 7.14285731e-01 1.08014476e+00 1.09312975e+00
      1.03186023e+00 1.18016803e+00 6.73175752e-01 1.04117644e+00
      1.09176469e+00 1.01067615e+00 1.11176467e+00 7.56227732e-01
      1.06448364e+00 1.12183905e+00 1.02777779e+00 1.14256930e+00
      5.25362313e-01 1.07486093e+00 1.14203453e+00 1.03088808e+00
      1.15584052e+00 5.02895772e-01 1.08031082e+00 1.09608543e+00
      1.04889405e+00 1.16880143e+00 9.81373668e-01 1.08031082e+00
      1.09608543e+00 1.04889405e+00 1.16880143e+00 9.81373668e-01
      1.04117644e+00 1.09176469e+00 1.01067615e+00 1.11176467e+00
      7.56227732e-01 1.04117644e+00 1.09176469e+00 1.01067615e+00
      1.11176467e+00 7.56227732e-01 1.07486093e+00 1.14203453e+00
      1.03088808e+00 1.15584052e+00 5.02895772e-01 1.08055699e+00
      1.08364308e+00 1.03563941e+00 1.15860105e+00 5.63941300e-01
      1.08841777e+00 1.09256446e+00 1.03644156e+00 1.17538464e+00
      7.06323683e-01 1.08031082e+00 1.09608543e+00 1.04889405e+00
      1.16880143e+00 9.81373668e-01 1.05711424e+00 1.06966293e+00
      1.00802565e+00 1.13627255e+00 7.14285731e-01 1.07315838e+00
      1.05542457e+00 1.03260875e+00 1.17994142e+00 9.21739101e-01
      1.08179009e+00 1.07666099e+00 1.04389083e+00 1.18475425e+00
      6.96322680e-01 1.04117644e+00 1.09176469e+00 1.01067615e+00
      1.11176467e+00 7.56227732e-01 1.08014476e+00 1.09312975e+00
      1.03186023e+00 1.18016803e+00 6.73175752e-01 1.08841777e+00
      1.09256446e+00 1.03644156e+00 1.17538464e+00 7.06323683e-01
      1.05711424e+00 1.06966293e+00 1.00802565e+00 1.13627255e+00
      7.14285731e-01 1.08179009e+00 1.07666099e+00 1.04389083e+00
      1.18475425e+00 6.96322680e-01 1.08055699e+00 1.08364308e+00
      1.03563941e+00 1.15860105e+00 5.63941300e-01 1.04117644e+00
      1.09176469e+00 1.01067615e+00 1.11176467e+00 7.56227732e-01
      1.04117644e+00 1.09176469e+00 1.01067615e+00 1.11176467e+00
      7.56227732e-01 1.08055699e+00 1.08364308e+00 1.03563941e+00
      1.15860105e+00 5.63941300e-01 1.08031082e+00 1.09608543e+00
      1.04889405e+00 1.16880143e+00 9.81373668e-01 1.07315838e+00
      1.05542457e+00 1.03260875e+00 1.17994142e+00 9.21739101e-01
      1.05711424e+00 1.06966293e+00 1.00802565e+00 1.13627255e+00
      7.14285731e-01 1.07486093e+00 1.14203453e+00 1.03088808e+00
      1.15584052e+00 5.02895772e-01 1.08014476e+00 1.09312975e+00
      1.03186023e+00 1.18016803e+00 6.73175752e-01 1.07315838e+00
      1.05542457e+00 1.03260875e+00 1.17994142e+00 9.21739101e-01
      1.07315838e+00 1.05542457e+00 1.03260875e+00 1.17994142e+00
      9.21739101e-01 1.07486093e+00 1.14203453e+00 1.03088808e+00
      1.15584052e+00 5.02895772e-01 1.08014476e+00 1.09312975e+00
      1.03186023e+00 1.18016803e+00 6.73175752e-01 1.08179009e+00
      1.07666099e+00 1.04389083e+00 1.18475425e+00 6.96322680e-01
      1.07315838e+00 1.05542457e+00 1.03260875e+00 1.17994142e+00
      9.21739101e-01 1.08547890e+00 1.06633902e+00 1.05020487e+00
      1.18760026e+00 8.34016383e-01 1.05711424e+00 1.06966293e+00
      1.00802565e+00 1.13627255e+00 7.14285731e-01 1.08841777e+00
      1.09256446e+00 1.03644156e+00 1.17538464e+00 7.06323683e-01
      1.04117644e+00 1.09176469e+00 1.01067615e+00 1.11176467e+00
      7.56227732e-01 1.08014476e+00 1.09312975e+00 1.03186023e+00
      1.18016803e+00 6.73175752e-01 1.07486093e+00 1.14203453e+00
      1.03088808e+00 1.15584052e+00 5.02895772e-01 1.08014476e+00
      1.09312975e+00 1.03186023e+00 1.18016803e+00 6.73175752e-01
      1.08031082e+00 1.09608543e+00 1.04889405e+00 1.16880143e+00
      9.81373668e-01 1.08179009e+00 1.07666099e+00 1.04389083e+00
      1.18475425e+00 6.96322680e-01 1.08055699e+00 1.08364308e+00
      1.03563941e+00 1.15860105e+00 5.63941300e-01 1.04117644e+00
      1.09176469e+00 1.01067615e+00 1.11176467e+00 7.56227732e-01
      1.08179009e+00 1.07666099e+00 1.04389083e+00 1.18475425e+00
      6.96322680e-01 1.07486093e+00 1.14203453e+00 1.03088808e+00
      1.15584052e+00 5.02895772e-01 1.08031082e+00 1.09608543e+00
      1.04889405e+00 1.16880143e+00 9.81373668e-01 1.08179009e+00
      1.07666099e+00 1.04389083e+00 1.18475425e+00 6.96322680e-01
      1.08547890e+00 1.06633902e+00 1.05020487e+00 1.18760026e+00
      8.34016383e-01 1.06448364e+00 1.12183905e+00 1.02777779e+00
      1.14256930e+00 5.25362313e-01 1.08031082e+00 1.09608543e+00
      1.04889405e+00 1.16880143e+00 9.81373668e-01 1.04117644e+00
      1.09176469e+00 1.01067615e+00 1.11176467e+00 7.56227732e-01
      1.04117644e+00 1.09176469e+00 1.01067615e+00 1.11176467e+00
      7.56227732e-01 1.04117644e+00 1.09176469e+00 1.01067615e+00
      1.11176467e+00 7.56227732e-01 1.06448364e+00 1.12183905e+00
      1.02777779e+00 1.14256930e+00 5.25362313e-01 1.05711424e+00
      1.06966293e+00 1.00802565e+00 1.13627255e+00 7.14285731e-01
      1.06448364e+00 1.12183905e+00 1.02777779e+00 1.14256930e+00
      5.25362313e-01 1.04117644e+00 1.09176469e+00 1.01067615e+00
      1.11176467e+00 7.56227732e-01 1.06448364e+00 1.12183905e+00
      1.02777779e+00 1.14256930e+00 5.25362313e-01 1.07315838e+00
      1.05542457e+00 1.03260875e+00 1.17994142e+00 9.21739101e-01
      1.08055699e+00 1.08364308e+00 1.03563941e+00 1.15860105e+00
      5.63941300e-01 1.08841777e+00 1.09256446e+00 1.03644156e+00
      1.17538464e+00 7.06323683e-01 1.04117644e+00 1.09176469e+00
      1.01067615e+00 1.11176467e+00 7.56227732e-01 1.06448364e+00
      1.12183905e+00 1.02777779e+00 1.14256930e+00 5.25362313e-01
      1.08031082e+00 1.09608543e+00 1.04889405e+00 1.16880143e+00
      9.81373668e-01 1.08031082e+00 1.09608543e+00 1.04889405e+00
      1.16880143e+00 9.81373668e-01 1.04117644e+00 1.09176469e+00
      1.01067615e+00 1.11176467e+00 7.56227732e-01 1.08031082e+00
      1.09608543e+00 1.04889405e+00 1.16880143e+00 9.81373668e-01
      1.04117644e+00 1.09176469e+00 1.01067615e+00 1.11176467e+00
      7.56227732e-01 1.08055699e+00 1.08364308e+00 1.03563941e+00
      1.15860105e+00 5.63941300e-01 1.08014476e+00 1.09312975e+00
      1.03186023e+00 1.18016803e+00 6.73175752e-01 1.08031082e+00
      1.09608543e+00 1.04889405e+00 1.16880143e+00 9.81373668e-01
      1.08547890e+00 1.06633902e+00 1.05020487e+00 1.18760026e+00
      8.34016383e-01 1.04117644e+00 1.09176469e+00 1.01067615e+00
      1.11176467e+00 7.56227732e-01 1.06448364e+00 1.12183905e+00
      1.02777779e+00 1.14256930e+00 5.25362313e-01 1.08547890e+00
      1.06633902e+00 1.05020487e+00 1.18760026e+00 8.34016383e-01
      1.07315838e+00 1.05542457e+00 1.03260875e+00 1.17994142e+00
      9.21739101e-01 1.08014476e+00 1.09312975e+00 1.03186023e+00
      1.18016803e+00 6.73175752e-01 1.08014476e+00 1.09312975e+00
      1.03186023e+00 1.18016803e+00 6.73175752e-01 1.04117644e+00
      1.09176469e+00 1.01067615e+00 1.11176467e+00 7.56227732e-01
      1.08031082e+00 1.09608543e+00 1.04889405e+00 1.16880143e+00
      9.81373668e-01 1.08841777e+00 1.09256446e+00 1.03644156e+00
      1.17538464e+00 7.06323683e-01 1.07315838e+00 1.05542457e+00
      1.03260875e+00 1.17994142e+00 9.21739101e-01 1.08014476e+00
      1.09312975e+00 1.03186023e+00 1.18016803e+00 6.73175752e-01
      1.08055699e+00 1.08364308e+00 1.03563941e+00 1.15860105e+00
      5.63941300e-01 1.05711424e+00 1.06966293e+00 1.00802565e+00
      1.13627255e+00 7.14285731e-01 1.05711424e+00 1.06966293e+00
      1.00802565e+00 1.13627255e+00 7.14285731e-01 1.08031082e+00
      1.09608543e+00 1.04889405e+00 1.16880143e+00 9.81373668e-01
      1.08055699e+00 1.08364308e+00 1.03563941e+00 1.15860105e+00
      5.63941300e-01 1.04117644e+00 1.09176469e+00 1.01067615e+00
      1.11176467e+00 7.56227732e-01 1.08547890e+00 1.06633902e+00
      1.05020487e+00 1.18760026e+00 8.34016383e-01 1.04117644e+00
      1.09176469e+00 1.01067615e+00 1.11176467e+00 7.56227732e-01
      1.08179009e+00 1.07666099e+00 1.04389083e+00 1.18475425e+00
      6.96322680e-01 1.08841777e+00 1.09256446e+00 1.03644156e+00
      1.17538464e+00 7.06323683e-01 1.04117644e+00 1.09176469e+00
      1.01067615e+00 1.11176467e+00 7.56227732e-01 1.08179009e+00
      1.07666099e+00 1.04389083e+00 1.18475425e+00 6.96322680e-01
      1.08055699e+00 1.08364308e+00 1.03563941e+00 1.15860105e+00
      5.63941300e-01 1.07315838e+00 1.05542457e+00 1.03260875e+00
      1.17994142e+00 9.21739101e-01 1.08179009e+00 1.07666099e+00
      1.04389083e+00 1.18475425e+00 6.96322680e-01 1.05711424e+00
      1.06966293e+00 1.00802565e+00 1.13627255e+00 7.14285731e-01
      1.04117644e+00 1.09176469e+00 1.01067615e+00 1.11176467e+00
      7.56227732e-01 1.07315838e+00 1.05542457e+00 1.03260875e+00
      1.17994142e+00 9.21739101e-01 1.08055699e+00 1.08364308e+00
      1.03563941e+00 1.15860105e+00 5.63941300e-01 1.08031082e+00
      1.09608543e+00 1.04889405e+00 1.16880143e+00 9.81373668e-01
      1.06448364e+00 1.12183905e+00 1.02777779e+00 1.14256930e+00
      5.25362313e-01 1.06448364e+00 1.12183905e+00 1.02777779e+00
      1.14256930e+00 5.25362313e-01 1.04117644e+00 1.09176469e+00
      1.01067615e+00 1.11176467e+00 7.56227732e-01 1.08179009e+00
      1.07666099e+00 1.04389083e+00 1.18475425e+00 6.96322680e-01
      1.08841777e+00 1.09256446e+00 1.03644156e+00 1.17538464e+00
      7.06323683e-01 1.08014476e+00 1.09312975e+00 1.03186023e+00
      1.18016803e+00 6.73175752e-01 1.05711424e+00 1.06966293e+00
      1.00802565e+00 1.13627255e+00 7.14285731e-01</data></samples>
  <responses type_id="opencv-matrix">
    <rows>800</rows>
    <cols>1</cols>
    <dt>f</dt>
    <data>
      10. 10. 10. 10. 10. 10. 10. 10. 10. 10. 10. 10. 10. 10. 10. 10.
      10. 10. 10. 10. 10. 10. 10. 10. 10. 10. 10. 10. 10. 10. 10. 10.
      10. 10. 10. 10. 10. 10. 10. 10. 10. 10. 10. 10. 10. 10. 10. 10.
      10. 10. 10. 10. 10. 10. 10. 10. 10. 10. 10. 10. 10. 10. 10. 10.
      10. 10. 10. 10. 10. 10. 10. 10. 10. 10. 10. 10. 10. 10. 10. 10.
      10. 10. 10. 10. 10. 10. 10. 10. 10. 10. 10. 10. 10. 10. 10. 10.
      10. 10. 10. 10. 10. 10. 10. 10. 10. 10. 10. 10. 10. 10. 10. 10.
      10. 10. 10. 10. 10. 10. 10. 10. 10. 10. 10. 10. 10. 10. 10. 10.
      10. 10. 10. 10. 10. 10. 10. 10. 10. 10. 10. 10. 10. 10. 10. 10.
      10. 10. 10. 10. 10. 10. 10. 10. 10. 10. 10. 10. 10. 10. 10. 10.
      10. 10. 10. 10. 10. 10. 10. 10. 10. 10. 10. 10. 10. 10. 10. 10.
      10. 10. 10. 10. 10. 10. 10. 10. 10. 10. 10. 10. 10. 10. 10. 10.
      10. 10. 10. 10. 10. 10. 10. 10. 10. 10. 10. 10. 10. 10. 10. 10.
      10. 10. 10. 10. 10. 10. 10. 10. 10. 10. 10. 10. 10. 10. 10. 10.
      10. 10. 10. 10. 10. 10. 10. 10. 10. 10. 10. 10. 10. 10. 10. 10.
      10. 10. 10. 10. 10. 10. 10. 10. 10. 10. 10. 10. 10. 10. 10. 10.
      10. 10. 10. 10. 10. 10. 10. 10. 10. 10. 10. 10. 10. 10. 10. 10.
      10. 10. 10. 10. 10. 10. 10. 10. 10. 10. 10. 10. 10. 10. 10. 10.
      10. 10. 10. 10. 10. 10. 10. 10. 10. 10. 10. 10. 10. 10. 10. 10.
      10. 10. 10. 10. 10. 10. 10. 10. 10. 10. 10. 10. 10. 10. 10. 10.
      10. 10. 10. 10. 10. 10. 10. 10. 10. 10. 10. 10. 10. 10. 10. 10.
      10. 10. 10. 10. 10. 10. 10. 10. 10. 10. 10. 10. 10. 10. 10. 10.
      10. 10. 10. 10. 10. 10. 10. 10. 10. 10. 10. 10. 10. 10. 10. 10.
      10. 10. 10. 10. 10. 10. 10. 10. 10. 10. 10. 10. 10. 10. 10. 10.
      10. 10. 10. 10. 10. 10. 10. 10. 10. 10. 10. 10. 10. 10. 10. 10.
      13. 13. 13. 13. 13. 13. 13. 13. 13. 13. 13. 13. 13. 13. 13. 13.
      13. 13. 13. 13. 13. 13. 13. 13. 13. 13. 13. 13. 13. 13. 13. 13.
      13. 13. 13. 13. 13. 13. 13. 13. 13. 13. 13. 13. 13. 13. 13. 13.
      13. 13. 13. 13. 13. 13. 13. 13. 13. 13. 13. 13. 13. 13. 13. 13.
      13. 13. 13. 13. 13. 13. 13. 13. 13. 13. 13. 13. 13. 13. 13. 13.
      13. 13. 13. 13. 13. 13. 13. 13. 13. 13. 13. 13. 13. 13. 13. 13.
      13. 13. 13. 13. 13. 13. 13. 13. 13. 13. 13. 13. 13. 13. 13. 13.
      13. 13. 13. 13. 13. 13. 13. 13. 13. 13. 13. 13. 13. 13. 13. 13.
      13. 13. 13. 13. 13. 13. 13. 13. 13. 13. 13. 13. 13. 13. 13. 13.
      13. 13. 13. 13. 13. 13. 13. 13. 13. 13. 13. 13. 13. 13. 13. 13.
      13. 13. 13. 13. 13. 13. 13. 13. 13. 13. 13. 13. 13. 13. 13. 13.
      13. 13. 13. 13. 13. 13. 13. 13. 13. 13. 13. 13. 13. 13. 13. 13.
      13. 13. 13. 13. 13. 13. 13. 13. 13. 13. 13. 13. 13. 13. 13. 13.
      13. 13. 13. 13. 13. 13. 13. 13. 13. 13. 13. 13. 13. 13. 13. 13.
      13. 13. 13. 13. 13. 13. 13. 13. 13. 13. 13. 13. 13. 13. 13. 13.
      13. 13. 13. 13. 13. 13. 13. 13. 13. 13. 13. 13. 13. 13. 13. 13.
      13. 13. 13. 13. 13. 13. 13. 13. 13. 13. 13. 13. 13. 13. 13. 13.
      13. 13. 13. 13. 13. 13. 13. 13. 13. 13. 13. 13. 13. 13. 13. 13.
      13. 13. 13. 13. 13. 13. 13. 13. 13. 13. 13. 13. 13. 13. 13. 13.
      13. 13. 13. 13. 13. 13. 13. 13. 13. 13. 13. 13. 13. 13. 13. 13.
      13. 13. 13. 13. 13. 13. 13. 13. 13. 13. 13. 13. 13. 13. 13. 13.
      13. 13. 13. 13. 13. 13. 13. 13. 13. 13. 13. 13. 13. 13. 13. 13.
      13. 13. 13. 13. 13. 13. 13. 13. 13. 13. 13. 13. 13. 13. 13. 13.
      13. 13. 13. 13. 13. 13. 13. 13. 13. 13. 13. 13. 13. 13. 13. 13.
      13. 13. 13. 13. 13. 13. 13. 13. 13. 13. 13. 13. 13. 13. 13. 13.</data></responses></opencv_ml_knn>
</opencv_storage>
